{"learner":{"attributes":{"best_iteration":"199","best_ntree_limit":"200","scikit_learn":"{\"n_estimators\": 200, \"objective\": \"reg:squarederror\", \"max_depth\": 6, \"max_leaves\": null, \"max_bin\": null, \"grow_policy\": null, \"learning_rate\": null, \"verbosity\": null, \"booster\": null, \"tree_method\": null, \"gamma\": 4.611640483766763, \"min_child_weight\": 3, \"max_delta_step\": null, \"subsample\": null, \"sampling_method\": null, \"colsample_bytree\": 0.6698015698568416, \"colsample_bylevel\": null, \"colsample_bynode\": null, \"reg_alpha\": 121, \"reg_lambda\": 0.3991968981946151, \"scale_pos_weight\": null, \"base_score\": null, \"missing\": NaN, \"num_parallel_tree\": null, \"random_state\": null, \"n_jobs\": null, \"monotone_constraints\": null, \"interaction_constraints\": null, \"importance_type\": null, \"gpu_id\": null, \"validate_parameters\": null, \"predictor\": null, \"enable_categorical\": false, \"feature_types\": null, \"max_cat_to_onehot\": null, \"max_cat_threshold\": null, \"eval_metric\": null, \"early_stopping_rounds\": null, \"callbacks\": null, \"_estimator_type\": \"regressor\"}"},"feature_names":["flat_type_0","flat_type_1","flat_type_2","flat_model_0","flat_model_1","flat_model_2","flat_model_3","flat_model_4","Region_0","Region_1","Region_2","closest_JC_sch_0","closest_JC_sch_1","closest_JC_sch_2","closest_JC_sch_3","closest_JC_sch_4","closest_MI_sch_0","closest_MI_sch_1","closest_MI_sch_2","closest_MI_sch_3","closest_Uni_sch_0","closest_Uni_sch_1","closest_Uni_sch_2","town","closest_Pri_sch","closest_Sec_sch","closest_mall","closest_park","closest_mrt","storey_range_lower","num_mrt_1km_radius","num_Pri_sch_1km_radius","num_Sec_sch_1km_radius","num_JC_sch_1km_radius","num_MI_sch_1km_radius","num_Uni_sch_1km_radius","num_mall_1km_radius","num_park_1km_radius","floor_area_sqm","closest_mrt_dist","closest_Pri_sch_dist","closest_Sec_sch_dist","closest_JC_sch_dist","closest_MI_sch_dist","closest_Uni_sch_dist","closest_mall_dist","closest_park_dist","num_of_dwellings_in_town","area_km_sq","density_km_sq","Population","lease_commence_date"],"feature_types":["int","int","int","int","int","int","int","int","int","int","int","int","int","int","int","int","int","int","int","int","int","int","int","float","float","float","float","float","float","float","float","float","float","float","float","float","float","float","float","float","float","float","float","float","float","float","float","float","float","float","float","float"],"gradient_booster":{"model":{"gbtree_model_param":{"num_parallel_tree":"1","num_trees":"200","size_leaf_vector":"0"},"tree_info":[0,0,0,0,0,0,0,0,0,0,0,0,0,0,0,0,0,0,0,0,0,0,0,0,0,0,0,0,0,0,0,0,0,0,0,0,0,0,0,0,0,0,0,0,0,0,0,0,0,0,0,0,0,0,0,0,0,0,0,0,0,0,0,0,0,0,0,0,0,0,0,0,0,0,0,0,0,0,0,0,0,0,0,0,0,0,0,0,0,0,0,0,0,0,0,0,0,0,0,0,0,0,0,0,0,0,0,0,0,0,0,0,0,0,0,0,0,0,0,0,0,0,0,0,0,0,0,0,0,0,0,0,0,0,0,0,0,0,0,0,0,0,0,0,0,0,0,0,0,0,0,0,0,0,0,0,0,0,0,0,0,0,0,0,0,0,0,0,0,0,0,0,0,0,0,0,0,0,0,0,0,0,0,0,0,0,0,0,0,0,0,0,0,0,0,0,0,0,0,0],"trees":[{"base_weights":[4.9331787E3,4.623392E3,6.485559E3,4.1831953E3,4.978834E3,6.1208203E3,7.693378E3,4.427105E3,4.025223E3,4.78963E3,5.338148E3,5.346124E3,6.3832217E3,7.451706E3,9.887327E3,4.1621543E3,4.607854E3,3.8428105E3,4.252602E3,4.578185E3,4.927037E3,4.795522E3,5.514894E3,4.9703955E3,6.2163955E3,5.9916675E3,6.9761177E3,6.329275E3,8.193884E3,4.4091294E3,4.0541326E3,4.172185E3,4.7500234E3,3.9575056E3,3.606837E3,4.364114E3,3.9969343E3,4.5079443E3,5.0815425E3,4.874711E3,5.7273325E3,4.6174897E3,5.249252E3,5.3631914E3,6.473861E3,5.9698467E3,4.7986396E3,5.4136533E3,8.0680435E3,5.9406914E3,1.0095571E4,5.581298E3,7.3909536E3,5.260513E3,7.406674E3,5.754166E3,8.342445E3,6.041146E3,4.3957524E3,3.8128218E3,4.130288E3,5.292596E3,4.119266E3,4.5600425E3,5.0003193E3,3.7783723E3,4.0491343E3,3.6468845E3,3.4114954E3,4.270316E3,4.676237E3,3.747018E3,4.0818677E3,4.856591E3,4.448256E3,4.67878E3,5.285185E3,4.858196E3,7.199754E3,4.2834243E3,5.9626924E3,4.488478E3,4.8609365E3,6.773501E3,5.1561836E3,5.1878667E3,5.848207E3,5.5496226E3,6.883139E3,5.880886E3,8.716972E3,4.460069E3,5.1602793E3,5.1050405E3,6.177176E3,6.5376426E3,8.504051E3,6.3221016E3,5.8549346E3,6.2383413E3,5.262024E3,7.867667E3,6.6120527E3,5.1199614E3,6.2872046E3,7.828465E3,6.6005845E3,4.9648687E3,6.3234785E3,8.595018E3,7.6681343E3],"categories":[],"categories_nodes":[],"categories_segments":[],"categories_sizes":[],"default_left":[1,1,1,1,1,1,1,1,1,1,1,1,1,1,0,1,1,1,1,1,1,1,1,1,1,1,1,1,1,1,1,1,1,1,1,1,1,1,1,1,1,1,1,1,1,1,1,1,1,1,0,1,1,1,1,1,1,0,0,0,0,0,0,0,0,0,0,0,0,0,0,0,0,0,0,0,0,0,0,0,0,0,0,0,0,0,0,0,0,0,0,0,0,0,0,0,0,0,0,0,0,0,0,0,0,0,0,0,0,0,0],"id":0,"left_children":[1,3,5,7,9,11,13,15,17,19,21,23,25,27,-1,29,31,33,35,37,39,41,43,45,47,49,51,53,55,57,59,61,63,65,67,69,71,73,75,77,79,81,83,85,87,89,91,93,95,97,-1,99,101,103,105,107,109,-1,-1,-1,-1,-1,-1,-1,-1,-1,-1,-1,-1,-1,-1,-1,-1,-1,-1,-1,-1,-1,-1,-1,-1,-1,-1,-1,-1,-1,-1,-1,-1,-1,-1,-1,-1,-1,-1,-1,-1,-1,-1,-1,-1,-1,-1,-1,-1,-1,-1,-1,-1,-1,-1],"loss_changes":[4.770051E10,1.2932219E10,7.250313E9,1.4157087E9,3.0994596E9,2.562261E9,1.9973243E9,6.866862E8,9.2287795E8,8.608809E8,1.5016591E9,1.0360668E9,2.1798584E9,2.8501934E9,0E0,1.4906982E8,5.2545126E8,3.3038336E8,2.765947E8,4.0740454E8,7.4829005E8,3.025797E8,1.7159946E9,3.725394E8,1.4173798E9,1.1676877E9,2.1595423E9,1.5655117E9,7.3098854E8,2.7181056E7,6.820659E7,1.1623629E8,2.9894246E8,1.3039206E8,2.6075136E7,1.9427328E8,5.739725E7,2.0606157E8,1.073111E8,6.393692E8,3.666002E8,7.779942E7,1.3929472E8,8.604877E8,5.97332E8,5.778125E7,2.2441574E8,1.4519296E8,1.7042637E8,1.6809984E8,0E0,1.6683418E8,1.054081E9,8.554291E7,2.0998144E8,4.0203776E7,3.0458675E8,0E0,0E0,0E0,0E0,0E0,0E0,0E0,0E0,0E0,0E0,0E0,0E0,0E0,0E0,0E0,0E0,0E0,0E0,0E0,0E0,0E0,0E0,0E0,0E0,0E0,0E0,0E0,0E0,0E0,0E0,0E0,0E0,0E0,0E0,0E0,0E0,0E0,0E0,0E0,0E0,0E0,0E0,0E0,0E0,0E0,0E0,0E0,0E0,0E0,0E0,0E0,0E0,0E0,0E0],"parents":[2147483647,0,0,1,1,2,2,3,3,4,4,5,5,6,6,7,7,8,8,9,9,10,10,11,11,12,12,13,13,15,15,16,16,17,17,18,18,19,19,20,20,21,21,22,22,23,23,24,24,25,25,26,26,27,27,28,28,29,29,30,30,31,31,32,32,33,33,34,34,35,35,36,36,37,37,38,38,39,39,40,40,41,41,42,42,43,43,44,44,45,45,46,46,47,47,48,48,49,49,51,51,52,52,53,53,54,54,55,55,56,56],"right_children":[2,4,6,8,10,12,14,16,18,20,22,24,26,28,-1,30,32,34,36,38,40,42,44,46,48,50,52,54,56,58,60,62,64,66,68,70,72,74,76,78,80,82,84,86,88,90,92,94,96,98,-1,100,102,104,106,108,110,-1,-1,-1,-1,-1,-1,-1,-1,-1,-1,-1,-1,-1,-1,-1,-1,-1,-1,-1,-1,-1,-1,-1,-1,-1,-1,-1,-1,-1,-1,-1,-1,-1,-1,-1,-1,-1,-1,-1,-1,-1,-1,-1,-1,-1,-1,-1,-1,-1,-1,-1,-1,-1,-1],"split_conditions":[7.674878E-1,-4.377696E-1,2.3512871E0,-9.067169E-2,1.0340038E-1,-1.2537574E0,4.9701366E0,5E-1,-8.0648273E-1,-3.399746E-1,5E-1,5E-1,1.4629766E0,5E-1,2.9661982E3,-1.2537574E0,-1.0605575E0,5E-1,5E-1,1.0956948E0,1.4254758E0,5.5681044E-1,1.0622244E0,-6.224513E-1,5E-1,3.8341408E0,5E-1,-4.8529005E-1,5E-1,-2.0845327E0,-1.0106463E0,-1.9806858E0,-2.568268E-1,-1.0481536E0,1.4973252E0,2.0470762E-1,-7.160737E-1,-1.2122185E0,7.866511E-1,2.5512404E0,5E-1,-3.3990434E-1,-1.3796684E0,2.6483732E-1,3.4174478E-1,3.89377E0,1.1822772E0,-6.450595E-1,8.091896E-1,-9.904506E-1,3.0286714E3,5E-1,1.4112905E-1,3.0334787E0,8.231813E-1,1.3273864E0,-1.3221046E-1,1.8123439E3,1.3187258E3,1.1438466E3,1.2390864E3,1.5877789E3,1.2357799E3,1.3680128E3,1.5000958E3,1.1335117E3,1.2147404E3,1.0940654E3,1.02344867E3,1.2810948E3,1.4028711E3,1.1241055E3,1.2245603E3,1.4569773E3,1.3344768E3,1.403634E3,1.5855555E3,1.4574587E3,2.1599263E3,1.2850273E3,1.7888077E3,1.3465435E3,1.458281E3,2.0320504E3,1.5468551E3,1.5563601E3,1.7544622E3,1.6648868E3,2.064942E3,1.764266E3,2.6150916E3,1.3380208E3,1.5480839E3,1.5315122E3,1.8531528E3,1.9612928E3,2.5512153E3,1.8966305E3,1.7564805E3,1.8715024E3,1.5786073E3,2.3603003E3,1.9836158E3,1.5359885E3,1.8861615E3,2.3485396E3,1.9801754E3,1.4894607E3,1.8970436E3,2.5785054E3,2.3004404E3],"split_indices":[25,26,25,38,25,38,27,7,26,25,7,6,26,6,0,38,26,6,1,41,40,26,40,46,7,28,7,38,7,38,23,38,38,25,43,40,28,38,46,46,7,38,49,41,28,27,25,49,27,31,0,1,46,25,38,28,38,0,0,0,0,0,0,0,0,0,0,0,0,0,0,0,0,0,0,0,0,0,0,0,0,0,0,0,0,0,0,0,0,0,0,0,0,0,0,0,0,0,0,0,0,0,0,0,0,0,0,0,0,0,0],"split_type":[0,0,0,0,0,0,0,0,0,0,0,0,0,0,0,0,0,0,0,0,0,0,0,0,0,0,0,0,0,0,0,0,0,0,0,0,0,0,0,0,0,0,0,0,0,0,0,0,0,0,0,0,0,0,0,0,0,0,0,0,0,0,0,0,0,0,0,0,0,0,0,0,0,0,0,0,0,0,0,0,0,0,0,0,0,0,0,0,0,0,0,0,0,0,0,0,0,0,0,0,0,0,0,0,0,0,0,0,0,0,0],"sum_hessian":[9.9216E4,8.2712E4,1.6504E4,3.6953E4,4.5759E4,1.2678E4,3.826E3,1.4521E4,2.2432E4,2.9979E4,1.578E4,3.21E3,9.468E3,3.448E3,3.78E2,5.893E3,8.628E3,1.2451E4,9.981E3,1.1814E4,1.8165E4,3.88E3,1.19E4,2.244E3,9.66E2,5.705E3,3.763E3,1.374E3,2.074E3,1.788E3,4.105E3,2.126E3,6.502E3,8.374E3,4.077E3,6.945E3,3.036E3,1.0371E4,1.443E3,1.7053E4,1.112E3,2.79E3,1.09E3,1.0277E4,1.623E3,3.27E2,1.917E3,6.75E2,2.91E2,5.636E3,6.9E1,8.64E2,2.899E3,6.91E2,6.83E2,1.2E2,1.954E3,1.3E1,1.775E3,9.9E2,3.115E3,9.4E1,2.032E3,3.701E3,2.801E3,2.84E3,5.534E3,3.377E3,7E2,5.345E3,1.6E3,7.75E2,2.261E3,1.511E3,8.86E3,4.88E2,9.55E2,1.6934E4,1.19E2,1.57E2,9.55E2,1.829E3,9.61E2,6.1E1,1.029E3,7.552E3,2.725E3,5E2,1.123E3,3.18E2,9E0,9.93E2,9.24E2,4.83E2,1.92E2,6.6E1,2.25E2,1.029E3,4.607E3,2.8E2,5.84E2,1.796E3,1.103E3,6.1E2,8.1E1,4.46E2,2.37E2,5.2E1,6.8E1,1.418E3,5.36E2],"tree_param":{"num_deleted":"0","num_feature":"52","num_nodes":"111","size_leaf_vector":"0"}},{"base_weights":[3.4536284E3,3.1253289E3,4.346949E3,2.9541436E3,3.9584736E3,3.9576526E3,6.2008394E3,2.7153538E3,3.0830088E3,3.754643E3,4.9476084E3,3.8617134E3,5.0240845E3,5.8468223E3,6.8498706E3,2.9153372E3,2.6055244E3,2.8942642E3,3.186057E3,4.232937E3,3.5979158E3,5.155074E3,4.181991E3,3.6922195E3,4.547646E3,5.5455806E3,4.675842E3,5.447566E3,6.240735E3,6.4526855E3,7.239693E3,2.7809695E3,3.1122847E3,2.6673716E3,2.4962952E3,2.8474106E3,3.1872124E3,3.1500298E3,3.8625059E3,4.1148896E3,4.836104E3,3.4150637E3,3.8378125E3,4.558485E3,5.380208E3,3.9686846E3,4.674004E3,3.5320671E3,3.9746362E3,4.464918E3,6.203962E3,4.965993E3,5.872646E3,6.22384E3,4.5721543E3,5.1290537E3,5.6405864E3,6.372741E3,5.4377925E3,6.6680024E3,6.0751787E3,7.312192E3,6.4496772E3,2.5797256E3,2.8372024E3,2.9573345E3,3.2426003E3,2.593073E3,2.7784102E3,2.4602915E3,2.7724272E3,2.7197158E3,2.947762E3,3.051226E3,3.4765894E3,3.1077068E3,3.6113694E3,4.238469E3,3.511276E3,2.534255E3,4.148665E3,5.2041943E3,4.6253286E3,3.2902942E3,3.6535408E3,3.653279E3,4.102648E3,4.244163E3,4.849777E3,4.931214E3,5.615937E3,3.5456653E3,4.0309167E3,5.4160337E3,3.5127244E3,4.9433086E3,3.8275947E3,3.886084E3,4.609771E3,6.770165E3,4.7469365E3,4.1605386E3,5.0538564E3,5.4303086E3,6.2330376E3,4.3909316E3,4.9668613E3,5.2104404E3,4.5232207E3,5.7611353E3,5.064339E3,6.0772725E3,6.632264E3,6.3827407E3,7.1694707E3,7.1198486E3,7.679889E3],"categories":[],"categories_nodes":[],"categories_segments":[],"categories_sizes":[],"default_left":[1,1,1,1,1,1,1,1,1,1,1,1,1,1,1,1,1,1,1,1,1,1,1,1,1,1,1,1,1,1,1,1,1,1,1,1,1,1,1,1,1,1,1,1,1,1,0,1,1,1,1,1,1,0,1,1,1,1,0,1,0,1,0,0,0,0,0,0,0,0,0,0,0,0,0,0,0,0,0,0,0,0,0,0,0,0,0,0,0,0,0,0,0,0,0,0,0,0,0,0,0,0,0,0,0,0,0,0,0,0,0,0,0,0,0,0,0],"id":1,"left_children":[1,3,5,7,9,11,13,15,17,19,21,23,25,27,29,31,33,35,37,39,41,43,45,47,49,51,53,55,57,59,61,63,65,67,69,71,73,75,77,79,81,83,85,87,89,91,-1,93,95,97,99,101,103,-1,105,107,109,111,-1,113,-1,115,-1,-1,-1,-1,-1,-1,-1,-1,-1,-1,-1,-1,-1,-1,-1,-1,-1,-1,-1,-1,-1,-1,-1,-1,-1,-1,-1,-1,-1,-1,-1,-1,-1,-1,-1,-1,-1,-1,-1,-1,-1,-1,-1,-1,-1,-1,-1,-1,-1,-1,-1,-1,-1,-1,-1],"loss_changes":[2.9091561E10,1.0342302E10,1.9231605E10,1.8481152E9,2.4846008E9,2.245755E9,1.0454794E9,4.5973504E8,7.5585946E8,7.616594E8,3.25632E8,2.3430103E9,3.18464E8,4.5625344E8,2.321367E8,1.9368755E8,8.876032E7,1.8518835E8,6.104023E8,1.71008E8,3.328082E8,2.1189018E8,3.9028224E7,7.269089E8,5.363548E8,1.2455526E8,1.6267469E8,7.883981E7,1.4430208E8,4.823859E7,2.6435584E7,4.676403E7,5.6571904E7,6.819021E7,4.568269E7,1.4872576E8,6.976102E7,4.633723E8,1.6166912E8,1.08032E8,2.1118976E7,1.2494029E8,1.5622963E8,3.2561152E7,1.1492966E8,1.759744E6,0E0,3.685417E8,8.266793E8,3.1173018E8,1.4202624E8,9.202176E6,5.863219E7,0E0,6.350643E7,1.7389568E7,5.1257344E7,8.132198E7,0E0,5.339136E7,0E0,2.9237248E7,0E0,0E0,0E0,0E0,0E0,0E0,0E0,0E0,0E0,0E0,0E0,0E0,0E0,0E0,0E0,0E0,0E0,0E0,0E0,0E0,0E0,0E0,0E0,0E0,0E0,0E0,0E0,0E0,0E0,0E0,0E0,0E0,0E0,0E0,0E0,0E0,0E0,0E0,0E0,0E0,0E0,0E0,0E0,0E0,0E0,0E0,0E0,0E0,0E0,0E0,0E0,0E0,0E0,0E0,0E0],"parents":[2147483647,0,0,1,1,2,2,3,3,4,4,5,5,6,6,7,7,8,8,9,9,10,10,11,11,12,12,13,13,14,14,15,15,16,16,17,17,18,18,19,19,20,20,21,21,22,22,23,23,24,24,25,25,26,26,27,27,28,28,29,29,30,30,31,31,32,32,33,33,34,34,35,35,36,36,37,37,38,38,39,39,40,40,41,41,42,42,43,43,44,44,45,45,47,47,48,48,49,49,50,50,51,51,52,52,54,54,55,55,56,56,57,57,59,59,61,61],"right_children":[2,4,6,8,10,12,14,16,18,20,22,24,26,28,30,32,34,36,38,40,42,44,46,48,50,52,54,56,58,60,62,64,66,68,70,72,74,76,78,80,82,84,86,88,90,92,-1,94,96,98,100,102,104,-1,106,108,110,112,-1,114,-1,116,-1,-1,-1,-1,-1,-1,-1,-1,-1,-1,-1,-1,-1,-1,-1,-1,-1,-1,-1,-1,-1,-1,-1,-1,-1,-1,-1,-1,-1,-1,-1,-1,-1,-1,-1,-1,-1,-1,-1,-1,-1,-1,-1,-1,-1,-1,-1,-1,-1,-1,-1,-1,-1,-1,-1],"split_conditions":[6.491154E-1,7.141012E-1,4.9247774E-1,-6.7766124E-1,-7.8925505E-2,5E-1,1.3043523E0,-6.520721E-1,-5.164064E-1,-1.5632176E0,-3.4703416E-1,1.5227644E0,1.3771563E0,1.1673976E0,1.6817074E0,4.9218398E-1,1.2712397E-1,1.6124179E0,1.1673976E0,6.5308774E-1,-8.799083E-1,-3.7553188E-1,1.1673976E0,8.963026E-2,1.6817074E0,5E-1,-1.2654827E0,-3.7553188E-1,1.021291E0,-6.381707E-1,-8.399558E-2,-8.898417E-1,-3.7553188E-1,5.457088E-1,1.6539568E0,-3.7553188E-1,-6.342758E-1,1.5293405E0,-3.263106E-1,-1.6078115E0,5E-1,1.4250526E0,-7.839488E-1,2.8509495E-1,2.8509495E-1,-8.898417E-1,1.4022012E3,-1.5760458E0,5.7082033E-1,-1.2360386E0,1.9705302E-1,-8.898417E-1,1.1951461E0,1.867152E3,1.4499605E0,1.021291E0,-3.0478138E-1,2.7103271E0,1.6313378E3,-1.0482347E0,1.8225537E3,-1.0482347E0,1.9349032E3,7.739177E2,8.5116077E2,8.872004E2,9.7278015E2,7.7792194E2,8.335231E2,7.3808746E2,8.317282E2,8.159148E2,8.843286E2,9.1536786E2,1.0429768E3,9.323121E2,1.0834109E3,1.2715408E3,1.0533828E3,7.602765E2,1.2445996E3,1.5612584E3,1.3875986E3,9.870883E2,1.0960623E3,1.0959838E3,1.2307944E3,1.273249E3,1.4549331E3,1.4793643E3,1.6847811E3,1.0636996E3,1.209275E3,1.6248102E3,1.0538174E3,1.4829927E3,1.1482784E3,1.1658252E3,1.3829314E3,2.0310496E3,1.424081E3,1.2481616E3,1.516157E3,1.6290927E3,1.8699114E3,1.3172795E3,1.4900585E3,1.5631322E3,1.3569663E3,1.7283407E3,1.5193018E3,1.8231818E3,1.9896793E3,1.9148223E3,2.1508413E3,2.1359546E3,2.3039668E3],"split_indices":[51,24,23,23,51,9,51,39,24,47,39,51,51,29,29,43,39,38,29,29,38,29,29,27,29,18,39,29,32,44,39,29,29,43,38,29,24,38,39,51,7,25,48,51,51,29,0,31,43,48,49,29,51,0,51,32,39,29,0,47,0,47,0,0,0,0,0,0,0,0,0,0,0,0,0,0,0,0,0,0,0,0,0,0,0,0,0,0,0,0,0,0,0,0,0,0,0,0,0,0,0,0,0,0,0,0,0,0,0,0,0,0,0,0,0,0,0],"split_type":[0,0,0,0,0,0,0,0,0,0,0,0,0,0,0,0,0,0,0,0,0,0,0,0,0,0,0,0,0,0,0,0,0,0,0,0,0,0,0,0,0,0,0,0,0,0,0,0,0,0,0,0,0,0,0,0,0,0,0,0,0,0,0,0,0,0,0,0,0,0,0,0,0,0,0,0,0,0,0,0,0,0,0,0,0,0,0,0,0,0,0,0,0,0,0,0,0,0,0,0,0,0,0,0,0,0,0,0,0,0,0,0,0,0,0,0,0],"sum_hessian":[9.9216E4,7.2554E4,2.6662E4,6.0189E4,1.2365E4,2.2036E4,4.626E3,2.11E4,3.9089E4,1.0254E4,2.111E3,2.0219E4,1.817E3,2.996E3,1.63E3,7.476E3,1.3624E4,1.3809E4,2.528E4,2.528E3,7.726E3,1.659E3,4.52E2,1.6215E4,4.004E3,7.25E2,1.092E3,1.491E3,1.505E3,8.11E2,8.19E2,4.448E3,3.028E3,8.692E3,4.932E3,1.1909E4,1.9E3,2.4004E4,1.276E3,2.117E3,4.11E2,4.388E3,3.338E3,4.57E2,1.202E3,3.18E2,1.34E2,1.0351E4,5.864E3,3.815E3,1.89E2,2.64E2,4.61E2,6.7E1,1.025E3,5.67E2,9.24E2,1.29E3,2.15E2,5.12E2,2.99E2,7.47E2,7.2E1,9.76E2,3.472E3,1.388E3,1.64E3,5.214E3,3.478E3,4.367E3,5.65E2,5.246E3,6.663E3,1.296E3,6.04E2,2.199E4,2.014E3,6.14E2,6.62E2,4.5E1,2.072E3,1.46E2,2.65E2,2.885E3,1.503E3,1.971E3,1.367E3,2.23E2,2.34E2,4.17E2,7.85E2,4.4E1,2.74E2,1.04E2,1.0247E4,7.71E2,5.093E3,7.66E2,3.049E3,1.35E2,5.4E1,2.8E1,2.36E2,2.1E2,2.51E2,7.06E2,3.19E2,4.97E2,7E1,7.61E2,1.63E2,6.08E2,6.82E2,3.3E2,1.82E2,4.96E2,2.51E2],"tree_param":{"num_deleted":"0","num_feature":"52","num_nodes":"117","size_leaf_vector":"0"}},{"base_weights":[2.4178818E3,2.18793E3,3.0435916E3,2.0595957E3,2.6617585E3,2.7707827E3,4.3427417E3,1.9713544E3,2.2475347E3,2.5417756E3,3.618161E3,2.7131E3,3.5965813E3,4.0943953E3,4.798023E3,2.224832E3,1.9324382E3,3.2649836E3,2.229747E3,2.2522637E3,2.7170815E3,3.780664E3,3.1471672E3,2.6391145E3,3.46704E3,3.8855034E3,3.300202E3,3.7471118E3,4.3200596E3,4.22911E3,4.958964E3,2.1858418E3,3.443838E3,1.8326284E3,2.0174633E3,2.8733318E3,3.6377532E3,2.100099E3,2.3477078E3,2.2046387E3,2.9626711E3,2.2656992E3,2.7990671E3,3.513484E3,4.066035E3,3.6573018E3,3.0359495E3,2.36128E3,2.7577092E3,3.2533608E3,4.407228E3,3.480506E3,4.113958E3,2.9656926E3,3.4600598E3,3.3574626E3,3.8335862E3,4.198658E3,4.743993E3,4.116961E3,4.619269E3,4.7623984E3,5.2036934E3,2.1342515E3,2.4956548E3,2.0845479E3,3.6320215E3,1.978676E3,1.771942E3,1.9197974E3,2.1275713E3,2.6424094E3,3.1616682E3,1.9683846E3,2.1917065E3,2.323883E3,3.1346904E3,2.4061716E3,2.0025278E3,5.1335317E3,2.64095E3,2.0801062E3,2.4695354E3,2.991303E3,2.639356E3,3.101054E3,3.622201E3,4.2159414E3,3.758022E3,2.6258806E3,3.7276006E3,2.616566E3,3.1486328E3,2.2703499E3,2.603323E3,3.1331826E3,2.6791697E3,4.216922E3,3.189867E3,5.703044E3,3.8245479E3,3.5827397E3,3.0156328E3,3.804307E3,4.366095E3,3.2687437E3,2.8402517E3,3.9212024E3,3.3340696E3,3.1433005E3,3.5866345E3,2.610633E3,3.8595486E3,4.292431E3,3.766302E3,4.99106E3,4.5108364E3,3.6687202E3,4.189935E3,5.7342026E3,4.688115E3,5.0828066E3,5.444412E3],"categories":[],"categories_nodes":[],"categories_segments":[],"categories_sizes":[],"default_left":[1,1,1,1,1,1,1,1,1,1,1,1,1,1,1,1,1,1,1,1,1,1,1,1,1,1,1,1,1,1,1,1,1,1,1,1,0,1,1,1,1,1,1,1,1,1,1,1,1,1,1,1,1,1,1,1,1,1,1,1,0,1,1,0,0,0,0,0,0,0,0,0,0,0,0,0,0,0,0,0,0,0,0,0,0,0,0,0,0,0,0,0,0,0,0,0,0,0,0,0,0,0,0,0,0,0,0,0,0,0,0,0,0,0,0,0,0,0,0,0,0,0,0],"id":2,"left_children":[1,3,5,7,9,11,13,15,17,19,21,23,25,27,29,31,33,35,37,39,41,43,45,47,49,51,53,55,57,59,61,63,65,67,69,71,-1,73,75,77,79,81,83,85,87,89,91,93,95,97,99,101,103,105,107,109,111,113,115,117,-1,119,121,-1,-1,-1,-1,-1,-1,-1,-1,-1,-1,-1,-1,-1,-1,-1,-1,-1,-1,-1,-1,-1,-1,-1,-1,-1,-1,-1,-1,-1,-1,-1,-1,-1,-1,-1,-1,-1,-1,-1,-1,-1,-1,-1,-1,-1,-1,-1,-1,-1,-1,-1,-1,-1,-1,-1,-1,-1,-1,-1,-1],"loss_changes":[1.4272299E10,4.409164E9,9.444016E9,9.445704E8,1.769816E9,1.04503706E9,5.1417907E8,3.8105907E8,3.2650854E8,6.94272E8,1.2623872E8,1.1446518E9,1.1709645E8,2.2738944E8,1.3980058E8,2.4196506E8,2.8393472E8,4.0648704E7,2.7164672E8,1.7216922E8,3.1346688E8,9.085338E7,1.9971072E7,6.149243E8,3.6288102E8,6.0481536E7,3.3220608E7,3.386573E7,8.429363E7,7.208448E6,4.991795E7,7.737958E7,3.705971E7,1.3553254E8,1.9345408E8,6.242944E6,0E0,1.008681E8,1.723474E8,1.9551846E8,2.2021171E8,4.723712E7,2.1840282E8,2.4448E7,2.112512E7,9.35744E5,1.3376E7,1.2064154E8,3.835986E8,8.553062E7,2.4640205E8,7.454464E6,2.8403712E7,4.427392E6,2.1755904E7,5.404416E6,2.5847808E7,4.987699E7,1.2928E7,2.248192E6,0E0,3.914547E7,3.985408E6,0E0,0E0,0E0,0E0,0E0,0E0,0E0,0E0,0E0,0E0,0E0,0E0,0E0,0E0,0E0,0E0,0E0,0E0,0E0,0E0,0E0,0E0,0E0,0E0,0E0,0E0,0E0,0E0,0E0,0E0,0E0,0E0,0E0,0E0,0E0,0E0,0E0,0E0,0E0,0E0,0E0,0E0,0E0,0E0,0E0,0E0,0E0,0E0,0E0,0E0,0E0,0E0,0E0,0E0,0E0,0E0,0E0,0E0,0E0,0E0],"parents":[2147483647,0,0,1,1,2,2,3,3,4,4,5,5,6,6,7,7,8,8,9,9,10,10,11,11,12,12,13,13,14,14,15,15,16,16,17,17,18,18,19,19,20,20,21,21,22,22,23,23,24,24,25,25,26,26,27,27,28,28,29,29,30,30,31,31,32,32,33,33,34,34,35,35,37,37,38,38,39,39,40,40,41,41,42,42,43,43,44,44,45,45,46,46,47,47,48,48,49,49,50,50,51,51,52,52,53,53,54,54,55,55,56,56,57,57,58,58,59,59,61,61,62,62],"right_children":[2,4,6,8,10,12,14,16,18,20,22,24,26,28,30,32,34,36,38,40,42,44,46,48,50,52,54,56,58,60,62,64,66,68,70,72,-1,74,76,78,80,82,84,86,88,90,92,94,96,98,100,102,104,106,108,110,112,114,116,118,-1,120,122,-1,-1,-1,-1,-1,-1,-1,-1,-1,-1,-1,-1,-1,-1,-1,-1,-1,-1,-1,-1,-1,-1,-1,-1,-1,-1,-1,-1,-1,-1,-1,-1,-1,-1,-1,-1,-1,-1,-1,-1,-1,-1,-1,-1,-1,-1,-1,-1,-1,-1,-1,-1,-1,-1,-1,-1,-1,-1,-1,-1],"split_conditions":[6.491154E-1,4.93054E-1,4.9247774E-1,-1.0287367E-1,1.3948676E-1,1.019368E0,1.3043523E0,-9.714861E-1,-1.5632176E0,-7.03285E-1,-4.8228526E-1,1.5955687E0,1.3771563E0,6.5308774E-1,1.3877794E-1,5.0350726E-1,-3.7553188E-1,5.8239584E0,-3.7553188E-1,5E-1,-1.6806154E0,6.5308774E-1,8.2718E-1,-3.7553188E-1,8.963026E-2,5E-1,-3.7553188E-1,-8.898417E-1,3.7389467E0,5E-1,2.7103271E0,-6.025961E-1,5E-1,5E-1,-6.260835E-1,8.439507E-1,1.091326E3,-8.797705E-1,1.6817074E0,-4.5784616E-1,1.1970303E0,5E-1,-6.585288E-1,-8.898417E-1,-1.5943031E-1,-8.898417E-1,-3.7553188E-1,1.4499605E0,-2.1604049E-1,-2.0845327E0,5.3640693E-2,5E-1,1.1951461E0,1.21839084E-1,-8.607237E-2,1.0495379E0,-5.8703834E-1,-3.5926604E-1,-8.977616E-1,-8.898417E-1,1.3857808E3,-7.6692426E-1,-1.0482347E0,6.4027545E2,7.486965E2,6.253644E2,1.0896064E3,5.9360284E2,5.3158264E2,5.759392E2,6.382714E2,7.9272284E2,9.485005E2,5.9051544E2,6.5751196E2,6.971649E2,9.4040717E2,7.218515E2,6.0075836E2,1.5400596E3,7.9228503E2,6.2403186E2,7.4086066E2,8.973909E2,7.918068E2,9.303162E2,1.0866603E3,1.2647825E3,1.1274066E3,7.877642E2,1.1182803E3,7.849698E2,9.445899E2,6.81105E2,7.8099695E2,9.3995483E2,8.037509E2,1.2650767E3,9.5696014E2,1.7109132E3,1.1473644E3,1.074822E3,9.046899E2,1.1412921E3,1.3098286E3,9.806231E2,8.5207556E2,1.1763607E3,1.0002209E3,9.429902E2,1.0759904E3,7.8318994E2,1.1578646E3,1.2877294E3,1.1298906E3,1.4973181E3,1.353251E3,1.1006161E3,1.2569806E3,1.7202609E3,1.4064346E3,1.524842E3,1.6333237E3],"split_indices":[51,25,23,23,51,47,51,39,47,43,39,51,51,29,29,51,29,41,29,4,51,29,25,29,27,18,29,29,29,13,29,23,8,7,25,38,0,51,29,39,38,5,39,29,45,29,29,51,39,38,43,12,51,25,23,51,30,39,48,29,0,45,47,0,0,0,0,0,0,0,0,0,0,0,0,0,0,0,0,0,0,0,0,0,0,0,0,0,0,0,0,0,0,0,0,0,0,0,0,0,0,0,0,0,0,0,0,0,0,0,0,0,0,0,0,0,0,0,0,0,0,0,0],"split_type":[0,0,0,0,0,0,0,0,0,0,0,0,0,0,0,0,0,0,0,0,0,0,0,0,0,0,0,0,0,0,0,0,0,0,0,0,0,0,0,0,0,0,0,0,0,0,0,0,0,0,0,0,0,0,0,0,0,0,0,0,0,0,0,0,0,0,0,0,0,0,0,0,0,0,0,0,0,0,0,0,0,0,0,0,0,0,0,0,0,0,0,0,0,0,0,0,0,0,0,0,0,0,0,0,0,0,0,0,0,0,0,0,0,0,0,0,0,0,0,0,0,0,0],"sum_hessian":[9.9216E4,7.2554E4,2.6662E4,5.7093E4,1.5461E4,2.2036E4,4.626E3,3.8855E4,1.8238E4,1.3739E4,1.722E3,2.0599E4,1.437E3,2.996E3,1.63E3,5.168E3,3.3687E4,3.12E2,1.7926E4,5.184E3,8.555E3,1.278E3,4.44E2,1.876E4,1.839E3,7.25E2,7.12E2,1.183E3,1.813E3,3.62E2,1.268E3,5.009E3,1.59E2,1.5501E4,1.8186E4,1.54E2,1.58E2,8.544E3,9.382E3,4.86E3,3.24E2,1.317E3,7.238E3,6.63E2,6.15E2,7.7E1,3.67E2,5.615E3,1.3145E4,1.5E3,3.39E2,2.64E2,4.61E2,2.33E2,4.79E2,2.18E2,9.65E2,1.413E3,4E2,2.85E2,7.7E1,7.08E2,5.6E2,4.297E3,7.12E2,2E1,1.39E2,4.546E3,1.0955E4,9.642E3,8.544E3,8.8E1,6.6E1,3.509E3,5.035E3,9.108E3,2.74E2,2.431E3,2.429E3,4.1E1,2.83E2,6.92E2,6.25E2,3.281E3,3.957E3,1.41E2,5.22E2,4.1E2,2.05E2,6E0,7.1E1,8E1,2.87E2,4.085E3,1.53E3,2.271E3,1.0874E4,9.1E1,1.409E3,1.04E2,2.35E2,2.14E2,5E1,2.1E2,2.51E2,6.5E1,1.68E2,1E2,3.79E2,1.16E2,1.02E2,2.1E1,9.44E2,1.158E3,2.55E2,1.9E2,2.1E2,4.3E1,2.42E2,4.8E1,6.6E2,3.79E2,1.81E2],"tree_param":{"num_deleted":"0","num_feature":"52","num_nodes":"123","size_leaf_vector":"0"}},{"base_weights":[1.6927886E3,1.5099261E3,2.0917734E3,1.3902725E3,1.6322689E3,1.9396388E3,2.8901982E3,1.337133E3,1.4967318E3,1.565189E3,1.9303344E3,1.7592059E3,2.0751643E3,2.6671824E3,3.3394512E3,1.2436874E3,1.393981E3,1.3241588E3,1.5336989E3,1.3720632E3,1.6197297E3,1.8241769E3,2.1575757E3,1.6795454E3,2.0264218E3,1.9914911E3,2.309456E3,2.8435264E3,2.4065837E3,3.218957E3,3.5998184E3,1.0834098E3,1.2895488E3,1.2918137E3,1.4375044E3,1.3681093E3,1.0875938E3,2.4654504E3,1.5239937E3,1.4625796E3,1.307209E3,1.9152762E3,1.6025092E3,1.8035112E3,2.679855E3,1.9442291E3,2.3389817E3,1.5537979E3,1.7678165E3,2.208509E3,1.7959376E3,2.2094067E3,1.9423048E3,2.387503E3,1.8408469E3,1.6236819E3,2.8726768E3,2.9163457E3,2.3203945E3,1.330639E3,3.2317893E3,2.1136567E3,3.627099E3,1.2129073E3,1.0121444E3,1.1951609E3,1.329928E3,1.3925898E3,1.2653883E3,1.4297576E3,1.8577014E3,1.8359166E3,1.3496338E3,1.1394833E3,8.8503845E2,8.16932E2,2.5319766E3,1.5060892E3,1.7452786E3,1.3611398E3,1.5479758E3,1.4074343E3,1.2616672E3,1.6751052E3,2.5330469E3,1.5487183E3,1.6951609E3,2.3251414E3,1.7750527E3,3.505114E3,2.2401895E3,1.8733391E3,2.99596E3,2.5510186E3,2.1034148E3,1.4289366E3,1.6114364E3,1.9871051E3,1.700648E3,2.269616E3,1.5056655E3,2.068527E3,1.6600808E3,2.357691E3,1.8904686E3,1.858946E3,2.0799485E3,2.5155403E3,2.2118794E3,2.2523167E3,1.6320653E3,2.1744524E3,1.503768E3,3.013513E3,2.771017E3,2.566596E3,3.1098655E3,2.3674949E3,1.7247485E3,3.2732986E3,2.7628743E3,3.6636768E3,2.4309216E3],"categories":[],"categories_nodes":[],"categories_segments":[],"categories_sizes":[],"default_left":[1,1,1,1,1,1,1,1,1,1,1,1,1,1,1,1,1,1,1,1,1,1,1,1,1,1,1,1,1,1,1,1,1,1,1,1,1,1,1,1,1,1,1,1,1,1,1,1,1,1,1,1,1,1,1,1,1,1,1,0,1,0,1,0,0,0,0,0,0,0,0,0,0,0,0,0,0,0,0,0,0,0,0,0,0,0,0,0,0,0,0,0,0,0,0,0,0,0,0,0,0,0,0,0,0,0,0,0,0,0,0,0,0,0,0,0,0,0,0,0,0,0,0],"id":3,"left_children":[1,3,5,7,9,11,13,15,17,19,21,23,25,27,29,31,33,35,37,39,41,43,45,47,49,51,53,55,57,59,61,63,65,67,69,71,73,75,77,79,81,83,85,87,89,91,93,95,97,99,101,103,105,107,109,111,113,115,117,-1,119,-1,121,-1,-1,-1,-1,-1,-1,-1,-1,-1,-1,-1,-1,-1,-1,-1,-1,-1,-1,-1,-1,-1,-1,-1,-1,-1,-1,-1,-1,-1,-1,-1,-1,-1,-1,-1,-1,-1,-1,-1,-1,-1,-1,-1,-1,-1,-1,-1,-1,-1,-1,-1,-1,-1,-1,-1,-1,-1,-1,-1,-1],"loss_changes":[7.237075E9,9.947054E8,3.7845975E9,1.9346637E8,6.709166E8,6.385418E8,4.956119E8,1.2090573E8,7.18848E7,2.8799386E8,1.4696858E8,2.3739597E8,2.908037E8,1.499566E8,4.641997E7,6.2997504E7,6.235955E7,2.0146432E7,8.325734E7,3.441971E7,1.073193E8,7.203328E7,7.369318E7,9.461965E7,1.0614374E8,1.1592909E8,1.4155571E8,6.826394E7,5.5952384E7,2.5219072E7,1.730304E7,1.710208E7,2.4787968E7,1.033728E7,3.1092736E7,1.3356544E7,2.709504E6,9.34112E6,3.5526656E7,2.064896E7,1.5077888E7,1.7233971E8,9.940173E7,5.894861E7,3.187328E7,6.4674304E7,5.0210304E7,2.4443904E7,7.309619E7,5.9956224E7,4.0410624E7,9.354138E7,1.0120397E8,7.297229E7,4.646259E7,1.380096E6,2.3747584E7,9.216896E6,3.0317568E7,0E0,1.7585152E7,0E0,1.7995776E7,0E0,0E0,0E0,0E0,0E0,0E0,0E0,0E0,0E0,0E0,0E0,0E0,0E0,0E0,0E0,0E0,0E0,0E0,0E0,0E0,0E0,0E0,0E0,0E0,0E0,0E0,0E0,0E0,0E0,0E0,0E0,0E0,0E0,0E0,0E0,0E0,0E0,0E0,0E0,0E0,0E0,0E0,0E0,0E0,0E0,0E0,0E0,0E0,0E0,0E0,0E0,0E0,0E0,0E0,0E0,0E0,0E0,0E0,0E0,0E0],"parents":[2147483647,0,0,1,1,2,2,3,3,4,4,5,5,6,6,7,7,8,8,9,9,10,10,11,11,12,12,13,13,14,14,15,15,16,16,17,17,18,18,19,19,20,20,21,21,22,22,23,23,24,24,25,25,26,26,27,27,28,28,29,29,30,30,31,31,32,32,33,33,34,34,35,35,36,36,37,37,38,38,39,39,40,40,41,41,42,42,43,43,44,44,45,45,46,46,47,47,48,48,49,49,50,50,51,51,52,52,53,53,54,54,55,55,56,56,57,57,58,58,60,60,62,62],"right_children":[2,4,6,8,10,12,14,16,18,20,22,24,26,28,30,32,34,36,38,40,42,44,46,48,50,52,54,56,58,60,62,64,66,68,70,72,74,76,78,80,82,84,86,88,90,92,94,96,98,100,102,104,106,108,110,112,114,116,118,-1,120,-1,122,-1,-1,-1,-1,-1,-1,-1,-1,-1,-1,-1,-1,-1,-1,-1,-1,-1,-1,-1,-1,-1,-1,-1,-1,-1,-1,-1,-1,-1,-1,-1,-1,-1,-1,-1,-1,-1,-1,-1,-1,-1,-1,-1,-1,-1,-1,-1,-1,-1,-1,-1,-1,-1,-1,-1,-1,-1,-1,-1,-1],"split_conditions":[2.3703137E-1,-5.2294785E-1,1.1673976E0,1.3877794E-1,6.5308774E-1,-3.7553188E-1,2.7103271E0,-9.7547626E-1,-1.1542375E0,-8.898417E-1,2.9803783E-1,1.5265356E0,1.3184931E0,-3.7893146E-1,4.2532563E0,-5.588498E-1,-8.898417E-1,4.7161418E-1,-1.5921946E0,-5.6742E-1,-1.4800526E0,9.372778E-1,-2.769999E-1,-8.898417E-1,-7.4239904E-1,-9.6405816E-1,9.0181017E-1,-1.47082E0,5E-1,-1.47082E0,-1.4247072E0,-1.3163267E-1,-8.898417E-1,-8.073733E-1,1.7615438E0,-1.2046555E0,1.2580106E0,2.177136E-1,1.1298151E0,-2.5259236E-1,5E-1,2.9404545E-1,-1.8527755E-1,-1.4737091E0,3.7363654E-1,1.9849995E0,-3.622667E-2,-4.877886E-1,-9.6392334E-1,1.3920108E0,-1.1504261E0,4.3506628E-1,7.075859E-1,-7.4239904E-1,-1.6656102E-1,-6.562257E-1,-2.417461E-1,-3.1944534E-1,1.1254895E0,3.9919174E2,1.021291E0,6.3409705E2,1.021291E0,3.6387222E2,3.0364334E2,3.5854828E2,3.9897842E2,4.1777698E2,3.7961652E2,4.2892728E2,5.573104E2,5.50775E2,4.0489017E2,3.41845E2,2.6551154E2,2.450796E2,7.59593E2,4.5182678E2,5.235836E2,4.0834195E2,4.6439276E2,4.2223032E2,3.7850018E2,5.025316E2,7.5991406E2,4.646155E2,5.0854828E2,6.975424E2,5.3251587E2,1.0515343E3,6.720569E2,5.620018E2,8.98788E2,7.653056E2,6.310245E2,4.28681E2,4.8343094E2,5.9613153E2,5.101944E2,6.808848E2,4.5169968E2,6.2055817E2,4.9802426E2,7.073073E2,5.671406E2,5.5768384E2,6.2398456E2,7.546621E2,6.6356384E2,6.75695E2,4.896196E2,6.5233575E2,4.511304E2,9.040539E2,8.313052E2,7.699788E2,9.3295966E2,7.102485E2,5.1742456E2,9.819896E2,8.288623E2,1.099103E3,7.292765E2],"split_indices":[24,24,29,29,29,29,29,24,24,29,40,28,28,39,29,32,29,39,43,44,46,28,24,29,39,39,43,43,14,43,42,48,29,46,40,39,41,41,40,24,1,41,24,46,39,39,50,41,39,45,42,45,43,39,40,44,43,43,45,0,32,0,32,0,0,0,0,0,0,0,0,0,0,0,0,0,0,0,0,0,0,0,0,0,0,0,0,0,0,0,0,0,0,0,0,0,0,0,0,0,0,0,0,0,0,0,0,0,0,0,0,0,0,0,0,0,0,0,0,0,0,0,0],"split_type":[0,0,0,0,0,0,0,0,0,0,0,0,0,0,0,0,0,0,0,0,0,0,0,0,0,0,0,0,0,0,0,0,0,0,0,0,0,0,0,0,0,0,0,0,0,0,0,0,0,0,0,0,0,0,0,0,0,0,0,0,0,0,0,0,0,0,0,0,0,0,0,0,0,0,0,0,0,0,0,0,0,0,0,0,0,0,0,0,0,0,0,0,0,0,0,0,0,0,0,0,0,0,0,0,0,0,0,0,0,0,0,0,0,0,0,0,0,0,0,0,0,0,0],"sum_hessian":[9.9216E4,6.8036E4,3.118E4,3.4399E4,3.3637E4,2.6191E4,4.989E3,2.295E4,1.1449E4,2.746E4,6.177E3,1.1237E4,1.4954E4,3.336E3,1.653E3,8.685E3,1.4265E4,2.023E3,9.426E3,6.05E3,2.141E4,4.213E3,1.964E3,8.659E3,2.578E3,1.1022E4,3.932E3,1.987E3,1.349E3,1.134E3,5.19E2,1.935E3,6.75E3,4.266E3,9.999E3,1.704E3,3.19E2,9.6E1,9.33E3,2.521E3,3.529E3,1.176E3,2.0234E4,4.115E3,9.8E1,9.05E2,1.059E3,3.575E3,5.084E3,1.438E3,1.14E3,2.026E3,8.996E3,3.369E3,5.63E2,4.7E1,1.94E3,1.93E2,1.156E3,8E0,1.126E3,1E1,5.09E2,6.84E2,1.251E3,2.027E3,4.723E3,8.81E2,3.385E3,9.82E3,1.79E2,6.3E1,1.641E3,2.52E2,6.7E1,4E0,9.2E1,8.635E3,6.95E2,1.156E3,1.365E3,1.098E3,2.431E3,8.48E2,3.28E2,1.2807E4,7.427E3,2.11E2,3.904E3,3.3E1,6.5E1,8.49E2,5.6E1,5.55E2,5.04E2,1.133E3,2.442E3,1.189E3,3.895E3,1.322E3,1.16E2,3.77E2,7.63E2,1.381E3,6.45E2,5.607E3,3.389E3,1.945E3,1.424E3,1.88E2,3.75E2,7E0,4E1,8.08E2,1.132E3,7.1E1,1.22E2,1.07E3,8.6E1,1.032E3,9.4E1,4.93E2,1.6E1],"tree_param":{"num_deleted":"0","num_feature":"52","num_nodes":"123","size_leaf_vector":"0"}},{"base_weights":[1.18512E3,1.0484757E3,1.5743335E3,9.810803E2,1.3506003E3,1.4095302E3,2.1751587E3,1.0653103E3,9.1808203E2,1.1497648E3,1.6271124E3,1.2803899E3,1.6506815E3,1.9518501E3,2.333934E3,1.1144117E3,9.0448486E2,9.731207E2,8.165932E2,1.588828E3,1.1065991E3,1.4976562E3,1.8241598E3,1.2050878E3,1.7250416E3,2.0867244E3,1.5387715E3,1.8768916E3,2.2591387E3,2.163006E3,2.732762E3,1.0429855E3,1.2845885E3,1.087855E3,8.8040894E2,9.3046436E2,1.0583281E3,8.452111E2,6.7682935E2,1.9496255E3,1.44281E3,1.0829873E3,1.8273793E3,1.4742463E3,2.337934E3,2.1605256E3,1.7453962E3,1.1589004E3,1.5708246E3,2.3723027E3,1.4699702E3,1.9316417E3,2.860357E3,1.4232277E3,1.7328368E3,2.664458E3,1.8361396E3,2.5661519E3,2.1350317E3,2.1266655E3,2.8652346E3,3.0317627E3,2.5611753E3,1.0246826E3,1.3100215E3,1.1784683E3,1.7710676E3,9.762097E2,1.3080842E3,9.979014E2,8.357926E2,8.691407E2,1.034397E3,1.4322119E3,1.0333689E3,7.887308E2,9.172778E2,7.093471E2,4.7112512E2,1.6623024E3,2.041146E3,1.3414071E3,1.6505012E3,1.2130486E3,9.300637E2,1.3587911E3,2.8795515E3,1.6248224E3,1.3417872E3,1.8919491E3,2.2854387E3,1.9072535E3,1.4888181E3,1.4664862E3,1.1221589E3,2.9739175E3,1.4997219E3,1.859497E3,2.4324182E3,2.753609E3,1.4112439E3,2.3134807E3,1.7248029E3,3.6407004E3,2.6564333E3,1.3445052E3,1.6612382E3,2.892643E3,1.7003322E3,2.8741814E3,2.009742E3,1.6864778E3,2.0664722E3,2.4148982E3,2.976165E3,1.858702E3,2.2566433E3,2.1501008E3,1.5662861E3,3.1585554E3,2.7738228E3,2.7488865E3,2.472707E3],"categories":[],"categories_nodes":[],"categories_segments":[],"categories_sizes":[],"default_left":[1,1,1,1,1,1,1,1,1,1,1,1,1,1,1,1,1,1,1,1,1,1,1,1,1,1,1,1,1,1,1,1,1,1,1,1,1,1,1,1,1,1,1,1,0,1,1,1,1,1,1,1,1,1,1,1,1,1,1,1,0,1,1,0,0,0,0,0,0,0,0,0,0,0,0,0,0,0,0,0,0,0,0,0,0,0,0,0,0,0,0,0,0,0,0,0,0,0,0,0,0,0,0,0,0,0,0,0,0,0,0,0,0,0,0,0,0,0,0,0,0,0,0],"id":4,"left_children":[1,3,5,7,9,11,13,15,17,19,21,23,25,27,29,31,33,35,37,39,41,43,45,47,49,51,53,55,57,59,61,63,65,67,69,71,73,75,77,79,81,83,85,87,-1,89,91,93,95,97,99,101,103,105,107,109,111,113,115,117,-1,119,121,-1,-1,-1,-1,-1,-1,-1,-1,-1,-1,-1,-1,-1,-1,-1,-1,-1,-1,-1,-1,-1,-1,-1,-1,-1,-1,-1,-1,-1,-1,-1,-1,-1,-1,-1,-1,-1,-1,-1,-1,-1,-1,-1,-1,-1,-1,-1,-1,-1,-1,-1,-1,-1,-1,-1,-1,-1,-1,-1,-1],"loss_changes":[5.27573E9,1.4944911E9,2.5510625E9,3.1798477E8,7.4264166E8,6.2888346E8,1.9438797E8,2.0221542E8,1.9136922E8,1.4603162E8,1.4221107E8,4.400722E8,3.425157E8,5.097779E7,2.179502E8,2.3837696E8,2.5918976E7,8.031642E7,4.791808E7,3.499699E7,1.1911987E8,6.509107E7,5.713869E7,1.8934272E8,3.1305062E8,1.6990925E8,1.2454912E8,5.714688E7,1.4405376E7,5.490176E7,4.6009344E7,6.693888E7,2.9903155E8,1.6311936E7,2.7314432E7,9.403494E7,6.841242E7,4.031949E7,1.3479104E7,3.414528E6,9.187456E6,1.354025E8,1.0806893E8,6.481715E7,0E0,1.1905792E7,7.363994E7,1.1214848E8,1.2361958E8,1.4272256E7,1.0117453E8,9.272474E7,3.3473024E7,6.4743424E7,7.639962E7,9.515776E6,5.911501E7,4.379328E6,8.695296E6,2.6578944E7,0E0,7.277312E6,6.940928E6,0E0,0E0,0E0,0E0,0E0,0E0,0E0,0E0,0E0,0E0,0E0,0E0,0E0,0E0,0E0,0E0,0E0,0E0,0E0,0E0,0E0,0E0,0E0,0E0,0E0,0E0,0E0,0E0,0E0,0E0,0E0,0E0,0E0,0E0,0E0,0E0,0E0,0E0,0E0,0E0,0E0,0E0,0E0,0E0,0E0,0E0,0E0,0E0,0E0,0E0,0E0,0E0,0E0,0E0,0E0,0E0,0E0,0E0,0E0,0E0],"parents":[2147483647,0,0,1,1,2,2,3,3,4,4,5,5,6,6,7,7,8,8,9,9,10,10,11,11,12,12,13,13,14,14,15,15,16,16,17,17,18,18,19,19,20,20,21,21,22,22,23,23,24,24,25,25,26,26,27,27,28,28,29,29,30,30,31,31,32,32,33,33,34,34,35,35,36,36,37,37,38,38,39,39,40,40,41,41,42,42,43,43,45,45,46,46,47,47,48,48,49,49,50,50,51,51,52,52,53,53,54,54,55,55,56,56,57,57,58,58,59,59,61,61,62,62],"right_children":[2,4,6,8,10,12,14,16,18,20,22,24,26,28,30,32,34,36,38,40,42,44,46,48,50,52,54,56,58,60,62,64,66,68,70,72,74,76,78,80,82,84,86,88,-1,90,92,94,96,98,100,102,104,106,108,110,112,114,116,118,-1,120,122,-1,-1,-1,-1,-1,-1,-1,-1,-1,-1,-1,-1,-1,-1,-1,-1,-1,-1,-1,-1,-1,-1,-1,-1,-1,-1,-1,-1,-1,-1,-1,-1,-1,-1,-1,-1,-1,-1,-1,-1,-1,-1,-1,-1,-1,-1,-1,-1,-1,-1,-1,-1,-1,-1,-1,-1,-1,-1,-1,-1],"split_conditions":[7.219195E-1,5.9522194E-1,5E-1,-4.0151045E-1,-8.069664E-1,1.4499605E0,1.0385581E0,6.360266E-1,3.762259E-1,-1.2002087E0,6.6682674E-2,4.073707E-1,-1.72768E-1,1.0746789E0,1.4499605E0,-2.2453368E-1,5E-1,-4.4294596E-1,-4.982218E-1,5E-1,5E-1,2.4634845E0,5.845557E-1,5.739666E-1,-4.071287E-1,1.5667737E-1,-1.9213764E-2,-1.3015679E0,-1.113698E0,-8.712565E-2,-7.807423E-1,5E-1,-4.1931283E-1,-8.1487393E-1,-1.0339174E0,5E-1,-1.0850654E0,2.8509495E-1,6.491154E-1,2.0791504E0,1.0243992E0,-5.4018384E-1,5E-1,-1.4635038E-1,7.0138025E2,4.9231663E-1,-8.4835535E-1,-7.791991E-1,6.181645E-1,9.4033176E-1,-1.848396E-1,2.4158035E-1,5E-1,1.5955687E0,5E-1,5E-1,-4.048556E-1,-7.508804E-1,-9.913407E-1,-1.9518033E-1,8.5957043E2,2.7753274E0,5E-1,3.074048E2,3.9300647E2,3.535405E2,5.313203E2,2.928629E2,3.924253E2,2.9937045E2,2.507378E2,2.6074222E2,3.103191E2,4.296636E2,3.1001068E2,2.3661925E2,2.7518335E2,2.1280414E2,1.4133754E2,4.9869073E2,6.123438E2,4.0242215E2,4.951504E2,3.6391458E2,2.7901913E2,4.0763736E2,8.638655E2,4.8744675E2,4.025362E2,5.675848E2,6.8563165E2,5.721761E2,4.4664545E2,4.399459E2,3.366477E2,8.921753E2,4.499166E2,5.578491E2,7.2972546E2,8.260827E2,4.233732E2,6.9404425E2,5.1744086E2,1.0922102E3,7.9693005E2,4.033516E2,4.9837146E2,8.6779297E2,5.1009967E2,8.6225446E2,6.029226E2,5.0594336E2,6.1994165E2,7.244695E2,8.9284955E2,5.5761066E2,6.7699304E2,6.450303E2,4.6988586E2,9.4756665E2,8.3214685E2,8.2466595E2,7.4181213E2],"split_indices":[51,28,9,39,51,51,26,49,49,48,51,25,39,45,51,51,7,51,24,7,4,45,25,24,43,25,28,39,44,44,44,4,28,43,39,13,43,51,51,39,41,39,1,45,0,27,39,42,24,51,28,44,8,51,21,10,31,39,44,39,0,28,2,0,0,0,0,0,0,0,0,0,0,0,0,0,0,0,0,0,0,0,0,0,0,0,0,0,0,0,0,0,0,0,0,0,0,0,0,0,0,0,0,0,0,0,0,0,0,0,0,0,0,0,0,0,0,0,0,0,0,0,0],"split_type":[0,0,0,0,0,0,0,0,0,0,0,0,0,0,0,0,0,0,0,0,0,0,0,0,0,0,0,0,0,0,0,0,0,0,0,0,0,0,0,0,0,0,0,0,0,0,0,0,0,0,0,0,0,0,0,0,0,0,0,0,0,0,0,0,0,0,0,0,0,0,0,0,0,0,0,0,0,0,0,0,0,0,0,0,0,0,0,0,0,0,0,0,0,0,0,0,0,0,0,0,0,0,0,0,0,0,0,0,0,0,0,0,0,0,0,0,0,0,0,0,0,0,0],"sum_hessian":[9.9216E4,7.3436E4,2.578E4,6.0044E4,1.3392E4,2.0232E4,5.548E3,2.5689E4,3.4355E4,7.759E3,5.633E3,1.3178E4,7.054E3,2.308E3,3.24E3,1.9678E4,6.011E3,2.2272E4,1.2083E4,6.93E2,7.066E3,3.402E3,2.231E3,1.1271E4,1.907E3,1.439E3,5.615E3,1.858E3,4.5E2,2.27E3,9.7E2,1.3863E4,5.815E3,6.95E2,5.316E3,1.4846E4,7.426E3,1.0027E4,2.056E3,1.98E2,4.95E2,6.843E3,2.23E2,3.311E3,9.1E1,4.21E2,1.81E3,1.0009E4,1.262E3,5.38E2,1.369E3,1.2E3,2.39E2,3.522E3,2.093E3,9E1,1.768E3,1.27E2,3.23E2,2.16E3,1.1E2,3.51E2,6.19E2,1.2976E4,8.87E2,4.775E3,1.04E3,4.63E2,2.32E2,1.46E3,3.856E3,9.34E3,5.506E3,4.63E2,6.963E3,5.625E3,4.402E3,1.774E3,2.82E2,5E1,1.48E2,3.35E2,1.6E2,3.696E3,3.147E3,1.55E2,6.8E1,1.547E3,1.764E3,1.36E2,2.85E2,1.108E3,7.02E2,1.066E3,8.943E3,6E1,1.202E3,5.8E1,4.8E2,5.9E1,1.31E3,4.2E2,7.8E2,4.8E1,1.91E2,2.649E3,8.73E2,5.6E1,2.037E3,6.7E1,2.3E1,1.074E3,6.94E2,9.5E1,3.2E1,1.01E2,2.22E2,2.072E3,8.8E1,2.32E2,1.19E2,1.94E2,4.25E2],"tree_param":{"num_deleted":"0","num_feature":"52","num_nodes":"123","size_leaf_vector":"0"}},{"base_weights":[8.2974146E2,7.340173E2,1.1023977E3,6.906274E2,9.5451337E2,1.0023309E3,1.5941176E3,6.673768E2,9.178155E2,7.80615E2,1.1268088E3,1.2528766E3,9.205887E2,1.4923464E3,1.8193124E3,8.1327386E2,6.421894E2,8.4635724E2,1.0568391E3,4.2380817E2,8.3004144E2,8.185893E2,1.1951787E3,1.7397253E3,1.1883586E3,1.0527135E3,7.7891223E2,1.2256575E3,1.5464998E3,2.1949006E3,1.7420002E3,7.933639E2,1.5315374E3,5.861387E2,6.882979E2,8.1779065E2,1.1520256E3,1.2042987E3,9.657453E2,2.2184256E2,5.385453E2,7.8056213E2,1.1491501E3,7.599354E2,1.1261604E3,1.2872373E3,9.950599E2,1.9644299E3,1.2767385E3,1.1314481E3,1.5147603E3,1.0022678E3,1.6467034E3,6.882177E2,1.1073268E3,8.901643E2,1.3346713E3,1.7012219E3,1.4472546E3,1.8760682E3,2.2811707E3,1.6785144E3,1.9990961E3,7.0571063E2,8.770188E2,1.6229473E3,5.9763464E2,6.650346E2,5.235014E2,6.4415094E2,7.650211E2,7.429016E2,9.0291797E2,9.4422687E2,1.386536E3,1.3817046E3,1.0825784E3,1.0744326E3,8.3053357E2,7.6510284E1,2.9891534E2,4.3203082E2,7.057836E2,9.2614166E2,6.633603E2,2.270436E3,1.0927596E3,8.409406E2,4.729702E2,1.7006971E3,1.0512488E3,1.1967698E3,1.4838022E3,1.1163271E3,8.833954E2,1.8039508E3,2.1291794E3,1.6064347E3,1.0550216E3,1.0876919E3,1.4035704E3,2.8146433E3,1.4859729E3,8.768454E2,1.1690441E3,1.9413131E3,1.4149272E3,6.408359E2,1.174994E3,1.0149418E3,1.7708936E3,1.0475516E3,6.64909E2,1.5460527E3,1.268261E3,2.0087725E3,1.6609233E3,1.5330598E3,1.2366033E3,1.0564808E3,1.915656E3,1.8743394E3,2.3641587E3,1.6174365E3,1.921413E3,3.1666443E3,1.9766132E3],"categories":[],"categories_nodes":[],"categories_segments":[],"categories_sizes":[],"default_left":[1,1,1,1,1,1,1,1,1,1,1,1,1,1,1,1,1,1,1,1,1,1,1,1,1,1,1,1,1,1,1,1,1,1,1,1,1,1,1,1,1,1,1,1,1,1,1,1,1,1,1,1,1,1,1,1,1,1,1,1,1,1,1,0,0,0,0,0,0,0,0,0,0,0,0,0,0,0,0,0,0,0,0,0,0,0,0,0,0,0,0,0,0,0,0,0,0,0,0,0,0,0,0,0,0,0,0,0,0,0,0,0,0,0,0,0,0,0,0,0,0,0,0,0,0,0,0],"id":5,"left_children":[1,3,5,7,9,11,13,15,17,19,21,23,25,27,29,31,33,35,37,39,41,43,45,47,49,51,53,55,57,59,61,63,65,67,69,71,73,75,77,79,81,83,85,87,89,91,93,95,97,99,101,103,105,107,109,111,113,115,117,119,121,123,125,-1,-1,-1,-1,-1,-1,-1,-1,-1,-1,-1,-1,-1,-1,-1,-1,-1,-1,-1,-1,-1,-1,-1,-1,-1,-1,-1,-1,-1,-1,-1,-1,-1,-1,-1,-1,-1,-1,-1,-1,-1,-1,-1,-1,-1,-1,-1,-1,-1,-1,-1,-1,-1,-1,-1,-1,-1,-1,-1,-1,-1,-1,-1,-1],"loss_changes":[2.5889874E9,7.02124E8,1.2675666E9,3.2370074E8,3.611607E8,4.380078E8,9.840333E7,2.041815E8,5.5993344E7,1.0570522E8,1.2713933E8,1.6430387E8,3.0184448E8,4.2297344E7,3.732531E7,1.1640474E8,1.2238234E8,3.2255744E7,2.5217024E7,1.6832136E7,8.275046E7,1.9317632E7,9.061478E7,6.262963E7,8.54359E7,2.4944435E8,2.3172762E8,1.7886976E7,3.695411E7,4.098432E6,1.6584192E7,5.802701E7,1.8159136E7,1.0562714E8,8.784691E7,2.1491712E7,1.4808704E7,1.4984768E7,1.6995328E7,2.929423E6,8.048704E6,7.756083E7,4.3331456E7,2.124032E7,6.5024E6,5.936384E7,2.0561792E7,8.920448E6,1.3796576E7,4.6293504E7,2.3607424E7,1.6049971E8,4.31136E7,1.4043546E8,1.0232755E8,3.995888E6,4.258816E6,1.027584E7,2.644352E7,5.00128E5,3.741376E6,1.1763456E7,2.664384E6,0E0,0E0,0E0,0E0,0E0,0E0,0E0,0E0,0E0,0E0,0E0,0E0,0E0,0E0,0E0,0E0,0E0,0E0,0E0,0E0,0E0,0E0,0E0,0E0,0E0,0E0,0E0,0E0,0E0,0E0,0E0,0E0,0E0,0E0,0E0,0E0,0E0,0E0,0E0,0E0,0E0,0E0,0E0,0E0,0E0,0E0,0E0,0E0,0E0,0E0,0E0,0E0,0E0,0E0,0E0,0E0,0E0,0E0,0E0,0E0,0E0,0E0,0E0,0E0],"parents":[2147483647,0,0,1,1,2,2,3,3,4,4,5,5,6,6,7,7,8,8,9,9,10,10,11,11,12,12,13,13,14,14,15,15,16,16,17,17,18,18,19,19,20,20,21,21,22,22,23,23,24,24,25,25,26,26,27,27,28,28,29,29,30,30,31,31,32,32,33,33,34,34,35,35,36,36,37,37,38,38,39,39,40,40,41,41,42,42,43,43,44,44,45,45,46,46,47,47,48,48,49,49,50,50,51,51,52,52,53,53,54,54,55,55,56,56,57,57,58,58,59,59,60,60,61,61,62,62],"right_children":[2,4,6,8,10,12,14,16,18,20,22,24,26,28,30,32,34,36,38,40,42,44,46,48,50,52,54,56,58,60,62,64,66,68,70,72,74,76,78,80,82,84,86,88,90,92,94,96,98,100,102,104,106,108,110,112,114,116,118,120,122,124,126,-1,-1,-1,-1,-1,-1,-1,-1,-1,-1,-1,-1,-1,-1,-1,-1,-1,-1,-1,-1,-1,-1,-1,-1,-1,-1,-1,-1,-1,-1,-1,-1,-1,-1,-1,-1,-1,-1,-1,-1,-1,-1,-1,-1,-1,-1,-1,-1,-1,-1,-1,-1,-1,-1,-1,-1,-1,-1,-1,-1,-1,-1,-1,-1],"split_conditions":[7.219195E-1,7.3259884E-1,4.9247774E-1,1.7370343E0,-1.0253787E0,-2.568268E-1,1.4499605E0,-9.557264E-1,-4.6789533E-1,1.1914992E0,-8.898417E-1,-1.1642686E0,5E-1,8.6752766E-1,-1.1952105E0,5.0350726E-1,-3.7553188E-1,-1.5599895E-1,-2.9560651E-3,2.2972974E-1,4.4782102E-1,1.7370343E0,-4.6386257E-1,3.762259E-1,1.5227644E0,5E-1,1.5227644E0,-9.3433464E-1,5E-1,-1.1581954E0,1.5955687E0,-3.7553188E-1,5E-1,-2.1528801E-1,-1.0287367E-1,-3.7553188E-1,-5.65621E-1,-1.956324E-1,-1.5921617E-1,5E-1,1.138442E0,-9.585632E-1,6.066578E-1,-1.8553308E-1,7.844994E-1,1.8067168E0,5E-1,1.3877794E-1,1.10925905E-1,1.991401E0,-2.2922266E0,1.4499605E0,-2.1934369E-1,5E-1,1.12390265E-1,5E-1,-4.229819E-1,5E-1,-4.660591E-1,-8.898417E-1,-3.7553188E-1,3.7389467E0,5E-1,2.117132E2,2.6310565E2,4.868842E2,1.792904E2,1.9951039E2,1.5705043E2,1.9324529E2,2.2950635E2,2.228705E2,2.708754E2,2.8326807E2,4.1596082E2,4.1451138E2,3.2477353E2,3.223298E2,2.4916008E2,2.2953087E1,8.967461E1,1.2960925E2,2.1173509E2,2.778425E2,1.990081E2,6.8113086E2,3.278279E2,2.522822E2,1.4189107E2,5.1020917E2,3.1537463E2,3.5903094E2,4.451407E2,3.3489816E2,2.6501862E2,5.4118524E2,6.3875385E2,4.8193042E2,3.165065E2,3.263076E2,4.2107114E2,8.44393E2,4.457919E2,2.6305362E2,3.5071323E2,5.82394E2,4.2447818E2,1.9225078E2,3.5249823E2,3.0448254E2,5.3126807E2,3.142655E2,1.994727E2,4.6381583E2,3.804783E2,6.026318E2,4.98277E2,4.5991797E2,3.70981E2,3.1694427E2,5.7469684E2,5.623018E2,7.092476E2,4.85231E2,5.764239E2,9.4999335E2,5.9298395E2],"split_indices":[51,24,23,38,51,38,51,39,27,24,29,46,5,51,39,51,29,24,42,46,39,38,39,49,51,6,51,46,5,45,51,29,13,38,23,29,23,39,46,13,41,44,39,39,24,24,5,29,41,39,38,51,23,9,27,12,38,14,39,29,29,29,5,0,0,0,0,0,0,0,0,0,0,0,0,0,0,0,0,0,0,0,0,0,0,0,0,0,0,0,0,0,0,0,0,0,0,0,0,0,0,0,0,0,0,0,0,0,0,0,0,0,0,0,0,0,0,0,0,0,0,0,0,0,0,0,0],"split_type":[0,0,0,0,0,0,0,0,0,0,0,0,0,0,0,0,0,0,0,0,0,0,0,0,0,0,0,0,0,0,0,0,0,0,0,0,0,0,0,0,0,0,0,0,0,0,0,0,0,0,0,0,0,0,0,0,0,0,0,0,0,0,0,0,0,0,0,0,0,0,0,0,0,0,0,0,0,0,0,0,0,0,0,0,0,0,0,0,0,0,0,0,0,0,0,0,0,0,0,0,0,0,0,0,0,0,0,0,0,0,0,0,0,0,0,0,0,0,0,0,0,0,0,0,0,0,0],"sum_hessian":[9.9216E4,7.3436E4,2.578E4,6.1363E4,1.2073E4,2.1422E4,4.358E3,5.5668E4,5.695E3,6.01E3,6.063E3,5.268E3,1.6154E4,3.004E3,1.354E3,8.193E3,4.7475E4,3.764E3,1.931E3,7.32E2,5.278E3,1.102E3,4.961E3,6.15E2,4.653E3,8.357E3,7.797E3,5.09E2,2.495E3,2.29E2,1.125E3,7.973E3,2.2E2,2.1431E4,2.6044E4,3.444E3,3.2E2,7.35E2,1.196E3,2.66E2,4.66E2,4.571E3,7.07E2,9.27E2,1.75E2,3.396E3,1.565E3,4.13E2,2.02E2,3.964E3,6.89E2,7.704E3,6.53E2,6.111E3,1.686E3,1.26E2,3.83E2,9.72E2,1.523E3,5.1E1,1.78E2,9.05E2,2.2E2,3.896E3,4.077E3,2E2,2E1,9.482E3,1.1949E4,1.6535E4,9.509E3,1.835E3,1.609E3,1.71E2,1.49E2,2.97E2,4.38E2,6.61E2,5.35E2,9.3E1,1.73E2,2.86E2,1.8E2,2.037E3,2.534E3,3.3E1,6.74E2,7.22E2,2.05E2,1.9E1,1.56E2,2.328E3,1.068E3,7.48E2,8.17E2,2.12E2,2.01E2,8E1,1.22E2,3.417E3,5.47E2,1.4E1,6.75E2,4.399E3,3.305E3,2.86E2,3.67E2,5.57E3,5.41E2,1.481E3,2.05E2,7.3E1,5.3E1,8.9E1,2.94E2,1.1E2,8.62E2,1.08E3,4.43E2,3E0,4.8E1,3.2E1,1.46E2,7.26E2,1.79E2,3E0,2.17E2],"tree_param":{"num_deleted":"0","num_feature":"52","num_nodes":"127","size_leaf_vector":"0"}},{"base_weights":[5.8093884E2,5.138762E2,7.7195544E2,4.7938208E2,6.7210284E2,1.01236926E3,6.626542E2,4.619611E2,6.4466693E2,5.7800195E2,8.6364087E2,5.780481E2,1.0887048E3,6.372455E2,1.0911279E3,5.1442096E2,4.2066397E2,5.4143866E2,7.0285785E2,6.080182E2,2.2920955E2,7.5621545E2,9.971185E2,1.51679E2,7.7111945E2,9.334966E2,1.1767565E3,8.5625385E2,5.9074304E2,1.3881616E3,9.2217725E2,3.068043E2,5.5049225E2,3.982676E2,5.877518E2,4.2227783E2,6.4069403E2,6.399134E2,9.0152246E2,1.8716176E3,6.000771E2,5.745671E2,9.689424E1,7.7926263E2,4.9484783E1,1.2545266E3,9.372337E2,2.9969458E2,-1.2754411E2,1.0309075E3,5.8314453E2,7.4100507E2,9.854118E2,1.1039725E3,1.313186E3,1.112798E3,7.857189E2,6.8830304E2,4.958911E2,1.083062E3,1.5375084E3,7.361692E2,1.1131852E3,8.334473E2,2.7195224E2,7.395221E2,5.342977E2,3.4240042E2,4.4319528E2,5.1136932E2,8.447117E2,4.4589923E2,1.4999258E2,6.780537E2,4.674649E2,9.659969E2,6.2055E2,7.072486E2,9.734752E2,1.9318999E3,1.2039412E3,5.3670056E2,7.275621E2,4.249422E2,8.152284E2,3.0624637E2,4.795952E1,1.0534271E3,7.124254E2,-0E0,3.6099542E2,1.2840343E3,-3.5750546E1,9.0613513E2,1.5135725E3,7.435484E2,2.69117E2,-1.927702E2,1.0517425E2,8.96563E2,1.5011799E3,4.463946E2,9.174795E2,7.1845703E2,1.3810806E3,9.6427716E2,1.302971E3,1.1386833E3,9.0784235E2,1.384882E3,1.1168473E3,2.0236099E3,1.0783359E3,1.1951376E3,7.57276E2,5.948109E2,8.11008E2,3.9991147E2,6.278111E2,1.0022729E3,1.3479292E3,1.4664841E3,2.0838037E3,6.434402E2,9.157475E2,9.2133344E2,1.2016262E3],"categories":[],"categories_nodes":[],"categories_segments":[],"categories_sizes":[],"default_left":[1,1,1,1,1,1,1,1,1,1,1,1,1,1,1,1,1,1,1,1,1,1,1,1,1,1,1,1,1,1,1,1,1,1,1,1,1,1,1,1,1,1,1,1,1,1,1,1,1,1,1,1,1,1,1,1,1,1,1,1,1,1,1,0,0,0,0,0,0,0,0,0,0,0,0,0,0,0,0,0,0,0,0,0,0,0,0,0,0,0,0,0,0,0,0,0,0,0,0,0,0,0,0,0,0,0,0,0,0,0,0,0,0,0,0,0,0,0,0,0,0,0,0,0,0,0,0],"id":6,"left_children":[1,3,5,7,9,11,13,15,17,19,21,23,25,27,29,31,33,35,37,39,41,43,45,47,49,51,53,55,57,59,61,63,65,67,69,71,73,75,77,79,81,83,85,87,89,91,93,95,97,99,101,103,105,107,109,111,113,115,117,119,121,123,125,-1,-1,-1,-1,-1,-1,-1,-1,-1,-1,-1,-1,-1,-1,-1,-1,-1,-1,-1,-1,-1,-1,-1,-1,-1,-1,-1,-1,-1,-1,-1,-1,-1,-1,-1,-1,-1,-1,-1,-1,-1,-1,-1,-1,-1,-1,-1,-1,-1,-1,-1,-1,-1,-1,-1,-1,-1,-1,-1,-1,-1,-1,-1,-1],"loss_changes":[1.2706529E9,4.005417E8,6.769746E8,1.7336013E8,2.3650304E8,2.6665011E8,1.924777E8,1.1797402E8,3.4221824E7,9.212493E7,6.155187E7,9.906976E7,9.293978E7,1.7004288E8,4.896179E7,1.7974067E8,1.1401472E8,2.4298048E7,4.5518464E7,8.068557E7,3.1856332E7,3.898227E7,2.8991232E7,1.5592433E7,4.006723E7,2.4306944E7,4.251648E7,5.2429824E7,1.2746291E8,1.5348864E7,2.1953152E7,6.5070336E7,6.234061E7,6.74089E7,7.04471E7,5.975344E6,7.05056E6,1.7193728E7,1.1856384E7,7.20592E5,6.4856064E7,6.67574E6,5.1391285E6,4.208E7,1.1681174E6,1.396704E7,2.7234816E7,3.141712E6,1.9980622E6,2.1120768E7,2.1726912E7,6.990368E6,1.2334336E7,1.87584E7,2.0439808E7,1.8540864E7,2.6179072E7,7.768576E7,8.842458E7,1.731264E6,7.639232E6,4.944752E6,4.584864E6,0E0,0E0,0E0,0E0,0E0,0E0,0E0,0E0,0E0,0E0,0E0,0E0,0E0,0E0,0E0,0E0,0E0,0E0,0E0,0E0,0E0,0E0,0E0,0E0,0E0,0E0,0E0,0E0,0E0,0E0,0E0,0E0,0E0,0E0,0E0,0E0,0E0,0E0,0E0,0E0,0E0,0E0,0E0,0E0,0E0,0E0,0E0,0E0,0E0,0E0,0E0,0E0,0E0,0E0,0E0,0E0,0E0,0E0,0E0,0E0,0E0,0E0,0E0,0E0],"parents":[2147483647,0,0,1,1,2,2,3,3,4,4,5,5,6,6,7,7,8,8,9,9,10,10,11,11,12,12,13,13,14,14,15,15,16,16,17,17,18,18,19,19,20,20,21,21,22,22,23,23,24,24,25,25,26,26,27,27,28,28,29,29,30,30,31,31,32,32,33,33,34,34,35,35,36,36,37,37,38,38,39,39,40,40,41,41,42,42,43,43,44,44,45,45,46,46,47,47,48,48,49,49,50,50,51,51,52,52,53,53,54,54,55,55,56,56,57,57,58,58,59,59,60,60,61,61,62,62],"right_children":[2,4,6,8,10,12,14,16,18,20,22,24,26,28,30,32,34,36,38,40,42,44,46,48,50,52,54,56,58,60,62,64,66,68,70,72,74,76,78,80,82,84,86,88,90,92,94,96,98,100,102,104,106,108,110,112,114,116,118,120,122,124,126,-1,-1,-1,-1,-1,-1,-1,-1,-1,-1,-1,-1,-1,-1,-1,-1,-1,-1,-1,-1,-1,-1,-1,-1,-1,-1,-1,-1,-1,-1,-1,-1,-1,-1,-1,-1,-1,-1,-1,-1,-1,-1,-1,-1,-1,-1,-1,-1,-1,-1,-1,-1,-1,-1,-1,-1,-1,-1,-1,-1,-1,-1,-1,-1],"split_conditions":[7.219195E-1,6.957643E-1,-2.368394E-1,1.7370343E0,-6.6135824E-1,-4.8766577E-1,5E-1,-9.067169E-2,-6.32081E-1,-4.1213477E-1,1.3877794E-1,1.122342E0,1.3877794E-1,-1.2122185E0,5E-1,-1.3165951E0,9.7874916E-1,4.388898E-1,6.204678E-1,-2.6245368E0,-5.080263E-1,3.6373088E0,5.845557E-1,-7.362803E-1,4.7914565E-1,-8.898417E-1,1.4499605E0,-2.0845327E0,-3.2470286E-1,1.3877794E-1,2.3012799E-1,-1.7522225E0,-1.3783736E0,-6.1214166E-3,-2.9579625E-1,2.34233E0,1.9293085E0,-1.187995E0,-2.802216E-1,2.6079993E0,1.3877794E-1,-6.9298387E-1,-1.3368349E0,5.845557E-1,2.009123E0,3.6373088E0,3.45429E0,1.1327088E0,5E-1,1.5227644E0,1.4499605E0,1.7979805E0,1.5955687E0,1.3771563E0,-8.399558E-2,-2.4376123E0,-1.3579752E0,5E-1,1.4499605E0,4.726022E-1,4.812199E-1,-1.731042E-1,-3.7553188E-1,2.5003421E2,8.158568E1,2.2185664E2,1.6028932E2,1.0272013E2,1.3295859E2,1.534108E2,2.5341351E2,1.3376978E2,4.4997776E1,2.0341612E2,1.4023947E2,2.8979907E2,1.8616501E2,2.1217459E2,2.9204257E2,5.7957E2,3.6118237E2,1.6101018E2,2.1826863E2,1.27482666E2,2.4456853E2,9.187392E1,1.43878565E1,3.1602814E2,2.1372763E2,-0E0,1.0829863E2,3.852103E2,-1.0725164E1,2.7184055E2,4.5407178E2,2.2306453E2,8.073511E1,-5.7831062E1,3.1552275E1,2.689689E2,4.50354E2,1.3391838E2,2.7524387E2,2.1553712E2,4.143242E2,2.8928317E2,3.908913E2,3.41605E2,2.7235272E2,4.154646E2,3.350542E2,6.07083E2,3.235008E2,3.585413E2,2.2718282E2,1.7844328E2,2.4330241E2,1.1997344E2,1.8834334E2,3.006819E2,4.0437878E2,4.3994525E2,6.251411E2,1.9303206E2,2.7472427E2,2.7640005E2,3.6048788E2],"split_indices":[51,28,44,38,51,25,15,38,28,49,29,51,29,38,14,51,33,44,36,38,45,35,25,28,39,29,51,38,46,29,45,38,38,51,28,40,44,39,48,27,29,38,38,25,46,35,27,43,1,51,51,39,51,51,39,38,46,4,51,44,44,36,29,0,0,0,0,0,0,0,0,0,0,0,0,0,0,0,0,0,0,0,0,0,0,0,0,0,0,0,0,0,0,0,0,0,0,0,0,0,0,0,0,0,0,0,0,0,0,0,0,0,0,0,0,0,0,0,0,0,0,0,0,0,0,0,0],"split_type":[0,0,0,0,0,0,0,0,0,0,0,0,0,0,0,0,0,0,0,0,0,0,0,0,0,0,0,0,0,0,0,0,0,0,0,0,0,0,0,0,0,0,0,0,0,0,0,0,0,0,0,0,0,0,0,0,0,0,0,0,0,0,0,0,0,0,0,0,0,0,0,0,0,0,0,0,0,0,0,0,0,0,0,0,0,0,0,0,0,0,0,0,0,0,0,0,0,0,0,0,0,0,0,0,0,0,0,0,0,0,0,0,0,0,0,0,0,0,0,0,0,0,0,0,0,0,0],"sum_hessian":[9.9216E4,7.3436E4,2.578E4,6.0294E4,1.3142E4,8.056E3,1.7724E4,5.4547E4,5.747E3,8.814E3,4.328E3,1.205E3,6.851E3,1.6733E4,9.91E2,2.4023E4,3.0524E4,2.074E3,3.673E3,8.115E3,6.99E2,2.4E3,1.928E3,3.76E2,8.29E2,2.482E3,4.369E3,2.929E3,1.3804E4,3.58E2,6.33E2,3.557E3,2.0466E4,2.6918E4,3.606E3,9.44E2,1.13E3,2.791E3,8.82E2,5E1,8.065E3,1.93E2,5.06E2,2.324E3,7.6E1,3.62E2,1.566E3,2.46E2,1.3E2,3.47E2,4.82E2,5.29E2,1.953E3,2.852E3,1.517E3,6.3E2,2.299E3,6.803E3,7.001E3,1.19E2,2.39E2,3.22E2,3.11E2,2.2E2,3.337E3,1.613E3,1.8853E4,1.2001E4,1.4917E4,2.781E3,8.25E2,8.68E2,7.6E1,9.28E2,2.02E2,1.55E2,2.636E3,2.4E2,6.42E2,4.5E1,5E0,5.389E3,2.676E3,1.2E2,7.3E1,9.5E1,4.11E2,4.54E2,1.87E3,6.6E1,1E1,3.54E2,8E0,1.487E3,7.9E1,1.5E1,2.31E2,1.02E2,2.8E1,2.71E2,7.6E1,3.43E2,1.39E2,5.12E2,1.7E1,1.833E3,1.2E2,2.421E3,4.31E2,1.109E3,4.08E2,2.2E1,6.08E2,1.48E2,2.151E3,3.863E3,2.94E3,4.054E3,2.947E3,9.3E1,2.6E1,2.13E2,2.6E1,2.14E2,1.08E2,1E2,2.11E2],"tree_param":{"num_deleted":"0","num_feature":"52","num_nodes":"127","size_leaf_vector":"0"}},{"base_weights":[4.0674124E2,3.658414E2,5.770748E2,2.7606036E2,3.978101E2,3.7728015E2,6.3578876E2,4.360816E2,2.5723404E2,2.8784674E2,4.2861398E2,1.04916275E2,3.9641135E2,5.900071E2,7.927565E2,2.189284E2,4.9271698E2,-3.357456E1,2.6502365E2,2.7974637E2,9.6007947E2,3.7394583E2,4.931869E2,2.4162308E2,-1.7723614E1,7.980978E2,3.859944E2,5.37566E2,7.0527985E2,8.220442E2,5.324584E2,3.8539832E2,1.2701528E2,4.7024075E2,9.278403E2,-1.3313492E2,9.010979E1,2.5052351E2,3.8598227E2,1.2479668E3,2.7749213E2,1.3388636E3,3.818371E2,4.6385785E2,3.2355652E2,6.5766095E2,4.3665866E2,2.1965527E2,1.0397623E3,-1.0416889E2,1.702731E2,3.2680457E2,1.2093284E3,5.5606165E2,3.6325912E2,6.3854083E2,4.466313E2,8.504817E2,6.133219E2,7.2040936E2,8.970909E2,4.1231168E2,6.935614E2,5.63208E2,3.1639905E2,6.802011E2,1.063295E2,6.106851E2,4.3128955E2,1.0723195E3,8.0042725E2,-2.563638E2,-5.329318E1,1.867205E2,-8.5288025E1,4.3632965E2,2.4117271E2,3.5673755E2,5.4843085E2,1.3301758E3,4.2735135E2,3.7435342E2,2.5626587E2,8.3009894E2,2.0117748E3,4.8978378E2,6.63264E1,3.949175E2,5.69853E2,1.01550995E3,3.193022E2,5.839798E2,7.854085E2,4.013108E2,5.6817053E2,1.8689055E2,5.2362054E2,-4.9491515E0,-2.5218791E2,-2.962959E1,4.656515E2,3.964347E2,-9.234688E0,1.2922542E3,3.3878555E2,5.1644476E2,9.171069E2,3.4151834E2,5.566235E2,4.3001505E2,6.9629364E2,3.8391763E2,5.5557184E2,6.6493225E2,9.3560333E2,7.72822E2,5.716356E2,8.656873E2,6.672337E2,7.72124E2,1.0014823E3,1.5008282E2,4.622536E2,1.152074E3,6.587937E2],"categories":[],"categories_nodes":[],"categories_segments":[],"categories_sizes":[],"default_left":[1,1,1,1,1,1,1,1,1,1,1,1,1,1,1,1,1,1,1,1,1,1,1,1,1,1,1,1,1,1,1,1,1,1,1,1,1,1,1,1,1,1,1,1,1,1,1,1,0,1,1,1,1,1,1,1,1,1,1,1,1,1,1,0,0,0,0,0,0,0,0,0,0,0,0,0,0,0,0,0,0,0,0,0,0,0,0,0,0,0,0,0,0,0,0,0,0,0,0,0,0,0,0,0,0,0,0,0,0,0,0,0,0,0,0,0,0,0,0,0,0,0,0,0,0],"id":7,"left_children":[1,3,5,7,9,11,13,15,17,19,21,23,25,27,29,31,33,35,37,39,41,43,45,47,49,51,53,55,57,59,61,63,65,67,69,71,73,75,77,79,81,83,85,87,89,91,93,95,-1,97,99,101,103,105,107,109,111,113,115,117,119,121,123,-1,-1,-1,-1,-1,-1,-1,-1,-1,-1,-1,-1,-1,-1,-1,-1,-1,-1,-1,-1,-1,-1,-1,-1,-1,-1,-1,-1,-1,-1,-1,-1,-1,-1,-1,-1,-1,-1,-1,-1,-1,-1,-1,-1,-1,-1,-1,-1,-1,-1,-1,-1,-1,-1,-1,-1,-1,-1,-1,-1,-1,-1],"loss_changes":[6.910044E8,2.2951117E8,2.251218E8,6.316749E7,1.997056E8,2.2664128E7,1.0632909E8,2.7055552E7,4.261965E7,7.005517E7,1.6250726E8,4.847252E6,1.6795072E7,6.918835E7,2.5203328E7,6.932318E6,1.679504E7,6.048799E6,3.199936E7,2.7526016E7,3.3186592E7,1.129257E8,1.9617331E8,2.1479755E6,2.4595352E6,1.9502364E7,1.5179072E7,7.232486E7,4.758208E7,2.2507776E7,6.340792E6,1.814864E6,3.267678E6,8.890208E6,1.00284E6,2.63716E6,3.7194725E6,2.8287296E7,9.116256E6,1.543744E6,2.6059136E7,3.0622672E7,2.010897E6,6.5284864E7,4.680243E7,5.050189E7,7.288934E7,1.2035305E6,0E0,1.5016375E6,2.8570435E6,1.1807795E6,3.554984E6,6.322912E6,1.456432E7,4.4825856E7,2.822528E7,2.1534144E7,1.4297984E7,9.483008E6,2.2037632E7,2.4703E6,1.779832E6,0E0,0E0,0E0,0E0,0E0,0E0,0E0,0E0,0E0,0E0,0E0,0E0,0E0,0E0,0E0,0E0,0E0,0E0,0E0,0E0,0E0,0E0,0E0,0E0,0E0,0E0,0E0,0E0,0E0,0E0,0E0,0E0,0E0,0E0,0E0,0E0,0E0,0E0,0E0,0E0,0E0,0E0,0E0,0E0,0E0,0E0,0E0,0E0,0E0,0E0,0E0,0E0,0E0,0E0,0E0,0E0,0E0,0E0,0E0,0E0,0E0,0E0],"parents":[2147483647,0,0,1,1,2,2,3,3,4,4,5,5,6,6,7,7,8,8,9,9,10,10,11,11,12,12,13,13,14,14,15,15,16,16,17,17,18,18,19,19,20,20,21,21,22,22,23,23,24,24,25,25,26,26,27,27,28,28,29,29,30,30,31,31,32,32,33,33,34,34,35,35,36,36,37,37,38,38,39,39,40,40,41,41,42,42,43,43,44,44,45,45,46,46,47,47,49,49,50,50,51,51,52,52,53,53,54,54,55,55,56,56,57,57,58,58,59,59,60,60,61,61,62,62],"right_children":[2,4,6,8,10,12,14,16,18,20,22,24,26,28,30,32,34,36,38,40,42,44,46,48,50,52,54,56,58,60,62,64,66,68,70,72,74,76,78,80,82,84,86,88,90,92,94,96,-1,98,100,102,104,106,108,110,112,114,116,118,120,122,124,-1,-1,-1,-1,-1,-1,-1,-1,-1,-1,-1,-1,-1,-1,-1,-1,-1,-1,-1,-1,-1,-1,-1,-1,-1,-1,-1,-1,-1,-1,-1,-1,-1,-1,-1,-1,-1,-1,-1,-1,-1,-1,-1,-1,-1,-1,-1,-1,-1,-1,-1,-1,-1,-1,-1,-1,-1,-1,-1,-1,-1,-1],"split_conditions":[6.5308774E-1,-7.6476866E-1,-6.103766E-1,-1.0045247E0,-8.898417E-1,-1.0253787E0,2.1960173E0,-1.1709869E0,-1.0253787E0,3.0334787E0,-2.9733777E-1,-1.0045247E0,-1.4758317E0,1.3043523E0,1.0212483E0,-1.2007287E0,1.5955687E0,-7.362803E-1,1.6954956E0,-2.3545349E0,-6.7886996E-1,-1.724542E-1,-5.8314824E-1,5E-1,1.6817074E0,2.9740277E-1,-3.3990434E-1,-3.8635498E-1,3.762259E-1,1.0495379E0,1.3771563E0,5E-1,-2.0845327E0,-1.3783736E0,-3.137622E-1,1.9384474E0,1.3175244E-2,-1.2772403E0,2.5678098E0,1.1225822E0,-9.5571125E-1,-9.571973E-1,7.4348444E-1,5E-1,-2.2506878E0,8.6752766E-1,1.4499605E0,2.1960173E0,3.119287E2,5E-1,1.3098323E0,5.269487E-2,5E-1,1.4499605E0,9.7874916E-1,-1.0981827E0,4.4094598E-1,-4.5353335E-1,-3.3990434E-1,-5.8870876E-1,-7.883978E-1,2.5051446E0,-1.6899145E0,1.689624E2,9.4919716E1,2.0406035E2,3.1898851E1,1.8320554E2,1.2938687E2,3.2169586E2,2.4012819E2,-7.690914E1,-1.5987954E1,5.6016155E1,-2.5586409E1,1.308989E2,7.2351814E1,1.0702127E2,1.6452927E2,3.9905276E2,1.2820541E2,1.1230603E2,7.687976E1,2.490297E2,6.035325E2,1.4693513E2,1.989792E1,1.1847526E2,1.7095592E2,3.0465298E2,9.579066E1,1.7519394E2,2.3562256E2,1.2039324E2,1.7045117E2,5.6067165E1,1.5708617E2,-1.4847455E0,-7.565638E1,-8.888877E0,1.3969545E2,1.1893041E2,-2.7704065E0,3.8767627E2,1.0163567E2,1.5493344E2,2.7513208E2,1.02455505E2,1.6698705E2,1.2900452E2,2.088881E2,1.1517529E2,1.6667155E2,1.9947969E2,2.80681E2,2.3184662E2,1.7149069E2,2.597062E2,2.0017012E2,2.3163722E2,3.004447E2,4.502485E1,1.3867609E2,3.456222E2,1.9763812E2],"split_indices":[29,26,26,38,29,51,29,51,51,25,51,38,46,51,49,24,51,28,38,38,46,45,39,13,29,41,38,39,49,51,51,11,38,38,39,40,38,39,38,27,39,39,46,13,38,51,51,29,0,5,39,41,16,51,33,51,26,27,38,45,49,39,38,0,0,0,0,0,0,0,0,0,0,0,0,0,0,0,0,0,0,0,0,0,0,0,0,0,0,0,0,0,0,0,0,0,0,0,0,0,0,0,0,0,0,0,0,0,0,0,0,0,0,0,0,0,0,0,0,0,0,0,0,0,0],"split_type":[0,0,0,0,0,0,0,0,0,0,0,0,0,0,0,0,0,0,0,0,0,0,0,0,0,0,0,0,0,0,0,0,0,0,0,0,0,0,0,0,0,0,0,0,0,0,0,0,0,0,0,0,0,0,0,0,0,0,0,0,0,0,0,0,0,0,0,0,0,0,0,0,0,0,0,0,0,0,0,0,0,0,0,0,0,0,0,0,0,0,0,0,0,0,0,0,0,0,0,0,0,0,0,0,0,0,0,0,0,0,0,0,0,0,0,0,0,0,0,0,0,0,0,0,0],"sum_hessian":[9.9216E4,8.0007E4,1.9209E4,2.101E4,5.8997E4,4.364E3,1.4845E4,2.21E3,1.88E4,1.2912E4,4.6085E4,2.87E2,4.077E3,1.1495E4,3.35E3,4.58E2,1.752E3,4.9E2,1.831E4,1.2759E4,1.53E2,2.4959E4,2.1126E4,1.36E2,1.51E2,1.02E2,3.975E3,7.903E3,3.592E3,3.01E3,3.4E2,1.62E2,2.96E2,1.667E3,8.5E1,2.72E2,2.18E2,1.6352E4,1.958E3,2.9E1,1.273E4,9.2E1,6.1E1,8.962E3,1.5997E4,5.402E3,1.5724E4,1.33E2,3E0,1.04E2,4.7E1,4.8E1,5.4E1,4.67E2,3.508E3,3.743E3,4.16E3,1.391E3,2.201E3,1.281E3,1.729E3,1.96E2,1.44E2,4.4E1,1.18E2,1E1,2.86E2,3.6E2,1.307E3,3.8E1,4.7E1,1.06E2,1.66E2,1.41E2,7.7E1,7.82E2,1.557E4,1.661E3,2.97E2,2.6E1,3E0,2.286E3,1.0444E4,5.3E1,3.9E1,4.5E1,1.6E1,5.432E3,3.53E3,9.7E1,1.59E4,3.428E3,1.974E3,1.2395E4,3.329E3,1.21E2,1.2E1,6.3E1,4.1E1,2.8E1,1.9E1,4E1,8E0,4.9E1,5E0,4.22E2,4.5E1,3.155E3,3.53E2,8.13E2,2.93E3,2.642E3,1.518E3,4.39E2,9.52E2,4.54E2,1.747E3,3.41E2,9.4E2,7.89E2,9.4E2,3.2E1,1.64E2,9E0,1.35E2],"tree_param":{"num_deleted":"0","num_feature":"52","num_nodes":"125","size_leaf_vector":"0"}},{"base_weights":[2.8477676E2,2.3698262E2,3.6274704E2,3.030901E2,2.1518611E2,3.078599E2,4.6221472E2,2.833988E2,4.9554938E2,5.5388245E2,2.103973E2,3.7024298E2,2.4684814E2,6.2068146E2,4.0934213E2,2.1556712E2,3.2355377E2,7.4611926E2,4.5936887E2,1.0607899E3,5.0659668E2,1.589877E2,2.3059702E2,4.0154068E2,2.199918E2,7.071336E2,2.3549104E2,8.361135E2,5.975615E2,3.8685767E2,6.9055725E2,2.767064E2,1.7366365E2,1.296936E2,3.5501343E2,9.2128186E2,5.601518E2,3.283666E2,5.3523035E2,2.0771916E2,1.1623309E3,4.7380182E2,8.594744E2,1.322842E2,2.185049E2,-2.2508473E0,2.3746689E2,1.17001E2,4.1993045E2,1.7300667E2,3.5727298E2,6.4580975E2,1.3176564E3,2.005928E2,3.2536246E2,9.522178E2,6.075672E2,3.998955E2,6.273519E2,4.6918002E2,3.2818958E2,8.2906604E2,5.102635E2,2.8516138E2,-2.0044147E2,3.8219815E2,1.6220146E2,9.08583E2,1.0548813E2,3.7466782E2,1.7877342E2,1.1963484E3,8.756352E2,6.170667E2,2.184123E2,2.9907236E2,5.69742E2,4.9864703E2,8.596544E2,4.230037E2,6.435255E2,1.0634818E3,5.158644E2,2.2820142E2,1.1178684E2,2.569467E2,1.2326086E2,1.4164674E2,-1.0995566E2,3.177483E2,2.1655205E2,2.1620108E2,-4.6154278E1,4.4626663E2,2.2049222E2,2.8574368E2,1.2381786E2,3.989605E2,1.6798102E2,6.0627655E2,9.561905E2,1.1828909E3,1.6461511E3,-9.49331E1,2.1098627E2,8.860352E1,3.6023846E2,1.9677247E3,9.0825183E2,4.4424673E2,8.624647E2,2.3577246E2,6.1600397E2,3.066773E2,6.448668E2,4.149613E2,9.0438776E2,5.920909E2,3.0546075E2,6.896424E2,1.1282996E3,4.337655E2,8.845393E2],"categories":[],"categories_nodes":[],"categories_segments":[],"categories_sizes":[],"default_left":[1,1,1,1,1,1,1,1,1,1,1,1,1,1,1,1,1,1,1,1,1,1,1,1,1,1,1,1,1,1,1,1,1,1,1,1,1,1,1,0,0,1,1,1,1,1,1,1,1,1,1,1,1,1,1,1,1,1,1,1,1,1,1,0,0,0,0,0,0,0,0,0,0,0,0,0,0,0,0,0,0,0,0,0,0,0,0,0,0,0,0,0,0,0,0,0,0,0,0,0,0,0,0,0,0,0,0,0,0,0,0,0,0,0,0,0,0,0,0,0,0,0,0],"id":8,"left_children":[1,3,5,7,9,11,13,15,17,19,21,23,25,27,29,31,33,35,37,39,41,43,45,47,49,51,53,55,57,59,61,63,65,67,69,71,73,75,77,-1,-1,79,81,83,85,87,89,91,93,95,97,99,101,103,105,107,109,111,113,115,117,119,121,-1,-1,-1,-1,-1,-1,-1,-1,-1,-1,-1,-1,-1,-1,-1,-1,-1,-1,-1,-1,-1,-1,-1,-1,-1,-1,-1,-1,-1,-1,-1,-1,-1,-1,-1,-1,-1,-1,-1,-1,-1,-1,-1,-1,-1,-1,-1,-1,-1,-1,-1,-1,-1,-1,-1,-1,-1,-1,-1,-1],"loss_changes":[3.696251E8,8.854656E7,2.056919E8,5.7645184E7,7.489779E7,9.237069E7,1.1209165E8,3.759424E7,1.2539872E7,1.504176E7,4.731213E7,5.637811E7,6.404672E7,1.6324736E7,6.333043E7,1.3113696E7,5.291763E7,5.393424E6,1.2122672E7,4.449992E6,6.508544E6,2.0402752E7,5.241421E7,5.192973E7,1.3278496E7,1.0482352E7,3.7519616E7,8.16176E6,1.7614336E7,4.480845E7,1.8233408E7,8.470336E6,7.214984E6,2.2734584E7,2.5800256E7,4.66152E5,1.545026E6,3.04694E6,8.950432E6,0E0,0E0,4.43004E6,3.052724E6,1.7421744E7,1.4529632E7,1.4546128E7,5.331981E7,9.806769E6,4.891891E7,8.506172E6,4.066408E6,2.885144E6,4.9048E4,2.6558272E7,2.76144E7,8.466368E6,4.284856E6,1.3969528E7,1.4585344E7,9.106522E7,3.2439616E7,1.6966816E7,8.975312E6,0E0,0E0,0E0,0E0,0E0,0E0,0E0,0E0,0E0,0E0,0E0,0E0,0E0,0E0,0E0,0E0,0E0,0E0,0E0,0E0,0E0,0E0,0E0,0E0,0E0,0E0,0E0,0E0,0E0,0E0,0E0,0E0,0E0,0E0,0E0,0E0,0E0,0E0,0E0,0E0,0E0,0E0,0E0,0E0,0E0,0E0,0E0,0E0,0E0,0E0,0E0,0E0,0E0,0E0,0E0,0E0,0E0,0E0,0E0,0E0],"parents":[2147483647,0,0,1,1,2,2,3,3,4,4,5,5,6,6,7,7,8,8,9,9,10,10,11,11,12,12,13,13,14,14,15,15,16,16,17,17,18,18,19,19,20,20,21,21,22,22,23,23,24,24,25,25,26,26,27,27,28,28,29,29,30,30,31,31,32,32,33,33,34,34,35,35,36,36,37,37,38,38,41,41,42,42,43,43,44,44,45,45,46,46,47,47,48,48,49,49,50,50,51,51,52,52,53,53,54,54,55,55,56,56,57,57,58,58,59,59,60,60,61,61,62,62],"right_children":[2,4,6,8,10,12,14,16,18,20,22,24,26,28,30,32,34,36,38,40,42,44,46,48,50,52,54,56,58,60,62,64,66,68,70,72,74,76,78,-1,-1,80,82,84,86,88,90,92,94,96,98,100,102,104,106,108,110,112,114,116,118,120,122,-1,-1,-1,-1,-1,-1,-1,-1,-1,-1,-1,-1,-1,-1,-1,-1,-1,-1,-1,-1,-1,-1,-1,-1,-1,-1,-1,-1,-1,-1,-1,-1,-1,-1,-1,-1,-1,-1,-1,-1,-1,-1,-1,-1,-1,-1,-1,-1,-1,-1,-1,-1,-1,-1,-1,-1,-1,-1,-1,-1],"split_conditions":[1.3877794E-1,-7.7341443E-1,8.6752766E-1,9.4033176E-1,-1.939147E0,-3.2598567E-1,-4.6633098E-1,-5.4636514E-1,-1.09015E0,-2.3545349E0,-8.898417E-1,6.360266E-1,-2.1019807E0,-1.3629179E0,1.5955687E0,-6.254346E-1,-1.6806154E0,-1.2505015E0,-5.080751E-1,-1.1648346E0,1.8897836E0,5E-1,-1.5350072E0,-1.6078115E0,1.0724139E0,2.2353203E0,7.8164256E-1,5E-1,-5.266813E-1,5E-1,3.762259E-1,2.9383513E-1,-1.3626642E0,-2.3753042E0,1.0854621E0,-1.2745267E0,5E-1,1.3519297E0,1.5227644E0,6.231575E1,3.4869928E2,6.6337305E-1,7.06231E-1,-1.0460634E0,8.2969147E-1,5E-1,-9.1877437E-1,-1.2537574E0,5E-1,1.1702217E-1,5E-1,2.1960173E0,5E-1,-1.5350072E0,-8.934835E-1,-3.1915992E-1,5E-1,1.4499605E0,-1.2579122E0,5E-1,-1.2952961E0,2.7269113E-1,1.3576813E0,8.5548416E1,-6.0132442E1,1.1465945E2,4.8660442E1,2.7257492E2,3.164644E1,1.1240035E2,5.363203E1,3.5890454E2,2.6269058E2,1.8512003E2,6.552369E1,8.972171E1,1.709226E2,1.4959412E2,2.5789633E2,1.26901115E2,1.9305766E2,3.1904456E2,1.5475932E2,6.846043E1,3.3536053E1,7.708401E1,3.697826E1,4.2494026E1,-3.29867E1,9.532449E1,6.4965614E1,6.486033E1,-1.3846284E1,1.3387999E2,6.614767E1,8.572311E1,3.714536E1,1.19688156E2,5.0394306E1,1.8188297E2,2.8685715E2,3.5486728E2,4.9384537E2,-2.847993E1,6.3295883E1,2.6581059E1,1.0807154E2,5.9031744E2,2.7247556E2,1.3327403E2,2.5873944E2,7.073174E1,1.848012E2,9.20032E1,1.9346005E2,1.24488396E2,2.7131635E2,1.7762727E2,9.163823E1,2.0689273E2,3.3848987E2,1.3012965E2,2.6536182E2],"split_indices":[29,39,51,51,38,39,39,23,45,38,29,49,47,46,51,42,51,39,45,47,39,9,51,51,38,41,38,12,27,5,49,46,45,38,42,38,9,31,51,0,0,45,46,38,45,15,42,38,11,38,20,29,12,51,27,45,18,51,46,6,38,45,39,0,0,0,0,0,0,0,0,0,0,0,0,0,0,0,0,0,0,0,0,0,0,0,0,0,0,0,0,0,0,0,0,0,0,0,0,0,0,0,0,0,0,0,0,0,0,0,0,0,0,0,0,0,0,0,0,0,0,0,0],"split_type":[0,0,0,0,0,0,0,0,0,0,0,0,0,0,0,0,0,0,0,0,0,0,0,0,0,0,0,0,0,0,0,0,0,0,0,0,0,0,0,0,0,0,0,0,0,0,0,0,0,0,0,0,0,0,0,0,0,0,0,0,0,0,0,0,0,0,0,0,0,0,0,0,0,0,0,0,0,0,0,0,0,0,0,0,0,0,0,0,0,0,0,0,0,0,0,0,0,0,0,0,0,0,0,0,0,0,0,0,0,0,0,0,0,0,0,0,0,0,0,0,0,0,0],"sum_hessian":[9.9216E4,6.1513E4,3.7703E4,1.525E4,4.6263E4,2.4298E4,1.3405E4,1.3836E4,1.414E3,6.44E2,4.5619E4,1.2012E4,1.2286E4,3.352E3,1.0053E4,5.147E3,8.689E3,1.77E2,1.237E3,5.4E1,5.9E2,1.2871E4,3.2748E4,9.94E3,2.072E3,2.95E2,1.1991E4,3.23E2,3.029E3,9.31E3,7.43E2,2.091E3,3.056E3,1.214E3,7.475E3,9E1,8.7E1,4.55E2,7.82E2,6E0,4.8E1,5.41E2,4.9E1,8.887E3,3.984E3,9.38E2,3.181E4,6.04E2,9.336E3,1.545E3,5.27E2,2.69E2,2.6E1,8.639E3,3.352E3,2.13E2,1.1E2,3.98E2,2.631E3,3.872E3,5.438E3,4.19E2,3.24E2,2.055E3,3.6E1,1.58E2,2.898E3,3.6E1,1.178E3,6.724E3,7.51E2,1.1E1,7.9E1,7.4E1,1.3E1,4.07E2,4.8E1,7.04E2,7.8E1,4.18E2,1.23E2,3E1,1.9E1,1.563E3,7.324E3,2.837E3,1.147E3,4.01E2,5.37E2,6.572E3,2.5238E4,3.76E2,2.28E2,8.246E3,1.09E3,4.68E2,1.077E3,4.31E2,9.6E1,2.4E2,2.9E1,2E1,6E0,2.93E2,8.346E3,4.31E2,2.921E3,8E0,2.05E2,6.8E1,4.2E1,2.27E2,1.71E2,1.37E2,2.494E3,3.444E3,4.28E2,4.3E2,5.008E3,2.87E2,1.32E2,2.7E2,5.4E1],"tree_param":{"num_deleted":"0","num_feature":"52","num_nodes":"123","size_leaf_vector":"0"}},{"base_weights":[1.9940019E2,1.7361139E2,2.7980597E2,3.099795E2,1.6311386E2,4.14385E2,2.2737633E2,2.340345E2,3.7257016E2,1.598859E2,5.6717676E2,5.0544592E2,3.528585E2,3.4669583E2,1.8604958E2,2.1442036E2,4.1928168E2,1.7289035E2,4.0456183E2,3.153252E1,1.6654643E2,1.0430319E3,4.5297852E2,4.700487E2,7.0459064E2,2.942883E2,4.6373672E2,2.9040994E2,5.203847E2,3.882597E2,1.640423E2,8.174212E1,2.4775949E2,5.38584E2,9.0782455E1,1.1321663E2,2.998084E2,2.6676062E2,4.5060803E2,9.094106E0,8.649353E2,1.522476E2,2.65518E2,6.5117E2,1.5047552E3,2.4656361E2,6.321522E2,4.3490213E2,6.500416E2,9.1830145E2,5.49254E2,2.764693E2,8.378406E2,4.236095E2,6.746629E2,2.479184E2,4.643799E2,9.936313E2,5.0696674E2,7.447236E2,3.1598587E2,1.5374298E2,4.9372336E2,4.1545615E2,1.0634061E1,1.22052086E2,2.9376114E2,6.4706506E2,2.24627E2,3.0022165E2,-3.145225E1,-7.965569E1,1.5610826E2,2.3289088E2,4.7839386E2,4.2099283E2,1.7202339E2,4.1933118E2,6.988383E2,-1.4058951E1,2.3527242E2,-2.2481775E2,1.418871E3,1.8136922E2,1.25379265E2,1.2023836E2,2.95032E2,8.0323065E2,5.141828E1,8.4866077E2,1.6854344E3,1.8968E2,4.0398062E2,3.974392E2,7.489292E2,2.1581488E2,4.6607068E2,7.0247034E2,1.3365625E2,1.0512247E3,7.2456024E2,4.1857202E2,6.7708624E2,2.533468E2,4.8311078E2,6.776581E2,1.168869E3,5.2863495E2,3.44627E2,7.857958E1,7.051029E2,1.5083932E2,2.9091864E2,8.454771E2,4.2761972E2,4.0469806E2,5.533327E2,8.897004E2,3.2526755E2,8.663959E0,3.5139935E2,2.6905133E2,1.2524604E2,2.5339317E2,6.1427563E2],"categories":[],"categories_nodes":[],"categories_segments":[],"categories_sizes":[],"default_left":[1,1,1,1,1,1,1,1,1,1,1,1,1,1,1,1,1,1,1,1,1,1,1,1,1,1,1,1,1,1,1,1,1,1,1,1,1,1,1,1,1,1,1,1,1,1,1,1,1,1,1,1,1,1,1,1,1,0,1,1,1,1,1,0,0,0,0,0,0,0,0,0,0,0,0,0,0,0,0,0,0,0,0,0,0,0,0,0,0,0,0,0,0,0,0,0,0,0,0,0,0,0,0,0,0,0,0,0,0,0,0,0,0,0,0,0,0,0,0,0,0,0,0,0,0],"id":9,"left_children":[1,3,5,7,9,11,13,15,17,19,21,23,25,27,29,31,33,35,37,39,41,43,45,47,49,51,53,55,57,59,61,63,65,67,69,71,73,75,77,79,81,83,85,87,89,91,93,95,97,99,101,103,105,107,109,111,113,-1,115,117,119,121,123,-1,-1,-1,-1,-1,-1,-1,-1,-1,-1,-1,-1,-1,-1,-1,-1,-1,-1,-1,-1,-1,-1,-1,-1,-1,-1,-1,-1,-1,-1,-1,-1,-1,-1,-1,-1,-1,-1,-1,-1,-1,-1,-1,-1,-1,-1,-1,-1,-1,-1,-1,-1,-1,-1,-1,-1,-1,-1,-1,-1,-1,-1],"loss_changes":[2.0565811E8,1.0746522E8,1.6987891E8,2.5410176E7,9.085939E7,3.766208E7,8.541178E7,8.707304E6,1.8692128E7,5.9137024E7,2.9648736E7,1.8909184E7,2.60408E7,4.343773E7,5.7226784E7,9.667552E6,8.973024E6,3.021982E6,1.5946528E7,6.3759868E7,9.303706E7,1.8598992E7,1.6341144E7,1.4384448E7,1.3211952E7,2.5346448E7,1.1538112E7,2.4775296E7,6.541376E6,3.2326656E7,3.933808E7,1.0444704E7,1.0080616E7,5.605968E6,1.6337564E6,2.317302E6,1.415844E6,9.198104E6,1.4486656E7,1.7447508E7,5.4237932E7,4.4934016E7,3.553875E7,5.20603E6,4.859736E6,1.763679E6,6.27676E6,1.3100288E7,1.005176E7,3.895056E6,3.736832E6,1.2081456E7,3.882608E6,9.53856E6,3.900296E6,1.1239216E7,8.953296E6,0E0,4.827616E6,1.2653752E7,1.1397952E7,3.6959504E7,1.0013736E7,0E0,0E0,0E0,0E0,0E0,0E0,0E0,0E0,0E0,0E0,0E0,0E0,0E0,0E0,0E0,0E0,0E0,0E0,0E0,0E0,0E0,0E0,0E0,0E0,0E0,0E0,0E0,0E0,0E0,0E0,0E0,0E0,0E0,0E0,0E0,0E0,0E0,0E0,0E0,0E0,0E0,0E0,0E0,0E0,0E0,0E0,0E0,0E0,0E0,0E0,0E0,0E0,0E0,0E0,0E0,0E0,0E0,0E0,0E0,0E0,0E0,0E0],"parents":[2147483647,0,0,1,1,2,2,3,3,4,4,5,5,6,6,7,7,8,8,9,9,10,10,11,11,12,12,13,13,14,14,15,15,16,16,17,17,18,18,19,19,20,20,21,21,22,22,23,23,24,24,25,25,26,26,27,27,28,28,29,29,30,30,31,31,32,32,33,33,34,34,35,35,36,36,37,37,38,38,39,39,40,40,41,41,42,42,43,43,44,44,45,45,46,46,47,47,48,48,49,49,50,50,51,51,52,52,53,53,54,54,55,55,56,56,58,58,59,59,60,60,61,61,62,62],"right_children":[2,4,6,8,10,12,14,16,18,20,22,24,26,28,30,32,34,36,38,40,42,44,46,48,50,52,54,56,58,60,62,64,66,68,70,72,74,76,78,80,82,84,86,88,90,92,94,96,98,100,102,104,106,108,110,112,114,-1,116,118,120,122,124,-1,-1,-1,-1,-1,-1,-1,-1,-1,-1,-1,-1,-1,-1,-1,-1,-1,-1,-1,-1,-1,-1,-1,-1,-1,-1,-1,-1,-1,-1,-1,-1,-1,-1,-1,-1,-1,-1,-1,-1,-1,-1,-1,-1,-1,-1,-1,-1,-1,-1,-1,-1,-1,-1,-1,-1,-1,-1,-1,-1,-1,-1],"split_conditions":[9.4033176E-1,-1.2339127E0,-2.548467E-1,-3.7553188E-1,3.0334787E0,5E-1,5E-1,1.9783702E0,-8.934835E-1,-1.5350072E0,-1.389399E0,-3.621647E-1,1.4499605E0,2.676741E-1,-5.422194E-1,-1.2437909E0,3.0334787E0,4.9982992E-1,-1.1709869E0,5E-1,8.1703687E-1,-9.831991E-1,2.6079993E0,1.5227644E0,2.5957677E-1,1.2803093E0,1.4281127E0,5E-1,5E-1,-3.9348894E-1,5E-1,-1.4370222E0,-7.2524405E-1,-1.311846E0,5E-1,-1.0787559E0,5E-1,-9.904506E-1,1.9783702E0,1.6649204E0,5E-1,-1.918476E-1,-8.898417E-1,-4.048556E-1,3.8132757E-1,-9.904506E-1,-9.677379E-1,-2.0814526E-1,1.2003012E0,6.5308774E-1,-2.8037512E-1,1.3926091E0,1.3877794E-1,2.7806306E-1,-7.5451195E-1,-3.7553188E-1,5E-1,2.980894E2,-3.7553188E-1,5E-1,-1.1759921E0,5E-1,-6.103766E-1,1.2463685E2,3.1902184E0,3.6615627E1,8.812834E1,1.9411952E2,6.73881E1,9.00665E1,-9.435676E0,-2.389671E1,4.683248E1,6.986727E1,1.4351816E2,1.2629785E2,5.160702E1,1.25799355E2,2.096515E2,-4.2176857E0,7.0581726E1,-6.744533E1,4.2566132E2,5.4410767E1,3.761378E1,3.607151E1,8.8509605E1,2.4096921E2,1.5425485E1,2.5459824E2,5.0563034E2,5.6904E1,1.2119419E2,1.19231766E2,2.2467877E2,6.474447E1,1.3982121E2,2.107411E2,4.0096878E1,3.1536743E2,2.1736809E2,1.2557161E2,2.0312589E2,7.600404E1,1.4493324E2,2.0329744E2,3.506607E2,1.5859048E2,1.0338811E2,2.3573875E1,2.1153088E2,4.52518E1,8.72756E1,2.5364314E2,1.2828592E2,1.21409424E2,1.6599982E2,2.6691013E2,9.758027E1,2.5991876E0,1.0541981E2,8.07154E1,3.7573814E1,7.601795E1,1.842827E2],"split_indices":[51,39,44,29,25,5,1,25,27,51,51,44,51,27,39,51,25,30,51,4,26,44,27,51,25,50,27,6,19,41,15,50,27,39,1,25,5,31,25,40,5,44,29,31,40,31,44,26,39,29,44,41,29,25,41,29,5,0,29,4,27,2,26,0,0,0,0,0,0,0,0,0,0,0,0,0,0,0,0,0,0,0,0,0,0,0,0,0,0,0,0,0,0,0,0,0,0,0,0,0,0,0,0,0,0,0,0,0,0,0,0,0,0,0,0,0,0,0,0,0,0,0,0,0,0],"split_type":[0,0,0,0,0,0,0,0,0,0,0,0,0,0,0,0,0,0,0,0,0,0,0,0,0,0,0,0,0,0,0,0,0,0,0,0,0,0,0,0,0,0,0,0,0,0,0,0,0,0,0,0,0,0,0,0,0,0,0,0,0,0,0,0,0,0,0,0,0,0,0,0,0,0,0,0,0,0,0,0,0,0,0,0,0,0,0,0,0,0,0,0,0,0,0,0,0,0,0,0,0,0,0,0,0,0,0,0,0,0,0,0,0,0,0,0,0,0,0,0,0,0,0,0,0],"sum_hessian":[9.9216E4,7.5124E4,2.4092E4,5.368E3,6.9756E4,6.753E3,1.7339E4,2.427E3,2.941E3,6.9204E4,5.52E2,2.721E3,4.032E3,4.459E3,1.288E4,2.196E3,2.31E2,4.07E2,2.534E3,3.415E3,6.5789E4,1.06E2,4.46E2,2.312E3,4.09E2,2.64E3,1.392E3,3.369E3,1.09E3,1.263E3,1.1617E4,4.42E2,1.754E3,1.69E2,6.2E1,2.78E2,1.29E2,6.36E2,1.898E3,3.326E3,8.9E1,5.7486E4,8.303E3,5.8E1,4.8E1,2.08E2,2.38E2,1.936E3,3.76E2,1.71E2,2.38E2,2.557E3,8.3E1,1.171E3,2.21E2,2.709E3,6.6E2,2.9E1,1.061E3,2.12E2,1.051E3,1.1266E4,3.51E2,7.7E1,3.65E2,4.71E2,1.283E3,1.25E2,4.4E1,2.3E1,3.9E1,5E1,2.28E2,9.5E1,3.4E1,2.41E2,3.95E2,1.687E3,2.11E2,3.017E3,3.09E2,3E1,5.9E1,2.7583E4,2.9903E4,1.403E3,6.9E3,4.6E1,1.2E1,1.1E1,3.7E1,1.54E2,5.4E1,8E1,1.58E2,2.42E2,1.694E3,3.41E2,3.5E1,1E2,7.1E1,1.19E2,1.19E2,2.301E3,2.56E2,5.7E1,2.6E1,5.01E2,6.7E2,1.1E1,2.1E2,8.33E2,1.876E3,5.7E1,6.03E2,3.33E2,7.28E2,1.57E2,5.5E1,1.09E2,9.42E2,2.231E3,9.035E3,1.18E2,2.33E2],"tree_param":{"num_deleted":"0","num_feature":"52","num_nodes":"125","size_leaf_vector":"0"}},{"base_weights":[1.3963237E2,1.1946746E2,1.8820113E2,2.031637E2,1.0894497E2,2.331642E2,1.4045663E2,4.7774567E2,1.9252142E2,1.0014929E2,2.0017195E2,5.587584E2,2.2637714E2,1.1370361E2,2.2004193E2,7.0641034E2,3.9374268E2,1.11962364E2,2.1864032E2,1.1704694E2,6.1889286E1,1.5468532E2,2.7178082E2,8.1566705E2,4.9928152E2,2.5214322E2,1.4694936E2,1.2874342E2,-1.0818369E1,4.901017E2,1.7032544E2,5.93216E2,8.891166E2,5.3092816E2,2.5652203E2,3.1185498E2,7.9506424E1,5.3100792E1,2.3431523E2,2.5652127E2,1.10570175E2,9.594419E1,3.2080868E1,2.3927419E2,9.430224E1,2.4960161E2,4.4976895E2,7.017636E2,1.0479246E3,6.1861926E2,3.8211322E2,1.8815366E2,2.9545493E2,7.2905075E1,2.1444376E2,1.3865941E2,-7.3525696E1,5.3510834E2,-3.359259E1,6.754132E2,3.9997968E2,4.6143585E2,1.3917279E2,4.1152512E2,6.438858E2,8.076211E2,4.617463E2,1.9259581E2,4.5763046E2,1.7503018E2,6.522524E2,1.1044071E2,-3.3440582E1,-1.8223999E2,1.284196E2,2.0003487E2,3.0537878E2,1.1575615E3,2.4627892E2,2.659764E1,1.18054634E2,-7.783081E1,1.03999596E2,2.3404105E2,2.4121696E1,1.2828766E2,3.2070422E2,1.14441E2,-8.889051E1,2.2622752E2,3.717253E2,5.706139E2,4.3496895E1,2.3187334E2,7.346244E2,7.105044E2,5.237825E2,4.251432E2,5.0272858E1,2.6081107E2,1.1688746E2,6.039698E1,3.160529E2,1.05883E2,-1.3036479E2,3.133542E2,1.5760675E2,2.3892867E2,1.25115036E2,-1.718909E2,3.2889584E2,5.94003E2,1.8424316E2,1.3778203E2,-7.357366E1,5.746785E2,8.8341656E2,7.842682E1,4.47089E2,5.34287E2,2.256761E2,1.726791E2,-8.561225E1],"categories":[],"categories_nodes":[],"categories_segments":[],"categories_sizes":[],"default_left":[1,1,1,1,1,1,1,1,1,1,1,1,1,1,1,1,1,1,1,1,1,1,1,1,1,1,1,1,1,1,1,1,0,1,1,1,1,1,1,1,1,1,1,1,1,1,1,1,0,1,1,1,1,1,1,1,1,1,1,1,1,1,1,0,0,0,0,0,0,0,0,0,0,0,0,0,0,0,0,0,0,0,0,0,0,0,0,0,0,0,0,0,0,0,0,0,0,0,0,0,0,0,0,0,0,0,0,0,0,0,0,0,0,0,0,0,0,0,0,0,0,0,0],"id":10,"left_children":[1,3,5,7,9,11,13,15,17,19,21,23,25,27,29,31,33,35,37,39,41,43,45,47,49,51,53,55,57,59,61,63,-1,65,67,69,71,73,75,77,79,81,83,85,87,89,91,93,-1,95,97,99,101,103,105,107,109,111,113,115,117,119,121,-1,-1,-1,-1,-1,-1,-1,-1,-1,-1,-1,-1,-1,-1,-1,-1,-1,-1,-1,-1,-1,-1,-1,-1,-1,-1,-1,-1,-1,-1,-1,-1,-1,-1,-1,-1,-1,-1,-1,-1,-1,-1,-1,-1,-1,-1,-1,-1,-1,-1,-1,-1,-1,-1,-1,-1,-1,-1,-1,-1],"loss_changes":[9.712474E7,6.169997E7,6.2423296E7,2.2758176E7,4.993216E7,3.2974144E7,3.0009824E7,5.353196E6,1.5809728E7,3.670227E7,1.7766336E7,4.344856E6,2.9985024E7,1.9807168E7,4.755592E7,1.210804E6,3.886346E6,1.1928124E7,1.4725824E7,3.553811E7,1.7652912E7,1.7063584E7,8.26088E6,9.8676E5,3.271804E6,3.0639744E7,1.7942264E7,1.8926496E7,1.4100273E7,8.970744E6,2.7102824E7,2.213E5,0E0,1.734248E6,1.279729E6,1.1842642E7,5.567544E6,8.748621E6,1.2575776E7,1.5842664E7,2.3647232E7,1.1376352E7,1.4890582E7,1.2531328E7,7.224848E6,5.293136E6,1.1423824E7,4.23416E5,0E0,7.68688E5,1.753086E6,2.3121024E7,3.1942784E7,1.1514995E7,1.0500096E7,1.2153744E7,1.7436454E7,8.00277E5,7.4879665E6,3.379888E6,5.563568E6,4.830448E6,2.0430392E7,0E0,0E0,0E0,0E0,0E0,0E0,0E0,0E0,0E0,0E0,0E0,0E0,0E0,0E0,0E0,0E0,0E0,0E0,0E0,0E0,0E0,0E0,0E0,0E0,0E0,0E0,0E0,0E0,0E0,0E0,0E0,0E0,0E0,0E0,0E0,0E0,0E0,0E0,0E0,0E0,0E0,0E0,0E0,0E0,0E0,0E0,0E0,0E0,0E0,0E0,0E0,0E0,0E0,0E0,0E0,0E0,0E0,0E0,0E0,0E0],"parents":[2147483647,0,0,1,1,2,2,3,3,4,4,5,5,6,6,7,7,8,8,9,9,10,10,11,11,12,12,13,13,14,14,15,15,16,16,17,17,18,18,19,19,20,20,21,21,22,22,23,23,24,24,25,25,26,26,27,27,28,28,29,29,30,30,31,31,33,33,34,34,35,35,36,36,37,37,38,38,39,39,40,40,41,41,42,42,43,43,44,44,45,45,46,46,47,47,49,49,50,50,51,51,52,52,53,53,54,54,55,55,56,56,57,57,58,58,59,59,60,60,61,61,62,62],"right_children":[2,4,6,8,10,12,14,16,18,20,22,24,26,28,30,32,34,36,38,40,42,44,46,48,50,52,54,56,58,60,62,64,-1,66,68,70,72,74,76,78,80,82,84,86,88,90,92,94,-1,96,98,100,102,104,106,108,110,112,114,116,118,120,122,-1,-1,-1,-1,-1,-1,-1,-1,-1,-1,-1,-1,-1,-1,-1,-1,-1,-1,-1,-1,-1,-1,-1,-1,-1,-1,-1,-1,-1,-1,-1,-1,-1,-1,-1,-1,-1,-1,-1,-1,-1,-1,-1,-1,-1,-1,-1,-1,-1,-1,-1,-1,-1,-1,-1,-1,-1,-1,-1,-1],"split_conditions":[1.8222393E-1,-1.2537574E0,-4.0166008E-1,-2.1676104E0,1.6539568E0,2.975769E-1,5E-1,-2.3545349E0,-8.4423584E-1,5.127113E-1,5E-1,5E-1,2.7639937E-2,2.0009972E-1,5E-1,2.6103598E-1,5E-1,-1.3623345E0,-1.0558349E0,-1.2375386E0,-5.5650866E-1,1.9862671E0,5E-1,2.8798856E-2,-9.629859E-1,-8.482319E-1,-5.588498E-1,1.3465406E0,2.975769E-1,-5.142095E-1,-1.1464713E0,-1.0283464E0,2.66735E2,-5.588498E-1,-3.1030613E-1,-4.048556E-1,1.5144457E0,2.312206E-1,5E-1,-1.064141E0,-1.2157754E0,5.5083627E-1,-1.599075E0,-5.0620794E-1,1.3716376E0,8.2172775E-1,1.1962073E0,-1.0595858E0,3.1437738E2,1.6289882E-1,1.7261517E0,-7.8365684E-1,-1.3382537E0,8.631992E-1,-4.8529005E-1,-1.0651234E0,6.5327835E-1,-5.588498E-1,-4.6599978E-1,-4.048556E-1,-1.6094413E-1,8.5664034E-2,1.4780703E0,1.2345754E2,1.9316576E2,2.4228633E2,1.385239E2,5.7778744E1,1.3728914E2,5.2509056E1,1.9567572E2,3.3132214E1,-1.0032175E1,-5.4672E1,3.8525883E1,6.0010464E1,9.161364E1,3.4726846E2,7.3883675E1,7.979292E0,3.5416393E1,-2.3349243E1,3.119988E1,7.021232E1,7.2365093E0,3.8486298E1,9.621127E1,3.4332302E1,-2.6667154E1,6.786826E1,1.115176E2,1.7118417E2,1.3049069E1,6.9562004E1,2.2038733E2,2.1315132E2,1.5713475E2,1.2754296E2,1.5081858E1,7.8243324E1,3.506624E1,1.8119095E1,9.481587E1,3.1764902E1,-3.910944E1,9.4006256E1,4.728203E1,7.1678604E1,3.753451E1,-5.1567272E1,9.8668755E1,1.782009E2,5.5272953E1,4.133461E1,-2.20721E1,1.7240356E2,2.65025E2,2.3528046E1,1.3412671E2,1.602861E2,6.7702835E1,5.180373E1,-2.5683676E1],"split_indices":[28,38,39,38,38,28,0,38,43,44,10,5,43,38,14,40,14,43,48,39,45,38,17,40,38,48,32,45,28,43,45,24,0,32,43,31,45,32,14,24,44,44,46,28,39,45,46,39,0,40,46,44,44,46,38,46,43,32,45,31,39,46,24,0,0,0,0,0,0,0,0,0,0,0,0,0,0,0,0,0,0,0,0,0,0,0,0,0,0,0,0,0,0,0,0,0,0,0,0,0,0,0,0,0,0,0,0,0,0,0,0,0,0,0,0,0,0,0,0,0,0,0,0],"split_type":[0,0,0,0,0,0,0,0,0,0,0,0,0,0,0,0,0,0,0,0,0,0,0,0,0,0,0,0,0,0,0,0,0,0,0,0,0,0,0,0,0,0,0,0,0,0,0,0,0,0,0,0,0,0,0,0,0,0,0,0,0,0,0,0,0,0,0,0,0,0,0,0,0,0,0,0,0,0,0,0,0,0,0,0,0,0,0,0,0,0,0,0,0,0,0,0,0,0,0,0,0,0,0,0,0,0,0,0,0,0,0,0,0,0,0,0,0,0,0,0,0,0,0],"sum_hessian":[9.9216E4,7.0111E4,2.9105E4,7.828E3,6.2283E4,1.4987E4,1.4118E4,2.91E2,7.537E3,5.6808E4,5.475E3,3.05E2,1.4682E4,1.0568E4,3.55E3,7.7E1,2.14E2,1.847E3,5.69E3,3.9402E4,1.7406E4,3.35E3,2.125E3,5.6E1,2.49E2,1.1084E4,3.598E3,9.43E3,1.138E3,5.51E2,2.999E3,4.9E1,2.8E1,1.06E2,1.08E2,2.57E2,1.59E3,4.93E2,5.197E3,1.747E3,3.7655E4,8.122E3,9.284E3,1.394E3,1.956E3,1.891E3,2.34E2,3.9E1,1.7E1,1.22E2,1.27E2,4.476E3,6.608E3,1.717E3,1.881E3,8.99E3,4.4E2,4.5E1,1.093E3,1.79E2,3.72E2,2.89E2,2.71E3,1.2E1,3.7E1,2E1,8.6E1,8.3E1,2.5E1,1.84E2,7.3E1,1.249E3,3.41E2,1.19E2,3.74E2,3.508E3,1.689E3,1.9E1,1.728E3,3.083E3,3.4572E4,3.59E2,7.763E3,3.51E2,8.933E3,5.91E2,8.03E2,1.763E3,1.93E2,1.589E3,3.02E2,1.8E2,5.4E1,3E0,3.6E1,6E1,6.2E1,1.12E2,1.5E1,2.215E3,2.261E3,5.33E2,6.075E3,1.478E3,2.39E2,6.85E2,1.196E3,1.068E3,7.922E3,3.54E2,8.6E1,3.8E1,7E0,2.06E2,8.87E2,1.22E2,5.7E1,4.8E1,3.24E2,2.2E2,6.9E1,2.359E3,3.51E2],"tree_param":{"num_deleted":"0","num_feature":"52","num_nodes":"123","size_leaf_vector":"0"}},{"base_weights":[9.7780624E1,6.937087E1,1.441271E2,2.8154726E1,8.5857925E1,1.27862114E2,2.6089606E2,6.494336E1,9.111686E0,2.9775328E1,9.871159E1,1.8603336E2,1.0465017E2,2.1007756E2,3.3833188E2,-2.4430067E1,1.283274E2,-1.1550633E1,7.524609E1,3.5392392E2,2.3616362E1,1.7903143E2,7.505119E1,1.3441098E2,2.5857132E2,2.2834633E2,9.393779E1,2.3303035E2,4.844804E1,3.5143506E2,-1.05150475E2,-7.777517E1,2.107479E2,1.3190031E2,-4.0073883E2,7.246658E2,-1.4276142E1,1.8483553E2,4.477078E1,6.108959E2,2.5922803E2,7.147027E1,-1.444609E1,1.3180113E2,2.2467259E2,5.799651E1,1.6728346E2,2.4784938E2,9.694083E1,2.0582156E2,4.868967E2,4.7043278E1,2.621798E2,1.970045E1,1.053464E2,5.3478345E2,2.1903186E2,3.4019397E2,1.17861805E1,3.893238E2,2.0578935E2,-2.106402E2,3.7352292E2,1.8157698E2,-9.5646614E1,2.6745314E1,1.0764941E3,2.066475E2,1.07176956E2,-6.0173206E2,-6.293187E1,1.1525244E3,1.4945735E2,2.3901016E1,-3.9912445E1,2.0051422E2,-5.541191E2,2.541468E1,2.2640752E2,3.595906E2,6.389185E2,5.530787E2,1.7980502E2,9.133213E1,-9.854763E1,-1.8942984E1,6.188264E2,1.820611E2,7.514435E1,1.1168614E1,2.337425E2,5.8245807E0,8.681243E1,2.4454301E2,6.53531E1,-3.6818436E2,2.5672192E2,-4.734578E0,1.3617926E2,1.8945094E2,6.82653E2,1.1548672E3,4.48653E2,2.5423033E2,6.275436E0,7.912161E2,2.5066728E2,1.2522572E2,-1.0059937E1,9.33296E1,1.9171793E2,2.8796652E2,5.956039E2,4.6890286E2,2.0874051E2,5.348803E2,2.2737762E2,3.51182E1,-2.4488779E2,3.2490686E2,4.8208118E2,-4.15532E2,2.2397656E2,3.9616066E1,-3.9337933E2,9.307578E2,-8.5711174E1],"categories":[],"categories_nodes":[],"categories_segments":[],"categories_sizes":[],"default_left":[1,1,1,1,1,1,1,1,1,1,1,1,1,1,1,1,1,1,1,1,1,1,1,1,1,1,1,1,1,1,1,1,1,1,1,1,1,1,1,1,1,1,1,1,1,1,1,1,1,1,1,1,1,1,1,1,1,1,1,1,1,1,1,0,0,0,0,0,0,0,0,0,0,0,0,0,0,0,0,0,0,0,0,0,0,0,0,0,0,0,0,0,0,0,0,0,0,0,0,0,0,0,0,0,0,0,0,0,0,0,0,0,0,0,0,0,0,0,0,0,0,0,0,0,0,0,0],"id":11,"left_children":[1,3,5,7,9,11,13,15,17,19,21,23,25,27,29,31,33,35,37,39,41,43,45,47,49,51,53,55,57,59,61,63,65,67,69,71,73,75,77,79,81,83,85,87,89,91,93,95,97,99,101,103,105,107,109,111,113,115,117,119,121,123,125,-1,-1,-1,-1,-1,-1,-1,-1,-1,-1,-1,-1,-1,-1,-1,-1,-1,-1,-1,-1,-1,-1,-1,-1,-1,-1,-1,-1,-1,-1,-1,-1,-1,-1,-1,-1,-1,-1,-1,-1,-1,-1,-1,-1,-1,-1,-1,-1,-1,-1,-1,-1,-1,-1,-1,-1,-1,-1,-1,-1,-1,-1,-1,-1],"loss_changes":[1.3060755E8,4.178563E7,7.154765E7,1.2305657E7,3.1654816E7,4.4644736E7,1.8040128E7,3.396552E7,1.583939E7,1.6310448E7,6.788685E7,3.5277664E7,3.1301744E7,1.0291136E7,1.0646192E7,3.11838E7,6.618656E6,1.7628908E7,9.184679E6,3.54001E6,1.4656034E7,1.7473472E7,4.339981E7,2.3392192E7,4.711797E7,1.1516776E7,1.8425776E7,1.0157808E7,3.6715742E6,9.67672E6,2.6576035E6,9.393528E6,7.303709E7,6.392364E6,1.493192E6,7.747394E6,8.609582E6,6.946118E6,7.562717E6,7.1966E4,2.4948505E6,1.2039242E7,1.2685497E7,1.134912E7,7.973488E6,3.5022496E7,3.3877296E7,7.50364E6,1.6562556E7,2.4723776E7,1.8385376E7,2.4798448E6,9.46288E6,9.129344E6,1.9546208E7,1.436846E6,5.871576E6,7.02609E5,1.8309568E6,8.237296E6,4.165622E6,2.033742E6,2.5393632E6,0E0,0E0,0E0,0E0,0E0,0E0,0E0,0E0,0E0,0E0,0E0,0E0,0E0,0E0,0E0,0E0,0E0,0E0,0E0,0E0,0E0,0E0,0E0,0E0,0E0,0E0,0E0,0E0,0E0,0E0,0E0,0E0,0E0,0E0,0E0,0E0,0E0,0E0,0E0,0E0,0E0,0E0,0E0,0E0,0E0,0E0,0E0,0E0,0E0,0E0,0E0,0E0,0E0,0E0,0E0,0E0,0E0,0E0,0E0,0E0,0E0,0E0,0E0,0E0],"parents":[2147483647,0,0,1,1,2,2,3,3,4,4,5,5,6,6,7,7,8,8,9,9,10,10,11,11,12,12,13,13,14,14,15,15,16,16,17,17,18,18,19,19,20,20,21,21,22,22,23,23,24,24,25,25,26,26,27,27,28,28,29,29,30,30,31,31,32,32,33,33,34,34,35,35,36,36,37,37,38,38,39,39,40,40,41,41,42,42,43,43,44,44,45,45,46,46,47,47,48,48,49,49,50,50,51,51,52,52,53,53,54,54,55,55,56,56,57,57,58,58,59,59,60,60,61,61,62,62],"right_children":[2,4,6,8,10,12,14,16,18,20,22,24,26,28,30,32,34,36,38,40,42,44,46,48,50,52,54,56,58,60,62,64,66,68,70,72,74,76,78,80,82,84,86,88,90,92,94,96,98,100,102,104,106,108,110,112,114,116,118,120,122,124,126,-1,-1,-1,-1,-1,-1,-1,-1,-1,-1,-1,-1,-1,-1,-1,-1,-1,-1,-1,-1,-1,-1,-1,-1,-1,-1,-1,-1,-1,-1,-1,-1,-1,-1,-1,-1,-1,-1,-1,-1,-1,-1,-1,-1,-1,-1,-1,-1,-1,-1,-1,-1,-1,-1,-1,-1,-1,-1,-1,-1,-1,-1,-1,-1],"split_conditions":[1.3877794E-1,-8.898417E-1,1.4499605E0,-3.3990434E-1,-1.0253787E0,-8.2640713E-1,-5.752919E-1,-1.0253787E0,1.0308752E0,-2.2091491E0,-3.3990434E-1,6.6682674E-2,-1.1627777E0,1.594458E0,5E-1,5E-1,3.609215E0,-1.6078115E0,-8.7140393E-1,-2.3753042E0,2.8804725E-1,-4.2954487E-1,1.7875277E-1,-1.0482347E0,1.8945903E-1,-8.934835E-1,-1.0322535E0,-1.2025523E0,-8.514029E-1,9.5408344E-1,4.767566E0,-1.2105696E0,-1.0876023E0,-7.91E-1,9.955002E-1,-6.2984264E-1,-2.3805305E-1,3.1078138E0,2.8509495E-1,-4.602253E-1,-7.5918144E-1,9.675932E-1,4.468869E0,-1.1291411E0,-9.525746E-1,-1.517296E-1,5.9568065E-1,-1.6078115E0,-1.3165951E0,1.5128721E0,-8.835614E-1,-2.568268E-1,-1.5494249E0,-2.9836556E-1,1.3765032E0,4.9982992E-1,-1.5821239E0,-2.9836553E-1,1.6817074E0,1.5955687E0,9.663919E-1,1.6817074E0,-6.99023E-2,5.4473095E1,-2.8693985E1,8.023595E0,3.2294824E2,6.1994255E1,3.2153088E1,-1.8051962E2,-1.8879562E1,3.4575732E2,4.4837208E1,7.1703053E0,-1.1973734E1,6.015427E1,-1.6623573E2,7.6244044E0,6.792226E1,1.0787719E2,1.9167557E2,1.6592361E2,5.394151E1,2.7399641E1,-2.9564291E1,-5.682895E0,1.8564793E2,5.4618332E1,2.2543304E1,3.3505845E0,7.012275E1,1.7473743E0,2.604373E1,7.336291E1,1.9605932E1,-1.10455315E2,7.701658E1,-1.4203734E0,4.085378E1,5.6835285E1,2.0479591E2,3.4646017E2,1.3459592E2,7.6269104E1,1.8826308E0,2.3736485E2,7.520019E1,3.756772E1,-3.017981E0,2.799888E1,5.751538E1,8.638996E1,1.7868117E2,1.4067087E2,6.2622154E1,1.604641E2,6.821329E1,1.05354595E1,-7.346634E1,9.747206E1,1.4462436E2,-1.2465961E2,6.719297E1,1.188482E1,-1.180138E2,2.7922736E2,-2.5713354E1],"split_indices":[29,29,51,38,51,42,48,51,38,38,38,51,39,41,3,5,40,51,42,38,45,23,27,47,44,27,26,39,44,43,29,45,38,44,42,44,44,38,51,43,41,43,45,38,51,51,43,51,51,47,40,38,45,38,42,30,43,38,29,51,43,29,38,0,0,0,0,0,0,0,0,0,0,0,0,0,0,0,0,0,0,0,0,0,0,0,0,0,0,0,0,0,0,0,0,0,0,0,0,0,0,0,0,0,0,0,0,0,0,0,0,0,0,0,0,0,0,0,0,0,0,0,0,0,0,0,0],"split_type":[0,0,0,0,0,0,0,0,0,0,0,0,0,0,0,0,0,0,0,0,0,0,0,0,0,0,0,0,0,0,0,0,0,0,0,0,0,0,0,0,0,0,0,0,0,0,0,0,0,0,0,0,0,0,0,0,0,0,0,0,0,0,0,0,0,0,0,0,0,0,0,0,0,0,0,0,0,0,0,0,0,0,0,0,0,0,0,0,0,0,0,0,0,0,0,0,0,0,0,0,0,0,0,0,0,0,0,0,0,0,0,0,0,0,0,0,0,0,0,0,0,0,0,0,0,0,0],"sum_hessian":[9.9216E4,6.1513E4,3.7703E4,1.7578E4,4.3935E4,3.3095E4,4.608E3,5.993E3,1.1585E4,8.194E3,3.5741E4,9.437E3,2.3658E4,2.784E3,1.824E3,2.486E3,3.507E3,8.826E3,2.759E3,1.52E2,8.042E3,8.131E3,2.761E4,5.515E3,3.922E3,1.884E3,2.1774E4,2.437E3,3.47E2,1.772E3,5.2E1,2.027E3,4.59E2,3.484E3,2.3E1,3.2E1,8.794E3,5.99E2,2.16E3,4E1,1.12E2,3.564E3,4.478E3,3.998E3,4.133E3,2.3303E4,4.307E3,1.368E3,4.147E3,3.187E3,7.35E2,2.97E2,1.587E3,2.902E3,1.8872E4,1.07E2,2.33E3,3.8E1,3.09E2,1.405E3,3.67E2,4.3E1,9E0,1.3E2,1.897E3,3.79E2,8E1,8.64E2,2.62E3,1.4E1,9E0,1.8E1,1.4E1,3.531E3,5.263E3,5.87E2,1.2E1,1.953E3,2.07E2,5E0,3.5E1,2.3E1,8.9E1,3.192E3,3.72E2,4.447E3,3.1E1,2.117E3,1.881E3,1.69E2,3.964E3,8.293E3,1.501E4,2.449E3,1.858E3,1.9E1,1.349E3,1.154E3,2.993E3,3.082E3,1.05E2,3.9E1,6.96E2,4.8E1,2.49E2,3.3E1,1.554E3,6.39E2,2.263E3,1.6569E4,2.303E3,2.2E1,8.5E1,9.1E1,2.239E3,1.3E1,2.5E1,2.84E2,2.5E1,8.31E2,5.74E2,1E1,3.57E2,1.8E1,2.5E1,4E0,5E0],"tree_param":{"num_deleted":"0","num_feature":"52","num_nodes":"127","size_leaf_vector":"0"}},{"base_weights":[6.8474495E1,3.6026943E1,9.097381E1,2.9034822E1,1.0757471E2,1.2569786E2,7.2582214E1,1.1429562E2,2.244175E1,7.5296135E1,1.8469067E2,5.7833076E1,1.3951569E2,6.033214E1,1.3941747E2,1.7288977E2,3.1707092E1,5.4117737E1,5.4265685E0,8.728563E1,-9.706731E1,1.910985E2,-8.687487E2,1.3121158E2,3.6837414E1,1.2807559E2,2.2852304E2,7.824858E1,1.4030888E1,2.0910338E2,1.1430704E2,2.4024023E2,1.16014694E2,1.4275818E2,-2.843249E1,4.435998E1,2.2019019E2,-4.843175E0,4.04336E1,7.1008965E1,2.206882E2,2.867605E2,-1.6071594E2,2.5447649E2,8.058563E1,9.993391E1,6.720506E2,1.2667138E2,1.5919656E1,1.3881654E2,-2.241986E1,2.3399777E2,-7.727776E2,5.7860523E1,1.3720486E2,9.888268E1,-1.1114382E1,3.2519333E2,1.5984764E2,1.0349489E2,4.1192554E2,4.2931726E2,2.1334097E2,2.3542503E1,1.8732185E2,1.6349915E2,-2.1034868E2,-5.4741863E1,3.5765656E2,3.7249695E1,2.1132115E2,1.3951306E2,6.9455707E2,1.2138113E1,-5.789416E1,-4.615214E1,9.440043E1,5.859944E1,2.1544376E2,6.989539E2,1.5611708E2,3.4875696E2,-0E0,-3.251178E2,2.889806E0,2.6746445E2,-7.705939E2,3.559056E2,3.423872E1,1.1696501E2,-1.5808311E2,-1.3737526E1,7.4878046E2,3.760409E1,2.3077846E2,3.6367172E1,-9.791334E1,1.3330821E2,3.0043054E2,3.392037E0,-2.9168716E2,2.1764407E2,4.8849518E2,-4.1919327E2,-8.77169E2,7.617765E1,-2.340506E1,1.4176302E2,-7.550891E2,-6.5337326E1,1.2663922E2,1.0046244E0,-2.5574E2,1.2775111E2,4.6642157E2,1.4617578E2,5.343655E2,3.4337595E2,9.6334015E1,2.656572E2,5.7041376E2],"categories":[],"categories_nodes":[],"categories_segments":[],"categories_sizes":[],"default_left":[1,1,1,1,1,1,1,1,1,1,1,1,1,1,1,1,1,1,1,1,1,1,0,1,1,1,1,1,1,1,1,1,1,1,1,1,1,1,1,1,1,1,1,1,1,1,1,1,1,1,1,1,1,1,1,1,1,1,1,1,1,0,0,0,0,0,0,0,0,0,0,0,0,0,0,0,0,0,0,0,0,0,0,0,0,0,0,0,0,0,0,0,0,0,0,0,0,0,0,0,0,0,0,0,0,0,0,0,0,0,0,0,0,0,0,0,0,0,0,0,0],"id":12,"left_children":[1,3,5,7,9,11,13,15,17,19,21,23,25,27,29,31,33,35,37,39,41,43,-1,45,47,49,51,53,55,57,59,61,63,65,67,69,71,73,75,77,79,81,83,85,87,89,91,93,95,97,99,101,103,105,107,109,111,113,115,117,119,-1,-1,-1,-1,-1,-1,-1,-1,-1,-1,-1,-1,-1,-1,-1,-1,-1,-1,-1,-1,-1,-1,-1,-1,-1,-1,-1,-1,-1,-1,-1,-1,-1,-1,-1,-1,-1,-1,-1,-1,-1,-1,-1,-1,-1,-1,-1,-1,-1,-1,-1,-1,-1,-1,-1,-1,-1,-1,-1,-1],"loss_changes":[7.241603E7,2.0307916E7,3.738803E7,2.078936E7,8.962416E6,1.8993568E7,3.133368E7,1.2823076E7,1.8511452E7,5.272727E6,7.175984E6,5.267335E6,1.7103104E7,2.6843864E7,1.0330344E7,5.892332E6,7.384577E6,1.9417148E7,8.041446E6,5.137982E6,4.0438675E6,7.371396E6,0E0,1.2776661E7,5.001835E6,2.4154608E7,1.0517888E7,2.8027264E7,1.9287044E7,8.894528E6,1.395836E7,3.493704E6,5.534039E6,2.85261E6,7.2380165E6,1.3428254E7,2.5325586E7,1.5575081E7,2.3714346E7,3.77488E6,7.832899E6,4.3539888E5,3.869488E6,8.973424E6,4.891231E6,3.172461E6,2.27149E6,4.631848E6,5.0411445E6,1.2340768E7,6.946651E6,7.810664E6,8.02E4,2.582514E7,2.4353136E7,9.429738E6,2.0689576E7,1.2909588E7,5.536272E6,7.16604E6,3.37123E6,0E0,0E0,0E0,0E0,0E0,0E0,0E0,0E0,0E0,0E0,0E0,0E0,0E0,0E0,0E0,0E0,0E0,0E0,0E0,0E0,0E0,0E0,0E0,0E0,0E0,0E0,0E0,0E0,0E0,0E0,0E0,0E0,0E0,0E0,0E0,0E0,0E0,0E0,0E0,0E0,0E0,0E0,0E0,0E0,0E0,0E0,0E0,0E0,0E0,0E0,0E0,0E0,0E0,0E0,0E0,0E0,0E0,0E0,0E0,0E0],"parents":[2147483647,0,0,1,1,2,2,3,3,4,4,5,5,6,6,7,7,8,8,9,9,10,10,11,11,12,12,13,13,14,14,15,15,16,16,17,17,18,18,19,19,20,20,21,21,23,23,24,24,25,25,26,26,27,27,28,28,29,29,30,30,31,31,32,32,33,33,34,34,35,35,36,36,37,37,38,38,39,39,40,40,41,41,42,42,43,43,44,44,45,45,46,46,47,47,48,48,49,49,50,50,51,51,52,52,53,53,54,54,55,55,56,56,57,57,58,58,59,59,60,60],"right_children":[2,4,6,8,10,12,14,16,18,20,22,24,26,28,30,32,34,36,38,40,42,44,-1,46,48,50,52,54,56,58,60,62,64,66,68,70,72,74,76,78,80,82,84,86,88,90,92,94,96,98,100,102,104,106,108,110,112,114,116,118,120,-1,-1,-1,-1,-1,-1,-1,-1,-1,-1,-1,-1,-1,-1,-1,-1,-1,-1,-1,-1,-1,-1,-1,-1,-1,-1,-1,-1,-1,-1,-1,-1,-1,-1,-1,-1,-1,-1,-1,-1,-1,-1,-1,-1,-1,-1,-1,-1,-1,-1,-1,-1,-1,-1,-1,-1,-1,-1,-1,-1],"split_conditions":[-3.7553188E-1,1.6124179E0,-5.2440965E-1,-1.3783736E0,-3.218346E-1,-8.58634E-1,1.1673976E0,8.091896E-1,-5.726354E-1,-1.15561806E-1,3.3985853E0,-6.2576497E-1,5E-1,5.553988E-1,-4.028921E-1,-3.7630022E-1,1.3686046E-1,5E-1,5.739486E-1,-3.7689656E-1,-1.0087343E0,2.4196962E-1,-2.6062463E2,5.8278835E-1,-2.9836556E-1,1.0839587E0,3.3985853E0,5.739486E-1,-2.568268E-1,-3.2245708E-1,1.2803093E0,-7.3178005E-1,-3.8268882E-1,1.6225106E-1,2.493214E0,2.9016042E0,1.3262084E0,1.5856095E-1,-6.5717614E-1,1.8113614E0,-6.1471164E-1,-3.0262396E-1,-2.6512292E-1,1.5785078E0,-9.8604864E-1,1.3519297E0,-1.5680488E0,1.4530559E0,3.6602125E-1,2.2076118E0,-5.806216E-1,1.7272326E0,3.9593587E0,2.0009972E-1,2.838389E0,-1.287704E0,8.963026E-2,-7.9363906E-1,1.1554915E0,-1.7937614E0,-1.7310417E-1,1.2879518E2,6.40023E1,7.0627513E0,5.619656E1,4.9049747E1,-6.3104607E1,-1.642256E1,1.07296974E2,1.1174909E1,6.3396347E1,4.185392E1,2.0836713E2,3.641434E0,-1.736825E1,-1.3845643E1,2.832013E1,1.7579834E1,6.463313E1,2.0968619E2,4.6835125E1,1.0462709E2,-0E0,-9.753535E1,8.6694187E-1,8.0239334E1,-2.3117818E2,1.0677169E2,1.0271616E1,3.5089504E1,-4.7424934E1,-4.121258E0,2.2463414E2,1.1281228E1,6.923354E1,1.0910152E1,-2.9374002E1,3.9992466E1,9.0129166E1,1.0176111E0,-8.750615E1,6.529323E1,1.4654855E2,-1.2575799E2,-2.6315073E2,2.2853296E1,-7.021518E0,4.2528908E1,-2.2652675E2,-1.9601198E1,3.7991768E1,3.013873E-1,-7.672201E1,3.8325333E1,1.3992648E2,4.3852737E1,1.6030965E2,1.0301279E2,2.8900206E1,7.969716E1,1.7112413E2],"split_indices":[29,38,39,38,28,28,29,27,44,27,38,42,4,49,46,49,40,4,38,27,39,42,0,44,38,49,38,38,38,43,50,43,42,43,40,25,24,38,25,32,39,24,24,39,39,31,39,44,43,36,39,43,38,38,26,42,27,46,38,38,36,0,0,0,0,0,0,0,0,0,0,0,0,0,0,0,0,0,0,0,0,0,0,0,0,0,0,0,0,0,0,0,0,0,0,0,0,0,0,0,0,0,0,0,0,0,0,0,0,0,0,0,0,0,0,0,0,0,0,0,0],"split_type":[0,0,0,0,0,0,0,0,0,0,0,0,0,0,0,0,0,0,0,0,0,0,0,0,0,0,0,0,0,0,0,0,0,0,0,0,0,0,0,0,0,0,0,0,0,0,0,0,0,0,0,0,0,0,0,0,0,0,0,0,0,0,0,0,0,0,0,0,0,0,0,0,0,0,0,0,0,0,0,0,0,0,0,0,0,0,0,0,0,0,0,0,0,0,0,0,0,0,0,0,0,0,0,0,0,0,0,0,0,0,0,0,0,0,0,0,0,0,0,0,0],"sum_hessian":[9.9216E4,4.0629E4,5.8587E4,3.7014E4,3.615E3,2.0283E4,3.8304E4,2.655E3,3.4359E4,2.55E3,1.065E3,3.433E3,1.685E4,3.2373E4,5.931E3,1.552E3,1.103E3,1.2004E4,2.2355E4,2.385E3,1.65E2,1.059E3,6E0,7.62E2,2.671E3,1.4933E4,1.917E3,2.3339E4,9.034E3,1.569E3,4.362E3,7.09E2,8.43E2,3.88E2,7.15E2,1.1339E4,6.65E2,1.7282E4,5.073E3,2.127E3,2.58E2,2.3E1,1.42E2,6.72E2,3.87E2,7.21E2,4.1E1,5.03E2,2.168E3,1.3939E4,9.94E2,1.907E3,1E1,1.7344E4,5.995E3,2.066E3,6.968E3,4.66E2,1.103E3,4.21E3,1.52E2,8.7E1,6.22E2,3.68E2,4.75E2,3.67E2,2.1E1,6.7E2,4.5E1,1.0877E4,4.62E2,5.69E2,9.6E1,1.309E4,4.192E3,1.947E3,3.126E3,1.96E3,1.67E2,3E1,2.28E2,1.9E1,4E0,7.1E1,7.1E1,6.64E2,8E0,5.5E1,3.32E2,6.77E2,4.4E1,4E0,3.7E1,2.72E2,2.31E2,1.839E3,3.29E2,1.3481E4,4.58E2,9.07E2,8.7E1,1.793E3,1.14E2,3E0,7E0,1.4155E4,3.189E3,5.965E3,3E1,2.98E2,1.768E3,6.639E3,3.29E2,1.95E2,2.71E2,1.065E3,3.8E1,1.21E2,4.089E3,8E1,7.2E1],"tree_param":{"num_deleted":"0","num_feature":"52","num_nodes":"121","size_leaf_vector":"0"}},{"base_weights":[4.7946655E1,2.003623E1,7.253252E1,5.7495895E1,-1.32401495E1,1.2471E2,4.5482437E1,1.3823068E2,3.6945854E1,-1.7222803E1,3.96859E2,1.1052618E2,2.5445804E2,1.6698633E2,3.0544838E1,2.6902344E2,1.0876054E2,7.316715E1,1.196253E0,-5.0404064E1,1.60336E1,3.2760416E2,2.042646E3,1.25698906E2,-1.4902626E1,3.9164142E2,1.2730622E2,3.807302E1,3.5640738E2,1.2992257E1,8.770912E1,6.7554944E2,2.3733492E2,3.4196564E2,9.7550156E1,3.0044868E1,1.7784543E2,-2.7278128E0,3.837352E2,-6.153709E1,9.622928E1,-6.0462025E1,5.2918655E1,4.5276187E2,9.0510056E1,2.5030366E3,1.2647408E3,1.8528023E2,9.0746025E1,-4.101549E1,7.351643E1,2.6842685E2,5.895056E2,6.745482E1,4.2599063E2,3.2518198E2,1.0427815E1,4.8942587E2,2.3028366E2,-3.6389782E0,9.567604E1,1.8464584E2,3.9504173E1,7.510898E2,3.6136063E2,1.9481458E2,5.298655E2,4.358201E1,4.5576245E2,9.449701E1,5.800809E2,4.9458405E1,-8.307001E1,2.1255399E2,2.5055546E1,-3.36008E1,4.6248386E1,8.404797E1,5.109324E2,-6.711625E1,7.101526E1,7.737689E1,6.0596606E2,1.3486877E2,-7.933804E1,5.8923233E1,-6.605957E2,4.171163E2,1.5542012E3,-6.713946E1,2.0006013E2,1.3203673E2,3.2138806E2,2.567294E2,8.030669E1,9.818634E0,-1.6855592E2,1.6351395E1,1.2824402E2,9.1058527E2,2.3812456E2,6.355997E2,3.2964664E2,1.0939761E2,-1.0019594E2,2.6026605E2,4.712986E2,5.3332996E2,2.1650688E2,-1.4037842E1,2.2005708E2,1.0354845E2,5.883123E2,4.350928E2,1.4789664E2,7.9079127E0,-1.02115974E2,3.5217178E2,8.284108E1,2.0028549E2,-6.338486E0,-1.3097102E1,1.1107609E2],"categories":[],"categories_nodes":[],"categories_segments":[],"categories_sizes":[],"default_left":[1,1,1,1,1,1,1,1,1,1,1,1,1,1,1,1,1,1,1,1,1,1,1,1,1,1,1,1,1,1,1,1,1,1,1,1,1,1,1,1,1,1,1,1,1,0,0,1,1,1,1,1,1,1,1,1,1,1,1,1,1,1,1,0,0,0,0,0,0,0,0,0,0,0,0,0,0,0,0,0,0,0,0,0,0,0,0,0,0,0,0,0,0,0,0,0,0,0,0,0,0,0,0,0,0,0,0,0,0,0,0,0,0,0,0,0,0,0,0,0,0,0,0],"id":13,"left_children":[1,3,5,7,9,11,13,15,17,19,21,23,25,27,29,31,33,35,37,39,41,43,45,47,49,51,53,55,57,59,61,63,65,67,69,71,73,75,77,79,81,83,85,87,89,-1,-1,91,93,95,97,99,101,103,105,107,109,111,113,115,117,119,121,-1,-1,-1,-1,-1,-1,-1,-1,-1,-1,-1,-1,-1,-1,-1,-1,-1,-1,-1,-1,-1,-1,-1,-1,-1,-1,-1,-1,-1,-1,-1,-1,-1,-1,-1,-1,-1,-1,-1,-1,-1,-1,-1,-1,-1,-1,-1,-1,-1,-1,-1,-1,-1,-1,-1,-1,-1,-1,-1,-1],"loss_changes":[6.807072E7,5.793078E7,7.442509E7,3.624873E7,4.0147628E7,3.3084032E7,6.302708E7,1.7034928E7,2.2558948E7,2.689806E7,2.6390556E7,3.0909792E7,3.0850912E7,9.279723E7,3.1030354E7,1.0316808E7,9.39838E6,3.9042892E7,1.3216337E7,1.9916616E7,3.43397E7,6.665784E6,1.646588E6,3.0122128E7,4.0410328E6,2.0614296E7,1.6400381E7,1.7923058E7,2.5694112E7,3.2563984E7,3.3924612E7,1.14309E6,9.279576E6,5.547798E6,4.987108E6,1.346188E7,1.3356304E7,1.3130262E7,3.318708E6,8.38874E6,8.166822E6,1.4592437E7,3.5127548E7,5.32904E6,1.3927105E6,0E0,0E0,3.872355E7,1.5771752E7,8.794505E6,1.2280608E6,1.0017576E7,3.70916E6,5.408674E6,1.014336E6,4.351062E6,1.0619012E7,2.8449408E7,1.3257532E7,2.2421066E7,1.299026E7,7.22964E6,1.8288156E7,0E0,0E0,0E0,0E0,0E0,0E0,0E0,0E0,0E0,0E0,0E0,0E0,0E0,0E0,0E0,0E0,0E0,0E0,0E0,0E0,0E0,0E0,0E0,0E0,0E0,0E0,0E0,0E0,0E0,0E0,0E0,0E0,0E0,0E0,0E0,0E0,0E0,0E0,0E0,0E0,0E0,0E0,0E0,0E0,0E0,0E0,0E0,0E0,0E0,0E0,0E0,0E0,0E0,0E0,0E0,0E0,0E0,0E0,0E0,0E0],"parents":[2147483647,0,0,1,1,2,2,3,3,4,4,5,5,6,6,7,7,8,8,9,9,10,10,11,11,12,12,13,13,14,14,15,15,16,16,17,17,18,18,19,19,20,20,21,21,22,22,23,23,24,24,25,25,26,26,27,27,28,28,29,29,30,30,31,31,32,32,33,33,34,34,35,35,36,36,37,37,38,38,39,39,40,40,41,41,42,42,43,43,44,44,47,47,48,48,49,49,50,50,51,51,52,52,53,53,54,54,55,55,56,56,57,57,58,58,59,59,60,60,61,61,62,62],"right_children":[2,4,6,8,10,12,14,16,18,20,22,24,26,28,30,32,34,36,38,40,42,44,46,48,50,52,54,56,58,60,62,64,66,68,70,72,74,76,78,80,82,84,86,88,90,-1,-1,92,94,96,98,100,102,104,106,108,110,112,114,116,118,120,122,-1,-1,-1,-1,-1,-1,-1,-1,-1,-1,-1,-1,-1,-1,-1,-1,-1,-1,-1,-1,-1,-1,-1,-1,-1,-1,-1,-1,-1,-1,-1,-1,-1,-1,-1,-1,-1,-1,-1,-1,-1,-1,-1,-1,-1,-1,-1,-1,-1,-1,-1,-1,-1,-1,-1,-1,-1,-1,-1,-1],"split_conditions":[-1.517296E-1,5E-1,-1.483041E-1,-5.986998E-1,5E-1,-3.629037E-1,-7.8195435E-1,-1.1166143E0,-3.7630022E-1,5E-1,2.5964775E0,1.047061E0,-2.3097053E-1,-7.6804787E-1,1.3777978E0,-1.0079647E0,-9.1381884E-1,5E-1,1.3584886E0,1.1565768E0,-1.0981827E0,1.2710493E0,-1.0046523E0,-2.556404E-1,9.767338E-1,-5.0321317E-1,9.806598E-1,-1.5628364E0,-6.605878E-1,1.4499605E0,-5.109148E-1,-7.4522007E-1,1.3519297E0,-6.452375E-1,5E-1,1.5293446E0,5E-1,2.312206E-1,9.7874916E-1,2.905352E0,8.009236E-1,-1.3097267E0,2.889048E0,5.477575E-1,5.633664E-1,7.50911E2,3.7942227E2,-3.7630022E-1,-1.0765152E0,-5.0228596E-1,1.3877794E-1,-6.068086E-1,1.4135584E0,9.5943046E-1,5E-1,4.0712982E-1,1.5317023E-1,-1.4441249E0,-6.3289857E-1,2.1608043E-1,-8.7913775E-1,1.7903967E0,5E-1,2.2532695E2,1.08408195E2,5.8444374E1,1.5895966E2,1.3074603E1,1.3672874E2,2.8349104E1,1.7402426E2,1.4837522E1,-2.4921003E1,6.3766197E1,7.516664E0,-1.008024E1,1.38745165E1,2.5214394E1,1.5327972E2,-2.0134876E1,2.1304579E1,2.3213068E1,1.8178983E2,4.0460632E1,-2.3801414E1,1.7676971E1,-1.9817873E2,1.25134895E2,4.6626038E2,-2.0141838E1,6.0018044E1,3.961102E1,9.641642E1,7.701882E1,2.4092007E1,2.9455903E0,-5.056678E1,4.9054184E0,3.8473206E1,2.731756E2,7.143737E1,1.906799E2,9.8894E1,3.2819286E1,-3.0058783E1,7.807982E1,1.4138959E2,1.59999E2,6.4952065E1,-4.211353E0,6.601713E1,3.1064535E1,1.764937E2,1.3052785E2,4.436899E1,2.3723738E0,-3.0634794E1,1.0565154E2,2.4852325E1,6.008565E1,-1.9015459E0,-3.9291308E0,3.3322826E1],"split_indices":[51,7,44,45,4,44,42,44,49,14,23,39,24,27,42,42,49,13,39,26,51,40,39,43,51,24,42,43,46,51,45,45,31,44,3,45,4,32,33,45,40,46,26,39,39,0,0,49,24,24,29,39,51,43,13,39,45,43,39,24,24,44,4,0,0,0,0,0,0,0,0,0,0,0,0,0,0,0,0,0,0,0,0,0,0,0,0,0,0,0,0,0,0,0,0,0,0,0,0,0,0,0,0,0,0,0,0,0,0,0,0,0,0,0,0,0,0,0,0,0,0,0,0],"split_type":[0,0,0,0,0,0,0,0,0,0,0,0,0,0,0,0,0,0,0,0,0,0,0,0,0,0,0,0,0,0,0,0,0,0,0,0,0,0,0,0,0,0,0,0,0,0,0,0,0,0,0,0,0,0,0,0,0,0,0,0,0,0,0,0,0,0,0,0,0,0,0,0,0,0,0,0,0,0,0,0,0,0,0,0,0,0,0,0,0,0,0,0,0,0,0,0,0,0,0,0,0,0,0,0,0,0,0,0,0,0,0,0,0,0,0,0,0,0,0,0,0,0,0],"sum_hessian":[9.9216E4,4.6469E4,5.2747E4,2.1862E4,2.4607E4,1.8007E4,3.474E4,4.434E3,1.7428E4,2.4371E4,2.36E2,1.6234E4,1.773E3,3.802E3,3.0938E4,8.14E2,3.62E3,8.655E3,8.773E3,1.2201E4,1.217E4,2.27E2,9E0,1.4483E4,1.751E3,8.52E2,9.21E2,2.263E3,1.539E3,2.3672E4,7.266E3,5.8E1,7.56E2,1.65E2,