{"learner":{"attributes":{"best_iteration":"99","best_ntree_limit":"100","scikit_learn":"{\"n_estimators\": 100, \"objective\": \"reg:squarederror\", \"max_depth\": 6, \"max_leaves\": null, \"max_bin\": null, \"grow_policy\": null, \"learning_rate\": null, \"verbosity\": null, \"booster\": null, \"tree_method\": null, \"gamma\": 1.082410380100252, \"min_child_weight\": 10, \"max_delta_step\": null, \"subsample\": null, \"sampling_method\": null, \"colsample_bytree\": 0.8163967747552867, \"colsample_bylevel\": null, \"colsample_bynode\": null, \"reg_alpha\": 137, \"reg_lambda\": 0.6339646014592331, \"scale_pos_weight\": null, \"base_score\": null, \"missing\": NaN, \"num_parallel_tree\": null, \"random_state\": null, \"n_jobs\": null, \"monotone_constraints\": null, \"interaction_constraints\": null, \"importance_type\": null, \"gpu_id\": null, \"validate_parameters\": null, \"predictor\": null, \"enable_categorical\": false, \"feature_types\": null, \"max_cat_to_onehot\": null, \"max_cat_threshold\": null, \"eval_metric\": null, \"early_stopping_rounds\": null, \"callbacks\": null, \"_estimator_type\": \"regressor\"}"},"feature_names":["flat_type_0","flat_type_1","flat_type_2","flat_model_0","flat_model_1","flat_model_2","flat_model_3","flat_model_4","Region_0","Region_1","Region_2","closest_JC_sch_0","closest_JC_sch_1","closest_JC_sch_2","closest_JC_sch_3","closest_JC_sch_4","closest_MI_sch_0","closest_MI_sch_1","closest_MI_sch_2","closest_MI_sch_3","closest_Uni_sch_0","closest_Uni_sch_1","closest_Uni_sch_2","town","flat_model","closest_Pri_sch","closest_Sec_sch","closest_mall","closest_park","closest_mrt","storey_range_lower","num_mrt_1km_radius","num_Pri_sch_1km_radius","num_Sec_sch_1km_radius","num_JC_sch_1km_radius","num_MI_sch_1km_radius","num_Uni_sch_1km_radius","num_mall_1km_radius","num_park_1km_radius","floor_area_sqm","closest_mrt_dist","closest_Pri_sch_dist","closest_Sec_sch_dist","closest_JC_sch_dist","closest_MI_sch_dist","closest_Uni_sch_dist","closest_mall_dist","closest_park_dist","num_of_dwellings_in_town","area_km_sq","density_km_sq","Population","lease_commence_date"],"feature_types":["int","int","int","int","int","int","int","int","int","int","int","int","int","int","int","int","int","int","int","int","int","int","int","float","float","float","float","float","float","float","float","float","float","float","float","float","float","float","float","float","float","float","float","float","float","float","float","float","float","float","float","float","float"],"gradient_booster":{"model":{"gbtree_model_param":{"num_parallel_tree":"1","num_trees":"100","size_leaf_vector":"0"},"tree_info":[0,0,0,0,0,0,0,0,0,0,0,0,0,0,0,0,0,0,0,0,0,0,0,0,0,0,0,0,0,0,0,0,0,0,0,0,0,0,0,0,0,0,0,0,0,0,0,0,0,0,0,0,0,0,0,0,0,0,0,0,0,0,0,0,0,0,0,0,0,0,0,0,0,0,0,0,0,0,0,0,0,0,0,0,0,0,0,0,0,0,0,0,0,0,0,0,0,0,0,0],"trees":[{"base_weights":[4.7825853E5,3.3980106E5,5.326815E5,3.19172E5,4.2940153E5,4.977944E5,7.00838E5,3.1332288E5,4.2924888E5,3.7117028E5,5.5315544E5,4.5048116E5,5.760069E5,6.624455E5,8.4983275E5,2.9669672E5,3.4198484E5,3.998436E5,5.6498606E5,3.385775E5,4.5752872E5,4.9449566E5,7.370918E5,4.2113634E5,5.051462E5,5.4421725E5,6.614623E5,5.973965E5,7.5296856E5,9.0095556E5,7.474097E5,2.5313753E5,3.0611175E5,3.636749E5,3.145827E5,3.129542E5,4.116485E5,5.0658912E5,6.459012E5,2.4902262E5,3.4347697E5,4.0643553E5,4.838851E5,4.0257872E5,5.5941575E5,6.3658525E5,7.9068706E5,3.9817384E5,4.4892194E5,4.9180934E5,6.87849E5,5.190545E5,6.297922E5,7.039511E5,6.2315225E5,5.310893E5,6.8337775E5,7.02533E5,8.268213E5,8.8032806E5,9.76567E5,7.657414E5,6.7180525E5,2.429916E5,2.7186134E5,2.94668E5,3.670587E5,3.6170772E5,6.5753475E5,2.976703E5,3.3633997E5,4.5106775E5,3.9126425E5,5.2233544E5,3.7964494E5,4.7622266E5,6.6774025E5,2.3237047E5,2.7704025E5,2.924934E5,3.4998556E5,3.4951922E5,4.1426244E5,4.5057056E5,5.0806884E5,3.002481E5,4.172715E5,3.6678047E5,5.706154E5,7.4279275E5,8.2415506E5,3.886241E5,4.450128E5,4.3592112E5,4.880927E5,4.7811772E5,5.5708494E5,7.005927E5,5.7721756E5,4.9768328E5,5.764591E5,5.903162E5,6.6532156E5,7.4778144E5,6.6472875E5,6.066979E5,7.446926E5,4.9490825E5,5.988315E5,5.67943E5,7.3203325E5,7.391307E5,6.1872206E5,7.945924E5,9.028331E5,8.199315E5,8.976392E5,8.8140994E5,1.05583E6,6.4469544E5,7.733951E5],"categories":[],"categories_nodes":[],"categories_segments":[],"categories_sizes":[],"default_left":[1,1,1,1,1,1,1,1,1,1,1,1,1,1,1,1,1,1,1,1,1,1,1,1,1,1,1,1,1,1,1,1,1,1,1,0,1,1,1,1,1,1,1,1,1,0,1,1,1,1,1,1,1,1,1,1,1,1,1,1,1,1,0,0,0,0,0,0,0,0,0,0,0,0,0,0,0,0,0,0,0,0,0,0,0,0,0,0,0,0,0,0,0,0,0,0,0,0,0,0,0,0,0,0,0,0,0,0,0,0,0,0,0,0,0,0,0,0,0,0,0],"id":0,"left_children":[1,3,5,7,9,11,13,15,17,19,21,23,25,27,29,31,33,35,37,39,41,43,45,47,49,51,53,55,57,59,61,63,65,67,69,-1,71,73,75,77,79,81,83,85,87,-1,89,91,93,95,97,99,101,103,105,107,109,111,113,115,117,119,-1,-1,-1,-1,-1,-1,-1,-1,-1,-1,-1,-1,-1,-1,-1,-1,-1,-1,-1,-1,-1,-1,-1,-1,-1,-1,-1,-1,-1,-1,-1,-1,-1,-1,-1,-1,-1,-1,-1,-1,-1,-1,-1,-1,-1,-1,-1,-1,-1,-1,-1,-1,-1,-1,-1,-1,-1,-1,-1],"loss_changes":[7.4750685E14,5.166121E13,4.1759538E14,1.4568529E13,3.7613914E13,2.1811025E14,6.9634305E13,1.0235444E13,4.4332954E12,9.932112E12,1.7837502E13,5.882602E13,6.0163365E13,5.7018644E13,1.2687736E13,5.5625195E12,4.6409135E12,8.871624E11,7.498912E11,1.0819291E12,1.1876591E12,7.445225E12,1.8549729E12,1.5148618E13,3.106174E13,3.469045E13,9.528117E12,3.2070387E13,1.4778982E13,2.0556787E12,8.345658E11,4.2077258E11,7.7768436E12,2.4057857E12,1.2275218E12,0E0,5.54638E11,1.15295126E11,1.0445704E11,2.2865773E10,7.4920336E11,5.762135E10,3.7007183E11,7.152966E11,1.4715464E12,0E0,2.9460791E10,5.750961E12,5.3744805E12,1.0524012E13,9.723403E11,1.5187004E13,4.911832E12,4.587025E12,6.060199E12,7.6591346E12,1.3579076E13,7.134746E12,3.5787815E12,9.0972776E11,2.0618863E12,3.0410382E11,0E0,0E0,0E0,0E0,0E0,0E0,0E0,0E0,0E0,0E0,0E0,0E0,0E0,0E0,0E0,0E0,0E0,0E0,0E0,0E0,0E0,0E0,0E0,0E0,0E0,0E0,0E0,0E0,0E0,0E0,0E0,0E0,0E0,0E0,0E0,0E0,0E0,0E0,0E0,0E0,0E0,0E0,0E0,0E0,0E0,0E0,0E0,0E0,0E0,0E0,0E0,0E0,0E0,0E0,0E0,0E0,0E0,0E0,0E0],"parents":[2147483647,0,0,1,1,2,2,3,3,4,4,5,5,6,6,7,7,8,8,9,9,10,10,11,11,12,12,13,13,14,14,15,15,16,16,17,17,18,18,19,19,20,20,21,21,22,22,23,23,24,24,25,25,26,26,27,27,28,28,29,29,30,30,31,31,32,32,33,33,34,34,36,36,37,37,38,38,39,39,40,40,41,41,42,42,43,43,44,44,46,46,47,47,48,48,49,49,50,50,51,51,52,52,53,53,54,54,55,55,56,56,57,57,58,58,59,59,60,60,61,61],"right_children":[2,4,6,8,10,12,14,16,18,20,22,24,26,28,30,32,34,36,38,40,42,44,46,48,50,52,54,56,58,60,62,64,66,68,70,-1,72,74,76,78,80,82,84,86,88,-1,90,92,94,96,98,100,102,104,106,108,110,112,114,116,118,120,-1,-1,-1,-1,-1,-1,-1,-1,-1,-1,-1,-1,-1,-1,-1,-1,-1,-1,-1,-1,-1,-1,-1,-1,-1,-1,-1,-1,-1,-1,-1,-1,-1,-1,-1,-1,-1,-1,-1,-1,-1,-1,-1,-1,-1,-1,-1,-1,-1,-1,-1,-1,-1,-1,-1,-1,-1,-1,-1],"split_conditions":[-5.4759824E-1,7.0530164E-1,8.6303794E-1,1.4499605E0,3.0280635E-2,5.739486E-1,2.86379E-1,-1.2122185E0,5E-1,-9.629859E-1,-9.629859E-1,7.219195E-1,9.8448455E-1,2.1229085E-1,-8.3143604E-1,-1.5860674E0,5E-1,5E-1,5.497981E-1,-1.7522225E0,6.824564E-1,9.574045E-1,1.4113E0,-2.889564E-1,5E-1,9.767338E-1,5E-1,6.570262E-1,1.1673976E0,2.7103271E0,2.0606956E-1,-1.6691451E0,4.3070316E-1,1.7889414E0,-7.968308E-1,9.388626E4,2.8842977E-1,1.8883468E0,6.897582E-1,5E-1,-5.220644E-1,-7.968308E-1,5E-1,5E-1,5E-1,1.9097558E5,-5.588498E-1,5E-1,5E-1,1.5227644E0,9.778594E-1,5E-1,-2.3483235E-1,5E-1,2.5678098E0,1.4542408E0,5E-1,5E-1,4.9087113E-1,5E-1,5E-1,-2.1528801E-1,2.0154158E5,7.2897484E4,8.155841E4,8.840041E4,1.1011761E5,1.0851232E5,1.9726044E5,8.930109E4,1.0090199E5,1.3532033E5,1.1737928E5,1.5670064E5,1.13893484E5,1.428668E5,2.0032208E5,6.971114E4,8.311208E4,8.774802E4,1.0499567E5,1.0485577E5,1.24278734E5,1.3517117E5,1.5242066E5,9.007443E4,1.2518145E5,1.1003415E5,1.7118462E5,2.2283783E5,2.4724653E5,1.16587234E5,1.3350384E5,1.3077634E5,1.4642781E5,1.4343533E5,1.6712548E5,2.1017781E5,1.7316528E5,1.4930498E5,1.7293775E5,1.7709486E5,1.9959648E5,2.2433444E5,1.9941864E5,1.8200938E5,2.234078E5,1.4847248E5,1.7964945E5,1.703829E5,2.1960998E5,2.2173922E5,1.8561662E5,2.3837772E5,2.7084994E5,2.4597945E5,2.6929178E5,2.64423E5,3.16749E5,1.9340864E5,2.3201855E5],"split_indices":[39,26,27,52,52,39,24,39,9,39,39,52,24,52,51,39,8,1,25,39,23,26,27,26,9,52,8,39,30,30,46,39,52,24,39,0,40,41,27,1,27,39,5,1,1,0,33,0,0,52,26,9,26,5,39,25,10,21,39,0,0,39,0,0,0,0,0,0,0,0,0,0,0,0,0,0,0,0,0,0,0,0,0,0,0,0,0,0,0,0,0,0,0,0,0,0,0,0,0,0,0,0,0,0,0,0,0,0,0,0,0,0,0,0,0,0,0,0,0,0,0],"split_type":[0,0,0,0,0,0,0,0,0,0,0,0,0,0,0,0,0,0,0,0,0,0,0,0,0,0,0,0,0,0,0,0,0,0,0,0,0,0,0,0,0,0,0,0,0,0,0,0,0,0,0,0,0,0,0,0,0,0,0,0,0,0,0,0,0,0,0,0,0,0,0,0,0,0,0,0,0,0,0,0,0,0,0,0,0,0,0,0,0,0,0,0,0,0,0,0,0,0,0,0,0,0,0,0,0,0,0,0,0,0,0,0,0,0,0,0,0,0,0,0,0],"sum_hessian":[9.9216E4,2.7996E4,7.122E4,2.2759E4,5.237E3,5.8985E4,1.2235E4,2.1613E4,1.146E3,3.563E3,1.674E3,3.6755E4,2.223E4,9.731E3,2.504E3,1.3683E4,7.93E3,9.44E2,2.02E2,2.589E3,9.74E2,1.271E3,4.03E2,2.392E4,1.2835E4,1.6206E4,6.024E3,5.665E3,4.066E3,1.667E3,8.37E2,2.435E3,1.1248E4,4.422E3,3.508E3,1.15E2,8.29E2,1.2E2,8.2E1,1.36E2,2.453E3,3.35E2,6.39E2,5.28E2,7.43E2,1.43E2,2.6E2,1.3102E4,1.0818E4,1.1964E4,8.71E2,1.2527E4,3.679E3,2.851E3,3.173E3,3.201E3,2.464E3,2.42E3,1.646E3,1.316E3,3.51E2,6.69E2,1.68E2,1.585E3,8.5E2,9.473E3,1.775E3,4.394E3,2.8E1,1.979E3,1.529E3,2.78E2,5.51E2,1.05E2,1.5E1,1.1E1,7.1E1,8.9E1,4.7E1,2.81E2,2.172E3,4.4E1,2.91E2,2.74E2,3.65E2,6.8E1,4.6E2,4.2E1,7.01E2,1.13E2,1.47E2,1.0888E4,2.214E3,8.128E3,2.69E3,9.894E3,2.07E3,7.78E2,9.3E1,9.133E3,3.394E3,1.748E3,1.931E3,1.341E3,1.51E3,2.798E3,3.75E2,2.09E3,1.111E3,7.33E2,1.731E3,1.681E3,7.39E2,1.161E3,4.85E2,3E2,1.016E3,1.63E2,1.88E2,4.3E1,6.26E2],"tree_param":{"num_deleted":"0","num_feature":"53","num_nodes":"121","size_leaf_vector":"0"}},{"base_weights":[3.3484447E5,2.3794748E5,3.7293144E5,2.3145197E5,3.8329934E5,3.484112E5,4.9060812E5,2.2154125E5,2.792072E5,2.8587834E5,4.8985484E5,3.1525188E5,4.0318028E5,4.6058734E5,5.892184E5,2.1803652E5,3.0007288E5,2.6854972E5,4.1378953E5,2.7176338E5,3.5086753E5,4.2195425E5,5.390411E5,2.938147E5,3.5257638E5,3.8179428E5,4.7239466E5,4.0735488E5,5.168985E5,5.474899E5,6.432961E5,2.0604125E5,2.3842564E5,3.9638197E5,2.775971E5,2.405072E5,3.0382594E5,2.8870078E5,4.258778E5,2.2597178E5,2.9148253E5,3.6719966E5,4.53278E5,4.9422944E5,5.7629325E5,2.7889553E5,3.239523E5,4.1671084E5,3.3657288E5,3.6255438E5,4.4748166E5,4.923156E5,4.3096147E5,3.6662203E5,4.7351E5,4.7563947E5,5.8469156E5,4.9816197E5,5.866718E5,6.039535E5,7.3493125E5,1.7727408E5,2.1238017E5,2.2337933E5,2.5680198E5,4.7694153E5,3.448608E5,2.172547E5,2.880951E5,2.3196402E5,2.9123875E5,3.2316222E5,2.6295428E5,2.3229672E5,3.441515E5,2.7798716E5,4.356156E5,2.3324564E5,1.5941719E5,2.6661106E5,3.0015206E5,4.2903534E5,4.913387E5,2.697958E5,3.0390434E5,3.1902322E5,4.6479884E5,4.897901E5,3.681507E5,3.103996E5,3.5889753E5,3.8828025E5,3.2434666E5,4.2013247E5,4.874661E5,4.5658672E5,5.1181694E5,4.1617153E5,5.2996006E5,3.0849844E5,3.9579497E5,4.5472156E5,5.811807E5,4.391259E5,5.3826406E5,5.603792E5,6.640742E5,5.2296166E5,4.1550684E5,4.862632E5,6.091385E5,5.5661594E5,6.6239275E5,4.9398903E5,7.421196E5],"categories":[],"categories_nodes":[],"categories_segments":[],"categories_sizes":[],"default_left":[1,1,1,1,1,1,1,1,1,1,1,1,1,1,1,1,1,1,1,1,0,1,1,1,1,1,1,1,1,1,1,1,1,1,1,1,1,1,1,1,1,0,1,0,0,1,1,1,1,1,1,1,1,1,1,1,1,1,1,1,1,0,0,0,0,0,0,0,0,0,0,0,0,0,0,0,0,0,0,0,0,0,0,0,0,0,0,0,0,0,0,0,0,0,0,0,0,0,0,0,0,0,0,0,0,0,0,0,0,0,0,0,0,0,0],"id":1,"left_children":[1,3,5,7,9,11,13,15,17,19,21,23,25,27,29,31,33,35,37,39,-1,41,43,45,47,49,51,53,55,57,59,61,63,65,67,69,71,73,75,77,79,-1,81,-1,-1,83,85,87,89,91,93,95,97,99,101,103,105,107,109,111,113,-1,-1,-1,-1,-1,-1,-1,-1,-1,-1,-1,-1,-1,-1,-1,-1,-1,-1,-1,-1,-1,-1,-1,-1,-1,-1,-1,-1,-1,-1,-1,-1,-1,-1,-1,-1,-1,-1,-1,-1,-1,-1,-1,-1,-1,-1,-1,-1,-1,-1,-1,-1,-1,-1],"loss_changes":[3.661041E14,2.63762E13,2.0539607E14,1.2645189E13,1.2333049E13,1.0696348E14,3.618E13,6.0678493E12,6.532511E12,5.1429297E11,1.7614735E12,2.9312346E13,3.278429E13,2.8093381E13,6.2386413E12,5.166443E12,1.9792585E12,4.1752786E12,4.309857E11,4.2557506E11,0E0,3.105127E11,3.678824E11,1.0430731E13,1.3655714E13,2.1359946E13,4.1933645E12,1.2941944E13,1.2616332E13,2.946851E12,4.2019209E12,2.4167915E12,2.1389608E12,6.328869E11,4.4780067E11,9.8889944E11,1.437841E12,4.8178397E10,3.6328545E11,5.316962E10,2.673659E10,0E0,6.1467525E9,0E0,0E0,3.4997273E12,5.265227E12,9.366518E12,6.1936113E12,1.283457E13,4.0743134E12,2.315994E12,2.3603194E12,5.0104484E12,3.5619036E12,6.359303E12,3.098215E12,1.3413216E12,1.8415008E12,2.1829171E12,4.093305E11,0E0,0E0,0E0,0E0,0E0,0E0,0E0,0E0,0E0,0E0,0E0,0E0,0E0,0E0,0E0,0E0,0E0,0E0,0E0,0E0,0E0,0E0,0E0,0E0,0E0,0E0,0E0,0E0,0E0,0E0,0E0,0E0,0E0,0E0,0E0,0E0,0E0,0E0,0E0,0E0,0E0,0E0,0E0,0E0,0E0,0E0,0E0,0E0,0E0,0E0,0E0,0E0,0E0,0E0],"parents":[2147483647,0,0,1,1,2,2,3,3,4,4,5,5,6,6,7,7,8,8,9,9,10,10,11,11,12,12,13,13,14,14,15,15,16,16,17,17,18,18,19,19,21,21,22,22,23,23,24,24,25,25,26,26,27,27,28,28,29,29,30,30,31,31,32,32,33,33,34,34,35,35,36,36,37,37,38,38,39,39,40,40,42,42,45,45,46,46,47,47,48,48,49,49,50,50,51,51,52,52,53,53,54,54,55,55,56,56,57,57,58,58,59,59,60,60],"right_children":[2,4,6,8,10,12,14,16,18,20,22,24,26,28,30,32,34,36,38,40,-1,42,44,46,48,50,52,54,56,58,60,62,64,66,68,70,72,74,76,78,80,-1,82,-1,-1,84,86,88,90,92,94,96,98,100,102,104,106,108,110,112,114,-1,-1,-1,-1,-1,-1,-1,-1,-1,-1,-1,-1,-1,-1,-1,-1,-1,-1,-1,-1,-1,-1,-1,-1,-1,-1,-1,-1,-1,-1,-1,-1,-1,-1,-1,-1,-1,-1,-1,-1,-1,-1,-1,-1,-1,-1,-1,-1,-1,-1,-1,-1,-1,-1],"split_conditions":[-5.4759824E-1,2.86379E-1,7.9513854E-1,7.0530164E-1,4.0977818E-1,5.739486E-1,1.1673976E0,1.4499605E0,1.6817074E0,5E-1,-9.8375535E-1,6.491154E-1,1.6539568E0,4.0779358E-1,1.0495379E0,-1.2122185E0,5E-1,-1.2537574E0,-1.243791E0,-5.6600027E-2,1.05260266E5,5E-1,1.1673976E0,-1.9105357E-1,-3.1300896E-1,9.767338E-1,5.553988E-1,2.8509495E-1,1.4542408E0,4.4933236E-1,1.7933033E-1,-1.5860674E0,-3.9333683E-1,5E-1,-1.7314532E0,-5.1575005E-1,-4.6588665E-1,-1.731042E-1,-1.7729919E0,5E-1,-3.7553188E-1,1.101599E5,2.7103271E0,1.4826884E5,1.7288798E5,5E-1,1.6817074E0,-5.3789012E-2,-3.1652004E-1,5.553988E-1,1.03496455E-1,-7.615219E-1,3.0455055E0,5E-1,1.4499605E0,2.86379E-1,1.6954956E0,-6.189209E-1,1.8151633E-1,1.4499605E0,5.3563035E-1,5.3182227E4,6.3714055E4,6.7013805E4,7.70406E4,1.4308247E5,1.0345825E5,6.5176414E4,8.642853E4,6.958921E4,8.7371625E4,9.694867E4,7.888629E4,6.9689016E4,1.0324545E5,8.339615E4,1.3068468E5,6.9973695E4,4.7825156E4,7.998332E4,9.0045625E4,1.2871061E5,1.4740161E5,8.093875E4,9.1171305E4,9.570697E4,1.3943966E5,1.4693703E5,1.1044521E5,9.311988E4,1.07669266E5,1.1648408E5,9.7304E4,1.2603974E5,1.4623983E5,1.3697602E5,1.535451E5,1.2485146E5,1.5898803E5,9.254953E4,1.1873849E5,1.3641647E5,1.7435422E5,1.3173778E5,1.6147922E5,1.6811377E5,1.9922227E5,1.568885E5,1.24652055E5,1.4587897E5,1.8274156E5,1.6698478E5,1.9871783E5,1.4819672E5,2.2263589E5],"split_indices":[39,24,27,26,23,39,30,52,30,6,39,52,39,39,52,39,21,39,52,25,0,10,30,27,40,52,50,52,25,39,39,39,26,12,39,52,50,37,39,15,30,0,30,0,0,14,30,50,27,50,26,50,39,10,52,24,39,40,25,52,23,0,0,0,0,0,0,0,0,0,0,0,0,0,0,0,0,0,0,0,0,0,0,0,0,0,0,0,0,0,0,0,0,0,0,0,0,0,0,0,0,0,0,0,0,0,0,0,0,0,0,0,0,0,0],"split_type":[0,0,0,0,0,0,0,0,0,0,0,0,0,0,0,0,0,0,0,0,0,0,0,0,0,0,0,0,0,0,0,0,0,0,0,0,0,0,0,0,0,0,0,0,0,0,0,0,0,0,0,0,0,0,0,0,0,0,0,0,0,0,0,0,0,0,0,0,0,0,0,0,0,0,0,0,0,0,0,0,0,0,0,0,0,0,0,0,0,0,0,0,0,0,0,0,0,0,0,0,0,0,0,0,0,0,0,0,0,0,0,0,0,0,0],"sum_hessian":[9.9216E4,2.7996E4,7.122E4,2.68E4,1.196E3,5.8941E4,1.2279E4,2.2197E4,4.603E3,6.26E2,5.7E2,3.6716E4,2.2225E4,9.416E3,2.863E3,2.1251E4,9.46E2,4.267E3,3.36E2,5.17E2,1.09E2,2.42E2,3.28E2,2.3325E4,1.3391E4,1.6982E4,5.243E3,4.843E3,4.573E3,1.62E3,1.243E3,1.3384E4,7.867E3,1.77E2,7.69E2,2.38E3,1.887E3,3.1E1,3.05E2,1.58E2,3.59E2,9.1E1,1.51E2,1.53E2,1.75E2,1.5606E4,7.719E3,2.671E3,1.072E4,1.3138E4,3.844E3,3.536E3,1.707E3,3E3,1.843E3,2.846E3,1.727E3,7.21E2,8.99E2,8.73E2,3.7E2,2.42E3,1.0964E4,4.33E3,3.537E3,6.7E1,1.1E2,1.16E2,6.53E2,2.04E3,3.4E2,1.278E3,6.09E2,1.7E1,1.4E1,2E1,2.85E2,1.41E2,1.7E1,9.8E1,2.61E2,9.7E1,5.4E1,1.1448E4,4.158E3,7.46E3,2.59E2,1.064E3,1.607E3,4.939E3,5.781E3,7.848E3,5.29E3,2.287E3,1.557E3,1.254E3,2.282E3,1.488E3,2.19E2,1.005E3,1.995E3,1.572E3,2.71E2,1.801E3,1.045E3,1.326E3,4.01E2,5.52E2,1.69E2,1.67E2,7.32E2,4.86E2,3.87E2,1.2E1,3.58E2],"tree_param":{"num_deleted":"0","num_feature":"53","num_nodes":"115","size_leaf_vector":"0"}},{"base_weights":[2.3443547E5,1.666194E5,2.6109169E5,1.6212253E5,2.8174072E5,2.479045E5,3.7748778E5,1.5406016E5,1.9659122E5,1.8550552E5,3.246216E5,2.1936511E5,2.808213E5,3.405183E5,4.2379006E5,1.30161945E5,1.6206372E5,1.8235773E5,2.596565E5,1.364676E5,2.056288E5,2.969335E5,3.864559E5,2.0005536E5,2.4784225E5,2.6647788E5,3.3804247E5,3.0855262E5,3.9215053E5,3.8040344E5,4.4335725E5,1.20942555E5,1.470031E5,1.5650864E5,1.8955788E5,1.6215378E5,2.1055278E5,2.5224252E5,3.7900853E5,1.0928999E5,1.6080425E5,2.117179E5,1.4686962E5,2.531379E5,3.1661584E5,3.507063E5,4.3160434E5,1.9401884E5,2.5370497E5,3.1669253E5,2.3583108E5,2.3957422E5,2.959965E5,3.5066016E5,3.0202478E5,2.529475E5,3.2475912E5,3.7121978E5,4.3278275E5,3.5710034E5,4.5539362E5,4.366294E5,5.510395E5,1.13877695E5,1.336807E5,1.2990817E5,1.618268E5,1.509245E5,1.7753817E5,1.4314905E5,1.9330477E5,9.532451E4,1.686445E5,1.8150322E5,2.5410964E5,1.9290116E5,2.623816E5,9.839061E4,1.2584454E5,2.4801636E5,1.9394836E5,3.4398497E5,2.4149884E5,3.2756812E5,2.155043E5,3.6087862E5,2.742699E5,1.7489484E5,2.067331E5,2.193148E5,2.8168484E5,2.4224903E5,3.4233878E5,2.1024634E5,2.524083E5,2.649963E5,2.2598083E5,2.84714E5,3.7639728E5,4.4207606E5,3.44786E5,2.9062784E5,3.4282016E5,2.4243911E5,3.8852766E5,3.0259197E5,3.496911E5,3.4059978E5,3.909307E5,4.012139E5,4.5405406E5,3.301281E5,3.9109153E5,4.278078E5,5.1599206E5,4.2811484E5,5.3176044E5,4.3381497E5,5.6777594E5],"categories":[],"categories_nodes":[],"categories_segments":[],"categories_sizes":[],"default_left":[1,1,1,1,1,1,1,1,1,1,1,1,1,1,1,1,1,1,1,1,1,1,1,1,1,1,1,1,1,1,1,1,1,1,1,1,1,1,0,1,0,1,0,1,1,1,0,1,1,1,1,1,1,1,1,1,1,1,1,1,1,1,1,0,0,0,0,0,0,0,0,0,0,0,0,0,0,0,0,0,0,0,0,0,0,0,0,0,0,0,0,0,0,0,0,0,0,0,0,0,0,0,0,0,0,0,0,0,0,0,0,0,0,0,0,0,0,0,0],"id":2,"left_children":[1,3,5,7,9,11,13,15,17,19,21,23,25,27,29,31,33,35,37,39,41,43,45,47,49,51,53,55,57,59,61,63,65,67,69,71,73,75,-1,77,-1,79,-1,81,83,85,-1,87,89,91,93,95,97,99,101,103,105,107,109,111,113,115,117,-1,-1,-1,-1,-1,-1,-1,-1,-1,-1,-1,-1,-1,-1,-1,-1,-1,-1,-1,-1,-1,-1,-1,-1,-1,-1,-1,-1,-1,-1,-1,-1,-1,-1,-1,-1,-1,-1,-1,-1,-1,-1,-1,-1,-1,-1,-1,-1,-1,-1,-1,-1,-1,-1,-1,-1],"loss_changes":[1.7932777E14,1.446451E13,1.0925967E14,7.468948E12,4.3014769E12,6.0060286E13,1.2312933E13,4.1640715E12,4.552934E12,3.0349984E11,1.171209E12,1.881236E13,2.4324547E13,6.5788833E12,2.6220104E12,8.399513E11,2.479639E12,2.352409E12,7.698729E11,5.2736426E10,6.239866E10,3.8410597E11,2.6327227E11,6.5833124E12,1.1401729E13,1.882068E13,2.6375797E12,2.1950303E12,1.2074227E12,1.65066E12,1.4496186E12,3.094893E11,4.773915E11,1.581521E12,4.600145E11,1.04410907E12,2.1693444E12,5.0070762E11,0E0,7.1440794E8,0E0,1.027248E11,0E0,1.16048E11,3.3793088E11,3.640446E10,0E0,4.4417344E12,1.946459E12,3.8700675E12,4.9669955E12,4.2579903E12,1.0204775E13,2.2680112E12,6.567777E11,7.460744E11,9.987141E11,5.3148543E11,2.3333752E11,6.227451E11,2.538225E11,1.5441079E12,9.412018E10,0E0,0E0,0E0,0E0,0E0,0E0,0E0,0E0,0E0,0E0,0E0,0E0,0E0,0E0,0E0,0E0,0E0,0E0,0E0,0E0,0E0,0E0,0E0,0E0,0E0,0E0,0E0,0E0,0E0,0E0,0E0,0E0,0E0,0E0,0E0,0E0,0E0,0E0,0E0,0E0,0E0,0E0,0E0,0E0,0E0,0E0,0E0,0E0,0E0,0E0,0E0,0E0,0E0,0E0,0E0,0E0],"parents":[2147483647,0,0,1,1,2,2,3,3,4,4,5,5,6,6,7,7,8,8,9,9,10,10,11,11,12,12,13,13,14,14,15,15,16,16,17,17,18,18,19,19,20,20,21,21,22,22,23,23,24,24,25,25,26,26,27,27,28,28,29,29,30,30,31,31,32,32,33,33,34,34,35,35,36,36,37,37,39,39,41,41,43,43,44,44,45,45,47,47,48,48,49,49,50,50,51,51,52,52,53,53,54,54,55,55,56,56,57,57,58,58,59,59,60,60,61,61,62,62],"right_children":[2,4,6,8,10,12,14,16,18,20,22,24,26,28,30,32,34,36,38,40,42,44,46,48,50,52,54,56,58,60,62,64,66,68,70,72,74,76,-1,78,-1,80,-1,82,84,86,-1,88,90,92,94,96,98,100,102,104,106,108,110,112,114,116,118,-1,-1,-1,-1,-1,-1,-1,-1,-1,-1,-1,-1,-1,-1,-1,-1,-1,-1,-1,-1,-1,-1,-1,-1,-1,-1,-1,-1,-1,-1,-1,-1,-1,-1,-1,-1,-1,-1,-1,-1,-1,-1,-1,-1,-1,-1,-1,-1,-1,-1,-1,-1,-1,-1,-1,-1],"split_conditions":[-5.4759824E-1,1.6817074E0,8.961362E-1,9.6255E-1,-4.061954E-2,5E-1,5E-1,-1.2952961E0,-8.799083E-1,-1.3368349E0,1.4965913E-1,-2.8012397E-2,1.7370343E0,6.5308774E-1,-3.7553188E-1,5E-1,1.8934348E-1,5E-1,5E-1,-4.243775E-1,5E-1,-1.3160655E0,-8.383696E-1,5E-1,-1.203151E0,-2.968057E-1,5E-1,5E-1,2.7103271E0,1.6539568E0,3.7389467E0,5E-1,-2.348156E-1,-7.137532E-1,-7.899097E-1,-1.8353002E0,4.7450465E-1,-6.3591585E-2,1.1370256E5,2.1960173E0,4.8241277E4,-5.3789012E-2,4.406089E4,-9.8330426E-1,1.021291E0,1.3286388E0,1.29481305E5,-3.7553188E-1,5E-1,5E-1,-3.7553188E-1,-5.3789012E-2,1.1673976E0,5E-1,6.379187E-1,3.5074205E0,-3.7553188E-1,-2.568268E-1,-2.568268E-1,2.0816748E0,-5.6869036E-1,5E-1,1.1167046E0,3.416331E4,4.010421E4,3.8972453E4,4.854804E4,4.527735E4,5.3261453E4,4.2944715E4,5.7991434E4,2.8597354E4,5.059335E4,5.445097E4,7.62329E4,5.7870348E4,7.8714484E4,2.9517184E4,3.7753363E4,7.4404914E4,5.818451E4,1.0319549E5,7.244966E4,9.827044E4,6.4651293E4,1.0826359E5,8.228098E4,5.2468457E4,6.201993E4,6.5794445E4,8.450545E4,7.267471E4,1.0270164E5,6.3073906E4,7.572249E4,7.94989E4,6.779425E4,8.54142E4,1.1291919E5,1.3262283E5,1.03435805E5,8.718836E4,1.02846055E5,7.2731734E4,1.16558305E5,9.077759E4,1.04907336E5,1.0217994E5,1.1727921E5,1.2036418E5,1.3621622E5,9.903843E4,1.1732746E5,1.2834235E5,1.5479762E5,1.2843446E5,1.5952814E5,1.3014449E5,1.7033278E5],"split_indices":[39,30,29,27,27,0,0,39,39,39,44,26,39,30,30,13,25,6,4,23,11,39,39,9,51,27,20,5,30,39,30,6,26,39,29,39,28,25,0,30,0,50,0,46,33,44,0,30,7,7,30,50,30,21,25,28,30,39,39,26,43,2,25,0,0,0,0,0,0,0,0,0,0,0,0,0,0,0,0,0,0,0,0,0,0,0,0,0,0,0,0,0,0,0,0,0,0,0,0,0,0,0,0,0,0,0,0,0,0,0,0,0,0,0,0,0,0,0,0],"split_type":[0,0,0,0,0,0,0,0,0,0,0,0,0,0,0,0,0,0,0,0,0,0,0,0,0,0,0,0,0,0,0,0,0,0,0,0,0,0,0,0,0,0,0,0,0,0,0,0,0,0,0,0,0,0,0,0,0,0,0,0,0,0,0,0,0,0,0,0,0,0,0,0,0,0,0,0,0,0,0,0,0,0,0,0,0,0,0,0,0,0,0,0,0,0,0,0,0,0,0,0,0,0,0,0,0,0,0,0,0,0,0,0,0,0,0,0,0,0,0],"sum_hessian":[9.9216E4,2.7996E4,7.122E4,2.6945E4,1.051E3,6.3974E4,7.246E3,2.184E4,5.105E3,3.25E2,7.26E2,3.4268E4,2.9706E4,4.032E3,3.214E3,5.482E3,1.6358E4,4.167E3,9.38E2,9.6E1,2.29E2,5.04E2,2.22E2,2.0424E4,1.3844E4,2.3755E4,5.951E3,2.493E3,1.539E3,1.003E3,2.211E3,3.546E3,1.936E3,1.3612E4,2.746E3,2.43E3,1.737E3,8.85E2,5.3E1,4.7E1,4.9E1,2.06E2,2.3E1,1.59E2,3.45E2,1.27E2,9.5E1,1.8361E4,2.063E3,2.054E3,1.179E4,1.2431E4,1.1324E4,4.403E3,1.548E3,5.65E2,1.928E3,1.02E3,5.19E2,7.68E2,2.35E2,2.084E3,1.27E2,2.285E3,1.261E3,9.02E2,1.034E3,1.076E4,2.852E3,2.07E2,2.539E3,2.16E2,2.214E3,1.044E3,6.93E2,1.31E2,7.54E2,3.1E1,1.6E1,6.5E1,1.41E2,1.6E1,1.43E2,3.1E2,3.5E1,1.1E2,1.7E1,7.336E3,1.1025E4,9.28E2,1.135E3,5.28E2,1.526E3,4.639E3,7.151E3,4.327E3,8.104E3,9.933E3,1.391E3,2.63E2,4.14E3,1.214E3,3.34E2,5.26E2,3.9E1,1.025E3,9.03E2,4.04E2,6.16E2,2.14E2,3.05E2,4.32E2,3.36E2,1.65E2,7E1,1.916E3,1.68E2,1.8E1,1.09E2],"tree_param":{"num_deleted":"0","num_feature":"53","num_nodes":"119","size_leaf_vector":"0"}},{"base_weights":[1.6413725E5,1.1767129E5,1.832756E5,1.06958016E5,1.5643977E5,1.7104338E5,2.4860138E5,9.9446664E4,1.31672E5,1.3138766E5,2.1620658E5,1.6295222E5,2.3443208E5,2.3364498E5,3.1819016E5,8.596438E4,1.0473327E5,1.18557164E5,1.5517547E5,1.25302875E5,2.2078184E5,9.064537E4,2.2342598E5,1.5577967E5,2.2587886E5,2.2543228E5,3.327097E5,2.0487467E5,2.682063E5,3.4195956E5,2.8150138E5,7.427349E4,9.261718E4,1.1962714E5,9.859186E4,1.1222098E5,1.3545634E5,1.2947604E5,1.7378856E5,9.186704E4,1.3389405E5,1.6281364E5,2.4586438E5,1.1599261E5,5.0780848E4,2.0581884E5,2.6326988E5,1.7169652E5,1.3835516E5,3.0605234E5,2.1071562E5,2.0799506E5,2.4416622E5,2.9819175E5,3.6647556E5,1.9416738E5,2.8103256E5,2.196708E5,2.95905E5,3.046886E5,3.5592862E5,2.7053125E5,3.332242E5,8.068062E4,5.5347926E4,9.87427E4,8.575539E4,9.573207E4,1.2644456E5,9.220189E4,1.0972569E5,1.1374499E5,6.611532E4,1.5449872E5,1.26616336E5,1.2593227E5,3.271292E5,1.8825633E5,1.5338919E5,8.802718E4,1.1747332E5,1.2648216E5,1.6667517E5,8.743773E4,1.8460356E5,1.997866E5,2.718833E5,1.0195023E5,1.427325E5,3.3626348E4,6.988274E4,1.633197E5,2.2206825E5,2.2828494E5,2.7657128E5,2.6293656E5,1.6591358E5,1.7540772E5,1.3154217E5,2.8001778E5,5.341939E5,1.9316344E5,2.370835E5,2.2803919E5,1.8947861E5,2.48981E5,1.6888078E5,2.6185939E5,3.2391284E5,3.2912803E5,3.8217756E5,1.7725027E5,2.255662E5,3.3505422E5,2.318163E5,1.8884216E5,2.5076622E5,2.7378584E5,3.3747434E5,2.931268E5,4.522708E5,3.256628E5,3.807928E5,2.8661416E5,2.3652122E5,3.5431925E5,3.0446794E5],"categories":[],"categories_nodes":[],"categories_segments":[],"categories_sizes":[],"default_left":[1,1,1,1,1,1,1,1,1,1,1,1,1,1,1,1,1,1,1,1,1,1,1,1,1,1,1,1,1,1,1,1,1,1,1,1,1,1,1,1,1,1,1,1,1,1,1,1,1,1,1,1,1,1,1,1,1,1,1,1,1,1,1,0,0,0,0,0,0,0,0,0,0,0,0,0,0,0,0,0,0,0,0,0,0,0,0,0,0,0,0,0,0,0,0,0,0,0,0,0,0,0,0,0,0,0,0,0,0,0,0,0,0,0,0,0,0,0,0,0,0,0,0,0,0,0,0],"id":3,"left_children":[1,3,5,7,9,11,13,15,17,19,21,23,25,27,29,31,33,35,37,39,41,43,45,47,49,51,53,55,57,59,61,63,65,67,69,71,73,75,77,79,81,83,85,87,89,91,93,95,97,99,101,103,105,107,109,111,113,115,117,119,121,123,125,-1,-1,-1,-1,-1,-1,-1,-1,-1,-1,-1,-1,-1,-1,-1,-1,-1,-1,-1,-1,-1,-1,-1,-1,-1,-1,-1,-1,-1,-1,-1,-1,-1,-1,-1,-1,-1,-1,-1,-1,-1,-1,-1,-1,-1,-1,-1,-1,-1,-1,-1,-1,-1,-1,-1,-1,-1,-1,-1,-1,-1,-1,-1,-1],"loss_changes":[8.821782E13,1.2011581E13,5.6125827E13,4.201988E12,9.363381E12,3.0333878E13,1.1486554E13,1.2342159E12,1.6172565E12,2.3848141E12,1.6637713E12,2.3669833E13,5.8771594E12,9.037081E12,1.646969E12,3.77005E11,1.1352807E12,3.538147E11,8.9006906E11,1.180424E12,3.8260336E11,9.89395E10,1.1923148E12,1.3054285E13,6.48686E12,1.9730006E12,5.840652E11,4.0275888E12,5.527925E12,5.484388E11,3.81732E11,2.1318913E11,1.2586058E11,5.8601977E11,6.231645E11,1.6894657E11,1.4287058E11,5.3181468E11,3.047078E11,7.675943E10,7.8587835E11,1.3202044E11,1.9884671E11,1.3884326E10,1.1811144E10,8.1644644E11,2.0823042E11,1.2965097E13,5.6650954E12,4.9693275E12,2.0617185E12,1.154155E12,1.0446669E12,2.0840238E11,8.4729135E10,2.2956432E12,1.5795204E12,1.4151833E12,2.3647654E12,4.7489797E11,5.674306E11,3.0790805E11,1.1976835E10,0E0,0E0,0E0,0E0,0E0,0E0,0E0,0E0,0E0,0E0,0E0,0E0,0E0,0E0,0E0,0E0,0E0,0E0,0E0,0E0,0E0,0E0,0E0,0E0,0E0,0E0,0E0,0E0,0E0,0E0,0E0,0E0,0E0,0E0,0E0,0E0,0E0,0E0,0E0,0E0,0E0,0E0,0E0,0E0,0E0,0E0,0E0,0E0,0E0,0E0,0E0,0E0,0E0,0E0,0E0,0E0,0E0,0E0,0E0,0E0,0E0,0E0,0E0,0E0],"parents":[2147483647,0,0,1,1,2,2,3,3,4,4,5,5,6,6,7,7,8,8,9,9,10,10,11,11,12,12,13,13,14,14,15,15,16,16,17,17,18,18,19,19,20,20,21,21,22,22,23,23,24,24,25,25,26,26,27,27,28,28,29,29,30,30,31,31,32,32,33,33,34,34,35,35,36,36,37,37,38,38,39,39,40,40,41,41,42,42,43,43,44,44,45,45,46,46,47,47,48,48,49,49,50,50,51,51,52,52,53,53,54,54,55,55,56,56,57,57,58,58,59,59,60,60,61,61,62,62],"right_children":[2,4,6,8,10,12,14,16,18,20,22,24,26,28,30,32,34,36,38,40,42,44,46,48,50,52,54,56,58,60,62,64,66,68,70,72,74,76,78,80,82,84,86,88,90,92,94,96,98,100,102,104,106,108,110,112,114,116,118,120,122,124,126,-1,-1,-1,-1,-1,-1,-1,-1,-1,-1,-1,-1,-1,-1,-1,-1,-1,-1,-1,-1,-1,-1,-1,-1,-1,-1,-1,-1,-1,-1,-1,-1,-1,-1,-1,-1,-1,-1,-1,-1,-1,-1,-1,-1,-1,-1,-1,-1,-1,-1,-1,-1,-1,-1,-1,-1,-1,-1,-1,-1,-1,-1,-1,-1],"split_conditions":[-4.6452063E-1,4.3070313E-1,8.796337E-1,-9.629859E-1,5E-1,9.8448455E-1,1.2292432E0,-8.421862E-1,7.774904E-2,9.574045E-1,5E-1,1.4499605E0,3.0414486E0,1.512378E0,-8.3143604E-1,-1.3165951E0,-7.6566696E-1,5E-1,5E-1,5E-1,-1.2122185E0,5E-1,1.05500504E-1,5E-1,-2.357351E-1,-3.7553188E-1,-7.594142E-3,1.5227644E0,-2.2453368E-1,-6.6135824E-1,1.1951461E0,5E-1,-4.5013756E-1,-1.6078115E0,5E-1,-1.921229E-2,-4.1213477E-1,5E-1,-1.8619491E-1,1.5955687E0,1.5227644E0,-6.2717474E-1,6.624861E-2,-1.6558897E-1,3.953014E-1,-1.4250961E-1,1.3407543E0,-1.3395824E0,-9.714861E-1,-2.8368706E-1,-1.7374924E-1,5E-1,1.9293085E0,-6.9345796E-1,-3.7553188E-1,5E-1,3.3955526E-1,6.570262E-1,5E-1,2.4847322E0,6.98565E-1,-4.5945233E-1,3.2243076E-1,2.4204186E4,1.6604379E4,2.9622812E4,2.572662E4,2.8719623E4,3.793337E4,2.7660568E4,3.2917707E4,3.41235E4,1.9834598E4,4.6349617E4,3.7984902E4,3.7779684E4,9.813876E4,5.6476902E4,4.6016758E4,2.6408154E4,3.5241996E4,3.794465E4,5.0002555E4,2.6231318E4,5.538107E4,5.993598E4,8.1565E4,3.0585068E4,4.281975E4,1.0087904E4,2.0964824E4,4.8995914E4,6.662048E4,6.8485484E4,8.297139E4,7.888097E4,4.9774074E4,5.2622316E4,3.9462652E4,8.4005336E4,1.6025817E5,5.7949035E4,7.1125055E4,6.841176E4,5.6843586E4,7.4694305E4,5.066424E4,7.855782E4,9.717386E4,9.8738414E4,1.1465327E5,5.3175082E4,6.766987E4,1.0051627E5,6.954489E4,5.665265E4,7.522987E4,8.213576E4,1.01242305E5,8.793805E4,1.3568125E5,9.769884E4,1.1423785E5,8.598425E4,7.095637E4,1.0629578E5,9.134038E4],"split_indices":[39,52,25,39,9,24,24,29,29,26,1,52,24,25,51,52,40,9,2,1,39,18,44,8,51,30,39,52,52,52,52,8,40,52,13,24,50,4,43,52,52,42,43,44,40,42,52,51,40,48,39,8,45,41,30,0,40,39,0,39,39,46,46,0,0,0,0,0,0,0,0,0,0,0,0,0,0,0,0,0,0,0,0,0,0,0,0,0,0,0,0,0,0,0,0,0,0,0,0,0,0,0,0,0,0,0,0,0,0,0,0,0,0,0,0,0,0,0,0,0,0,0,0,0,0,0,0],"split_type":[0,0,0,0,0,0,0,0,0,0,0,0,0,0,0,0,0,0,0,0,0,0,0,0,0,0,0,0,0,0,0,0,0,0,0,0,0,0,0,0,0,0,0,0,0,0,0,0,0,0,0,0,0,0,0,0,0,0,0,0,0,0,0,0,0,0,0,0,0,0,0,0,0,0,0,0,0,0,0,0,0,0,0,0,0,0,0,0,0,0,0,0,0,0,0,0,0,0,0,0,0,0,0,0,0,0,0,0,0,0,0,0,0,0,0,0,0,0,0,0,0,0,0,0,0,0,0],"sum_hessian":[9.9216E4,2.8945E4,7.0271E4,2.268E4,6.265E3,5.919E4,1.1081E4,1.7396E4,5.284E3,4.416E3,1.849E3,5.2492E4,6.698E3,9.123E3,1.958E3,4.903E3,1.2493E4,3.394E3,1.89E3,4.136E3,2.8E2,1.01E2,1.748E3,4.7123E4,5.369E3,6.138E3,5.6E2,4.981E3,4.142E3,1.185E3,7.73E2,1.781E3,3.122E3,3.644E3,8.849E3,2.472E3,9.22E2,7.96E2,1.094E3,8.47E2,3.289E3,8.6E1,1.94E2,6.1E1,4E1,1.215E3,5.33E2,2.4624E4,2.2499E4,8.52E2,4.517E3,3.183E3,2.955E3,2.8E2,2.8E2,4.369E3,6.12E2,1.507E3,2.635E3,3.27E2,8.58E2,6.41E2,1.32E2,1.329E3,4.52E2,1.645E3,1.477E3,8.11E2,2.833E3,5.626E3,3.223E3,2.392E3,8E1,2.89E2,6.33E2,7.83E2,1.3E1,6.37E2,4.57E2,7.39E2,1.08E2,2.685E3,6.04E2,2E1,6.6E1,7.2E1,1.22E2,4.2E1,1.9E1,2.2E1,1.8E1,3.38E2,8.77E2,1.5E2,3.83E2,1.466E3,2.3158E4,3.492E3,1.9007E4,7.66E2,8.6E1,2.715E3,1.802E3,1.525E3,1.658E3,2.776E3,1.79E2,1.19E2,1.61E2,8.7E1,1.93E2,2.842E3,1.527E3,2.9E2,3.22E2,7.59E2,7.48E2,1.723E3,9.12E2,3.05E2,2.2E1,3.91E2,4.67E2,4.32E2,2.09E2,7.2E1,6E1],"tree_param":{"num_deleted":"0","num_feature":"53","num_nodes":"127","size_leaf_vector":"0"}},{"base_weights":[1.149215E5,9.8578805E4,1.4518745E5,8.414108E4,1.2888064E5,1.3207173E5,1.7961219E5,6.972463E4,9.37615E4,1.6844516E5,1.1011835E5,1.1240155E5,1.456511E5,2.1109073E5,1.5765897E5,6.2283707E4,7.734673E4,1.1823858E5,8.4877875E4,1.3935045E5,1.9381058E5,1.0622288E5,1.7827414E5,9.93193E4,1.4560252E5,1.7140562E5,1.3164302E5,1.8617008E5,2.5401922E5,2.0558992E5,1.4312256E5,2.5236105E4,6.3350844E4,6.975644E4,8.729146E4,1.03850516E5,1.4595144E5,9.489359E4,6.985224E4,1.0099102E5,1.561657E5,1.602903E5,2.0500178E5,1.2892502E5,9.6296305E4,1.9914233E5,1.0634302E5,9.501471E4,1.50132E5,2.0264073E5,1.3589392E5,2.4493798E5,1.5620923E5,1.2399299E5,1.7225795E5,1.3247758E5,1.9718114E5,2.4946778E5,3.8427572E5,1.8881777E5,2.9703947E5,1.3022214E5,1.8422408E5,2.1098236E4,3.488674E4,5.905039E4,7.002432E4,3.2096574E4,7.14651E4,6.5368047E4,9.390224E4,2.4882145E5,1.0192736E5,1.27383414E5,1.6581395E5,8.637297E4,1.06406445E5,7.1755555E4,1.5898514E4,5.6775934E4,1.1204621E5,1.3965928E5,1.9758034E5,1.6765269E5,1.178302E5,1.8335114E5,2.2318972E5,1.4623534E5,9.7108414E4,9.092601E4,1.4316219E5,1.0159624E5,2.0845694E5,1.6121064E5,9.546806E4,1.1577949E5,9.094045E4,9.970281E4,1.6484719E5,2.914228E5,1.6417617E5,1.2888098E5,1.736572E5,1.974389E5,3.193762E5,1.7199188E5,1.1655757E5,1.1268029E5,1.5920162E5,2.6257178E5,1.6642534E5,1.3737861E5,7.950076E4,1.7079994E5,2.1973077E5,2.3601939E5,2.8190734E5,1.7529977E5,2.7642366E5,2.4884028E5,3.2239622E5,1.08431266E5,1.6784323E5,1.3641162E5,2.0519431E5],"categories":[],"categories_nodes":[],"categories_segments":[],"categories_sizes":[],"default_left":[1,1,1,1,1,1,1,1,1,1,1,1,1,1,1,1,1,1,1,1,1,1,1,1,1,1,1,1,1,1,1,1,1,1,1,1,1,1,1,1,1,1,1,1,1,1,1,1,1,1,1,1,1,1,1,1,1,1,0,1,1,1,1,0,0,0,0,0,0,0,0,0,0,0,0,0,0,0,0,0,0,0,0,0,0,0,0,0,0,0,0,0,0,0,0,0,0,0,0,0,0,0,0,0,0,0,0,0,0,0,0,0,0,0,0,0,0,0,0,0,0,0,0,0,0],"id":4,"left_children":[1,3,5,7,9,11,13,15,17,19,21,23,25,27,29,31,33,35,37,39,41,43,45,47,49,51,53,55,57,59,61,63,65,67,69,71,73,75,77,79,81,83,85,87,89,91,93,95,97,99,101,103,105,107,109,111,113,115,-1,117,119,121,123,-1,-1,-1,-1,-1,-1,-1,-1,-1,-1,-1,-1,-1,-1,-1,-1,-1,-1,-1,-1,-1,-1,-1,-1,-1,-1,-1,-1,-1,-1,-1,-1,-1,-1,-1,-1,-1,-1,-1,-1,-1,-1,-1,-1,-1,-1,-1,-1,-1,-1,-1,-1,-1,-1,-1,-1,-1,-1,-1,-1,-1,-1],"loss_changes":[4.906611E13,2.8180354E13,1.5691663E13,6.048287E12,1.542155E13,6.7187717E12,6.609988E12,9.876747E11,5.6845067E12,4.917553E12,3.7327125E12,4.4609024E12,5.36173E12,4.1856805E12,3.9218252E12,3.4856763E11,6.4728596E11,2.768593E12,2.8859328E12,2.0002678E12,1.3185801E12,2.9991455E12,1.1298008E12,1.60615E12,1.5926276E12,5.839545E12,2.98616E12,1.4588377E12,7.9619634E11,1.9807685E12,2.2867933E12,9.45442E9,2.4401832E11,3.1355568E11,5.3691705E11,1.2631901E12,8.641986E11,1.1243839E12,7.8830266E11,4.6110815E11,1.4629019E12,2.6773081E11,1.027227E12,2.2257284E12,2.329013E12,5.2227473E11,9.3215785E10,5.6939774E11,4.1670725E11,1.4094707E12,6.44308E11,3.1337575E12,2.7099146E12,3.22547E12,7.7747297E11,1.0381794E11,1.207364E12,5.6790876E11,0E0,1.2868586E12,1.9671495E11,2.699194E12,1.0205748E12,0E0,0E0,0E0,0E0,0E0,0E0,0E0,0E0,0E0,0E0,0E0,0E0,0E0,0E0,0E0,0E0,0E0,0E0,0E0,0E0,0E0,0E0,0E0,0E0,0E0,0E0,0E0,0E0,0E0,0E0,0E0,0E0,0E0,0E0,0E0,0E0,0E0,0E0,0E0,0E0,0E0,0E0,0E0,0E0,0E0,0E0,0E0,0E0,0E0,0E0,0E0,0E0,0E0,0E0,0E0,0E0,0E0,0E0,0E0,0E0,0E0,0E0],"parents":[2147483647,0,0,1,1,2,2,3,3,4,4,5,5,6,6,7,7,8,8,9,9,10,10,11,11,12,12,13,13,14,14,15,15,16,16,17,17,18,18,19,19,20,20,21,21,22,22,23,23,24,24,25,25,26,26,27,27,28,28,29,29,30,30,31,31,32,32,33,33,34,34,35,35,36,36,37,37,38,38,39,39,40,40,41,41,42,42,43,43,44,44,45,45,46,46,47,47,48,48,49,49,50,50,51,51,52,52,53,53,54,54,55,55,56,56,57,57,59,59,60,60,61,61,62,62],"right_children":[2,4,6,8,10,12,14,16,18,20,22,24,26,28,30,32,34,36,38,40,42,44,46,48,50,52,54,56,58,60,62,64,66,68,70,72,74,76,78,80,82,84,86,88,90,92,94,96,98,100,102,104,106,108,110,112,114,116,-1,118,120,122,124,-1,-1,-1,-1,-1,-1,-1,-1,-1,-1,-1,-1,-1,-1,-1,-1,-1,-1,-1,-1,-1,-1,-1,-1,-1,-1,-1,-1,-1,-1,-1,-1,-1,-1,-1,-1,-1,-1,-1,-1,-1,-1,-1,-1,-1,-1,-1,-1,-1,-1,-1,-1,-1,-1,-1,-1,-1,-1,-1,-1,-1,-1],"split_conditions":[3.662548E-1,6.491154E-1,5.1125664E-1,-9.629859E-1,-2.368394E-1,-3.7553188E-1,-6.595244E-1,-3.7553188E-1,-7.496057E-1,5E-1,5E-1,1.3631854E0,-2.6913077E-2,6.6682674E-2,-1.1093473E0,-2.0845327E0,-1.981973E-1,9.1839E-2,-2.6913077E-2,-1.0460634E0,-1.0460634E0,5E-1,9.1313374E-1,1.4499605E0,-8.865727E-1,5E-1,1.3043523E0,5.7409143E-1,1.4499605E0,4.1483974E-1,8.311256E-1,3.2686135E-1,-2.11195E-1,-1.7729919E0,-1.6078115E0,-1.6942399E0,-5.8855414E-1,-1.3221046E-1,2.0596952E0,5E-1,5E-1,-1.9241437E-1,1.2315481E0,-2.803298E-1,1.5955687E0,-1.2537574E0,-4.6880838E-2,-9.596819E-1,-9.325377E-1,5E-1,2.193961E0,-3.7014186E-1,1.806448E0,1.1970303E0,-9.803198E-1,1.0061797E0,1.1139528E0,7.8164256E-1,1.1528272E5,8.311256E-1,1.3877794E-1,1.2801077E0,1.8327346E-1,6.329471E3,1.0466021E4,1.7715117E4,2.1007297E4,9.628973E3,2.1439531E4,1.9610414E4,2.8170674E4,7.464644E4,3.0578209E4,3.8215027E4,4.9744188E4,2.5911893E4,3.1921936E4,2.1526668E4,4.769554E3,1.7032781E4,3.3613863E4,4.1897785E4,5.9274105E4,5.029581E4,3.5349062E4,5.5005344E4,6.695692E4,4.3870605E4,2.9132525E4,2.7277803E4,4.2948656E4,3.0478873E4,6.2537082E4,4.8363195E4,2.864042E4,3.4733848E4,2.7282137E4,2.9910846E4,4.945416E4,8.742684E4,4.9252855E4,3.8664293E4,5.2097164E4,5.9231676E4,9.581286E4,5.1597566E4,3.4967273E4,3.380409E4,4.776049E4,7.877154E4,4.9927605E4,4.1213586E4,2.3850229E4,5.1239984E4,6.5919234E4,7.080582E4,8.45722E4,5.2589934E4,8.29271E4,7.4652086E4,9.671887E4,3.252938E4,5.0352973E4,4.092349E4,6.1558297E4],"split_indices":[39,52,27,39,45,30,40,30,40,10,15,39,50,52,48,39,26,29,50,39,39,5,40,52,43,21,52,27,52,44,52,42,29,39,52,47,52,39,43,1,16,40,52,47,52,39,29,43,49,8,39,52,45,39,40,29,39,39,0,52,30,39,28,0,0,0,0,0,0,0,0,0,0,0,0,0,0,0,0,0,0,0,0,0,0,0,0,0,0,0,0,0,0,0,0,0,0,0,0,0,0,0,0,0,0,0,0,0,0,0,0,0,0,0,0,0,0,0,0,0,0,0,0,0,0],"split_type":[0,0,0,0,0,0,0,0,0,0,0,0,0,0,0,0,0,0,0,0,0,0,0,0,0,0,0,0,0,0,0,0,0,0,0,0,0,0,0,0,0,0,0,0,0,0,0,0,0,0,0,0,0,0,0,0,0,0,0,0,0,0,0,0,0,0,0,0,0,0,0,0,0,0,0,0,0,0,0,0,0,0,0,0,0,0,0,0,0,0,0,0,0,0,0,0,0,0,0,0,0,0,0,0,0,0,0,0,0,0,0,0,0,0,0,0,0,0,0,0,0,0,0,0,0],"sum_hessian":[9.9216E4,6.4429E4,3.4787E4,4.3639E4,2.079E4,2.5192E4,9.595E3,1.7468E4,2.6171E4,6.686E3,1.4104E4,1.0291E4,1.4901E4,3.94E3,5.655E3,8.842E3,8.626E3,6.967E3,1.9204E4,3.116E3,3.57E3,1.3343E4,7.61E2,7.384E3,2.907E3,5.247E3,9.654E3,2.495E3,1.445E3,1.314E3,4.341E3,2.48E2,8.594E3,4.895E3,3.731E3,4.588E3,2.379E3,1.1521E4,7.683E3,9.51E2,2.165E3,8.96E2,2.674E3,4.057E3,9.286E3,5.89E2,1.72E2,6.809E3,5.75E2,4.21E2,2.486E3,8.97E2,4.35E3,8.126E3,1.528E3,4.26E2,2.069E3,1.398E3,4.7E1,1.112E3,2.02E2,3.306E3,1.035E3,1.75E2,7.3E1,5.23E3,3.364E3,2.13E2,4.682E3,8.66E2,2.865E3,5.9E1,4.529E3,1.232E3,1.147E3,6.624E3,4.897E3,7.421E3,2.62E2,1.91E2,7.6E2,1.55E3,6.15E2,7.62E2,1.34E2,1.224E3,1.45E3,2.626E3,1.431E3,8.333E3,9.53E2,5.2E1,5.37E2,2.7E1,1.45E2,1.114E3,5.695E3,1.31E2,4.44E2,1.26E2,2.95E2,2.099E3,3.87E2,5.49E2,3.48E2,3.11E3,1.24E3,6.152E3,1.974E3,9.1E1,1.437E3,3.89E2,3.7E1,9.56E2,1.113E3,9.92E2,4.06E2,9.65E2,1.47E2,7.2E1,1.3E2,2.095E3,1.211E3,3.17E2,7.18E2],"tree_param":{"num_deleted":"0","num_feature":"53","num_nodes":"125","size_leaf_vector":"0"}},{"base_weights":[8.046328E4,6.878074E4,1.03943555E5,5.936789E4,8.953664E4,1.1735391E5,8.5623836E4,6.948169E4,5.2416504E4,8.022776E4,1.3235148E5,1.1026875E5,1.6035283E5,7.882139E4,1.1338736E5,5.3316293E4,7.965352E4,5.204152E4,2.4032456E5,5.958401E4,8.675789E4,1.1746622E5,1.6603194E5,1.1620485E5,6.900755E4,1.9024964E5,1.192469E5,6.9764586E4,1.0759514E5,9.778102E4,1.3767247E5,4.716608E4,6.590389E4,8.6128305E4,4.953468E4,2.1319127E4,5.369425E4,2.020449E5,3.112015E5,3.6981527E4,6.597735E4,7.830278E4,1.0645875E5,1.2564271E5,7.867361E4,2.1071903E5,1.5476958E5,1.3922552E5,9.926903E4,6.3523836E4,1.8483542E5,1.8002981E5,2.3775023E5,1.6473197E5,8.609631E4,8.807323E4,5.8994867E4,1.521927E5,9.544E4,1.6354078E5,9.316966E4,2.2367353E5,1.3445666E5,3.7088895E4,5.3073297E4,4.4100793E4,7.476936E4,7.134045E4,9.619057E4,3.5007766E4,5.4293297E4,2.5445424E4,-2.7516672E4,4.7324156E4,6.6301664E4,3.486682E4,4.974791E4,6.4043176E4,1.39856E5,7.471195E4,1.4987836E5,1.3016155E5,9.5058734E4,9.8080516E4,1.3496153E5,5.4185367E4,1.4868425E5,1.6864586E5,2.2818939E5,1.3403572E5,1.7749466E5,1.2486682E5,1.7178514E5,2.1677839E5,9.66846E4,5.812965E4,8.28251E4,1.6553816E5,2.4707848E5,1.6812712E5,2.1728556E5,2.869407E5,1.647357E5,3.5844378E5,1.5124164E5,7.585412E4,1.8094564E5,1.05864445E5,8.046158E4,2.131067E4,6.1711508E4,1.8492927E5,1.28558875E5,8.974461E4,1.6746888E5,8.672531E4,1.4907225E5,1.8709744E5,2.5115752E5,1.8832917E5,1.2937925E5],"categories":[],"categories_nodes":[],"categories_segments":[],"categories_sizes":[],"default_left":[1,1,1,1,1,1,1,1,1,1,1,1,1,1,1,1,1,1,1,1,1,1,1,1,1,1,1,1,1,1,1,1,1,1,1,1,1,0,0,1,1,1,1,1,1,1,1,1,1,1,1,1,1,1,1,1,1,1,1,0,1,1,1,0,0,0,0,0,0,0,0,0,0,0,0,0,0,0,0,0,0,0,0,0,0,0,0,0,0,0,0,0,0,0,0,0,0,0,0,0,0,0,0,0,0,0,0,0,0,0,0,0,0,0,0,0,0,0,0,0,0],"id":5,"left_children":[1,3,5,7,9,11,13,15,17,19,21,23,25,27,29,31,33,35,37,39,41,43,45,47,49,51,53,55,57,59,61,63,65,67,69,71,73,-1,-1,75,77,79,81,83,85,87,89,91,93,95,97,99,101,103,105,107,109,111,113,-1,115,117,119,-1,-1,-1,-1,-1,-1,-1,-1,-1,-1,-1,-1,-1,-1,-1,-1,-1,-1,-1,-1,-1,-1,-1,-1,-1,-1,-1,-1,-1,-1,-1,-1,-1,-1,-1,-1,-1,-1,-1,-1,-1,-1,-1,-1,-1,-1,-1,-1,-1,-1,-1,-1,-1,-1,-1,-1,-1,-1],"loss_changes":[2.7211436E13,1.2940938E13,8.0916513E12,3.2024853E12,8.2317075E12,5.786227E12,2.6258189E12,3.0502405E12,1.8958254E12,2.2858034E12,1.8378769E12,3.9969704E12,3.2921973E12,2.9122563E12,1.03014203E12,5.532958E11,2.219374E12,1.3684672E12,1.0558479E11,5.8840003E11,2.1432558E12,8.062207E11,5.4779707E11,5.5600197E12,1.2988281E12,7.284751E11,1.7018378E12,1.675788E12,1.4428175E12,4.9691178E11,2.7698345E11,2.857013E11,4.526451E11,1.3910158E12,1.3825789E11,2.7805195E11,2.0530279E12,0E0,0E0,2.3230415E10,4.4893104E11,2.3131125E12,1.03829157E12,5.3471714E11,7.623053E11,1.4139628E11,4.111173E11,2.816064E12,2.4865596E12,2.0147497E11,8.527833E10,5.460061E11,9.527592E11,1.213733E12,6.301318E11,4.2150658E11,5.4825216E11,4.27927E11,8.5464816E11,0E0,5.547198E11,7.981105E9,2.6724008E11,0E0,0E0,0E0,0E0,0E0,0E0,0E0,0E0,0E0,0E0,0E0,0E0,0E0,0E0,0E0,0E0,0E0,0E0,0E0,0E0,0E0,0E0,0E0,0E0,0E0,0E0,0E0,0E0,0E0,0E0,0E0,0E0,0E0,0E0,0E0,0E0,0E0,0E0,0E0,0E0,0E0,0E0,0E0,0E0,0E0,0E0,0E0,0E0,0E0,0E0,0E0,0E0,0E0,0E0,0E0,0E0,0E0,0E0],"parents":[2147483647,0,0,1,1,2,2,3,3,4,4,5,5,6,6,7,7,8,8,9,9,10,10,11,11,12,12,13,13,14,14,15,15,16,16,17,17,18,18,19,19,20,20,21,21,22,22,23,23,24,24,25,25,26,26,27,27,28,28,29,29,30,30,31,31,32,32,33,33,34,34,35,35,36,36,39,39,40,40,41,41,42,42,43,43,44,44,45,45,46,46,47,47,48,48,49,49,50,50,51,51,52,52,53,53,54,54,55,55,56,56,57,57,58,58,60,60,61,61,62,62],"right_children":[2,4,6,8,10,12,14,16,18,20,22,24,26,28,30,32,34,36,38,40,42,44,46,48,50,52,54,56,58,60,62,64,66,68,70,72,74,-1,-1,76,78,80,82,84,86,88,90,92,94,96,98,100,102,104,106,108,110,112,114,-1,116,118,120,-1,-1,-1,-1,-1,-1,-1,-1,-1,-1,-1,-1,-1,-1,-1,-1,-1,-1,-1,-1,-1,-1,-1,-1,-1,-1,-1,-1,-1,-1,-1,-1,-1,-1,-1,-1,-1,-1,-1,-1,-1,-1,-1,-1,-1,-1,-1,-1,-1,-1,-1,-1,-1,-1,-1,-1,-1,-1],"split_conditions":[5E-1,6.491154E-1,3.762259E-1,-5.2440965E-1,5.3563035E-1,6.491154E-1,1.2315481E0,-1.0045247E0,3.3607454E0,-1.1706798E0,1.4499605E0,1.506061E0,2.5390232E-1,5E-1,2.86379E-1,6.824564E-1,6.360266E-1,-1.5350072E0,9.062588E-1,5E-1,1.4499605E0,1.4188495E0,-2.1379247E-1,-4.01521E-1,2.0693445E0,1.4499605E0,5E-1,-4.8749483E-1,1.2292432E0,5.739486E-1,5E-1,5E-1,-1.7534196E0,-3.0304185E-1,3.394463E-2,-5.060594E-1,5E-1,6.0613473E4,9.336045E4,1.8534915E0,1.5507159E0,1.7889414E0,4.2471772E-1,-9.2144716E-1,1.1375337E0,5E-1,-2.1528801E-1,-1.517296E-1,-2.1019807E0,5E-1,3.0039668E0,7.401037E-1,5E-1,-3.6688945E-1,1.5955687E0,-2.8335968E-2,-1.0010343E0,-5.666952E-1,3.273969E0,4.9062234E4,1.5955687E0,3.662548E-1,-1.0258825E0,1.1126669E4,1.5921989E4,1.3230238E4,2.2430809E4,2.1402137E4,2.8857172E4,1.050233E4,1.6287989E4,7.6336274E3,-8.255002E3,1.4197247E4,1.98905E4,1.0460047E4,1.4924374E4,1.9212953E4,4.19568E4,2.2413586E4,4.4963508E4,3.9048465E4,2.8517621E4,2.9424156E4,4.048846E4,1.625561E4,4.4605277E4,5.059376E4,6.845682E4,4.021072E4,5.32484E4,3.7460047E4,5.1535543E4,6.503352E4,2.900538E4,1.7438895E4,2.4847531E4,4.966145E4,7.412355E4,5.043814E4,6.518567E4,8.608221E4,4.9420715E4,1.0753314E5,4.5372492E4,2.2756236E4,5.4283695E4,3.1759334E4,2.4138475E4,6.393201E3,1.8513453E4,5.547878E4,3.8567664E4,2.6923385E4,5.0240664E4,2.6017596E4,4.4721676E4,5.6129234E4,7.534726E4,5.6498754E4,3.8813777E4],"split_indices":[0,52,50,40,23,52,52,39,24,39,52,45,40,2,24,23,50,52,39,1,52,38,46,40,39,52,8,40,24,39,4,6,52,27,39,39,9,0,0,40,48,24,40,39,27,2,39,52,48,4,39,39,11,23,52,45,26,47,39,0,52,39,40,0,0,0,0,0,0,0,0,0,0,0,0,0,0,0,0,0,0,0,0,0,0,0,0,0,0,0,0,0,0,0,0,0,0,0,0,0,0,0,0,0,0,0,0,0,0,0,0,0,0,0,0,0,0,0,0,0,0],"split_type":[0,0,0,0,0,0,0,0,0,0,0,0,0,0,0,0,0,0,0,0,0,0,0,0,0,0,0,0,0,0,0,0,0,0,0,0,0,0,0,0,0,0,0,0,0,0,0,0,0,0,0,0,0,0,0,0,0,0,0,0,0,0,0,0,0,0,0,0,0,0,0,0,0,0,0,0,0,0,0,0,0,0,0,0,0,0,0,0,0,0,0,0,0,0,0,0,0,0,0,0,0,0,0,0,0,0,0,0,0,0,0,0,0,0,0,0,0,0,0,0,0],"sum_hessian":[9.9216E4,6.6254E4,3.2962E4,4.5584E4,2.067E4,1.9029E4,1.3933E4,1.8566E4,2.7018E4,1.698E4,3.69E3,1.6339E4,2.69E3,1.1193E4,2.74E3,7.172E3,1.1394E4,2.6965E4,5.3E1,4.082E3,1.2898E4,2.561E3,1.129E3,1.4283E4,2.056E3,1.556E3,1.134E3,8.515E3,2.678E3,1.67E3,1.07E3,4.82E3,2.352E3,9.377E3,2.017E3,1.377E3,2.5588E4,3.6E1,1.7E1,9.01E2,3.181E3,9.027E3,3.871E3,2.114E3,4.47E2,2.25E2,9.04E2,6.052E3,8.231E3,1.964E3,9.2E1,1.283E3,2.73E2,4.77E2,6.57E2,3.152E3,5.363E3,5.72E2,2.106E3,1.08E2,1.562E3,3.7E1,1.033E3,1.783E3,3.037E3,6.81E2,1.671E3,3.799E3,5.578E3,4.99E2,1.518E3,1.27E3,1.07E2,1.7001E4,8.587E3,7.75E2,1.26E2,3.101E3,8E1,8.597E3,4.3E2,1.255E3,2.616E3,5.36E2,1.578E3,3.32E2,1.15E2,6.8E1,1.57E2,4.75E2,4.29E2,4.202E3,1.85E3,1.76E2,8.055E3,1.537E3,4.27E2,7.2E1,2E1,9.75E2,3.08E2,1.62E2,1.11E2,3E1,4.47E2,5.94E2,6.3E1,9.42E2,2.21E3,3.61E2,5.002E3,2.38E2,3.34E2,1.953E3,1.53E2,1.402E3,1.6E2,1.8E1,1.9E1,8.7E1,9.46E2],"tree_param":{"num_deleted":"0","num_feature":"53","num_nodes":"121","size_leaf_vector":"0"}},{"base_weights":[5.6339152E4,4.9813062E4,8.351827E4,4.6089367E4,8.5344734E4,9.9095055E4,6.755339E4,2.7927234E4,5.1094688E4,8.044402E4,1.23950484E5,7.685771E4,1.16236266E5,6.120331E4,8.913693E4,2.2383992E4,3.325765E4,3.8981094E4,5.9303293E4,7.344244E4,1.0485905E5,1.4872783E5,9.773532E4,5.2334797E4,8.892313E4,7.033088E4,1.2252319E5,1.0218592E4,6.2979414E4,1.3016251E5,8.209716E4,2.1293365E4,4.9940023E4,3.2893266E4,1.4122064E5,5.242331E4,3.5570707E4,7.971222E4,5.376006E4,5.3992023E4,8.0142484E4,1.24492516E5,9.447924E4,1.234041E5,1.833285E5,8.657701E4,1.587697E5,7.3804164E4,4.3769965E4,3.71066E4,9.634987E4,5.0798883E4,1.4195092E5,1.3723556E5,1.0675568E5,-1.8260209E4,1.3047274E4,5.7899035E4,8.26923E4,1.2205736E5,2.1851672E5,6.764312E4,9.7249875E4,2.535715E4,1.7576842E4,2.4252025E4,1.0583729E5,4.9785234E4,3.0788826E4,1.1427241E5,1.5835867E5,4.5608508E4,8.8433445E4,3.9686605E4,2.8577883E4,6.2221074E4,9.459156E4,5.0659746E4,7.476468E4,3.8341066E4,6.40307E4,7.390531E4,9.669348E4,4.1005957E4,1.3087837E5,7.713756E4,1.1159391E5,8.91649E4,1.4342528E5,2.1168694E5,1.4198008E5,9.03917E4,5.839051E3,1.1380272E5,1.8417528E5,6.608017E4,1.1294859E5,4.6562945E4,6.576395E3,2.2634047E4,5.2975363E4,8.877266E4,1.185358E5,7.376664E4,3.8663105E4,2.3578405E5,1.26193086E5,1.29397805E5,1.789864E5,1.2774851E5,9.018078E4,-2.5948785E4,-9.5648125E3,5.322905E3,1.884475E4,5.4001984E4,7.7219305E4,1.349784E5,8.064822E4,7.967641E4,1.28449984E5,2.5955427E5,1.6325511E5,8.3506E4,5.47331E4,9.378196E4,1.5408383E5],"categories":[],"categories_nodes":[],"categories_segments":[],"categories_sizes":[],"default_left":[1,1,1,1,1,1,1,1,1,1,1,1,1,1,1,1,1,1,1,1,1,1,1,1,1,1,1,1,1,1,1,1,1,1,1,1,1,1,1,1,1,1,1,1,1,1,1,1,1,1,1,1,1,1,1,1,1,1,1,1,1,1,1,0,0,0,0,0,0,0,0,0,0,0,0,0,0,0,0,0,0,0,0,0,0,0,0,0,0,0,0,0,0,0,0,0,0,0,0,0,0,0,0,0,0,0,0,0,0,0,0,0,0,0,0,0,0,0,0,0,0,0,0,0,0,0,0],"id":6,"left_children":[1,3,5,7,9,11,13,15,17,19,21,23,25,27,29,31,33,35,37,39,41,43,45,47,49,51,53,55,57,59,61,63,65,67,69,71,73,75,77,79,81,83,85,87,89,91,93,95,97,99,101,103,105,107,109,111,113,115,117,119,121,123,125,-1,-1,-1,-1,-1,-1,-1,-1,-1,-1,-1,-1,-1,-1,-1,-1,-1,-1,-1,-1,-1,-1,-1,-1,-1,-1,-1,-1,-1,-1,-1,-1,-1,-1,-1,-1,-1,-1,-1,-1,-1,-1,-1,-1,-1,-1,-1,-1,-1,-1,-1,-1,-1,-1,-1,-1,-1,-1,-1,-1,-1,-1,-1,-1],"loss_changes":[1.7595743E13,1.0583202E13,4.772816E12,6.5825575E12,1.4293894E12,3.6999633E12,1.2970088E12,4.6187256E11,5.643755E12,1.1465088E12,5.4522177E11,1.249674E12,1.5785431E12,6.636731E11,6.157679E11,2.2990448E11,3.1079163E11,1.05015935E12,3.825591E12,6.79666E11,2.981259E11,3.6907778E11,2.7499692E11,2.5493504E11,1.08932786E12,9.2234895E11,1.1103413E12,2.0099097E10,7.066647E11,2.0836096E11,3.9915723E11,1.1119729E11,4.1710885E11,2.8161186E11,7.910195E8,1.1359989E12,5.258252E11,1.8770265E12,1.7306873E12,2.0953432E11,3.9739353E11,2.7200848E11,2.864568E11,1.6641478E11,1.9622212E11,1.0856772E11,5.936775E10,1.1546906E11,1.0374545E11,8.113462E10,4.1031618E11,1.435722E11,1.9050843E11,8.016028E11,8.043165E11,1.3509857E9,1.0037404E10,4.2173307E11,1.4810821E11,7.19525E10,3.121152E10,1.905357E11,1.6772393E11,0E0,0E0,0E0,0E0,0E0,0E0,0E0,0E0,0E0,0E0,0E0,0E0,0E0,0E0,0E0,0E0,0E0,0E0,0E0,0E0,0E0,0E0,0E0,0E0,0E0,0E0,0E0,0E0,0E0,0E0,0E0,0E0,0E0,0E0,0E0,0E0,0E0,0E0,0E0,0E0,0E0,0E0,0E0,0E0,0E0,0E0,0E0,0E0,0E0,0E0,0E0,0E0,0E0,0E0,0E0,0E0,0E0,0E0,0E0,0E0,0E0,0E0,0E0,0E0],"parents":[2147483647,0,0,1,1,2,2,3,3,4,4,5,5,6,6,7,7,8,8,9,9,10,10,11,11,12,12,13,13,14,14,15,15,16,16,17,17,18,18,19,19,20,20,21,21,22,22,23,23,24,24,25,25,26,26,27,27,28,28,29,29,30,30,31,31,32,32,33,33,34,34,35,35,36,36,37,37,38,38,39,39,40,40,41,41,42,42,43,43,44,44,45,45,46,46,47,47,48,48,49,49,50,50,51,51,52,52,53,53,54,54,55,55,56,56,57,57,58,58,59,59,60,60,61,61,62,62],"right_children":[2,4,6,8,10,12,14,16,18,20,22,24,26,28,30,32,34,36,38,40,42,44,46,48,50,52,54,56,58,60,62,64,66,68,70,72,74,76,78,80,82,84,86,88,90,92,94,96,98,100,102,104,106,108,110,112,114,116,118,120,122,124,126,-1,-1,-1,-1,-1,-1,-1,-1,-1,-1,-1,-1,-1,-1,-1,-1,-1,-1,-1,-1,-1,-1,-1,-1,-1,-1,-1,-1,-1,-1,-1,-1,-1,-1,-1,-1,-1,-1,-1,-1,-1,-1,-1,-1,-1,-1,-1,-1,-1,-1,-1,-1,-1,-1,-1,-1,-1,-1,-1,-1,-1,-1,-1,-1],"split_conditions":[6.5308774E-1,9.8448455E-1,-2.6913077E-2,-8.898417E-1,2.2770383E0,-2.1528801E-1,2.6782316E-1,-2.1528801E-1,-2.568268E-1,8.796337E-1,1.2538388E-1,-5.8855414E-1,-8.506108E-1,-1.0253787E0,-9.4903445E-1,2.392044E0,4.2798157E0,-9.5250666E-1,-7.602446E-1,-8.898417E-1,-1.203151E0,2.5678098E0,3.7516646E0,-1.4370222E0,-1.4711651E0,-7.620752E-1,1.160156E-1,-1.6481552E0,6.1548746E-1,1.0724139E0,2.86379E-1,-1.2022967E0,1.4188495E0,-1.0805551E0,1.1114898E-1,4.3070313E-1,-1.9712731E-1,-2.7542835E-1,1.4499605E0,3.592509E-2,5.9761244E-1,-4.4925967E-1,-3.7553188E-1,-8.898417E-1,1.8313512E-1,5.5680585E-1,-6.819318E-1,2.138303E0,1.7853183E0,5E-1,-3.7630022E-1,-8.271791E-1,5E-1,-2.8368706E-1,-4.67134E-1,6.00067E-1,1.1673976E0,1.4499605E0,-1.1691992E0,-2.9836556E-1,5E-1,-2.307643E-1,2.9306111E0,7.6071455E3,5.2730527E3,7.275608E3,3.1751188E4,1.4935571E4,9.236648E3,3.4281723E4,4.75076E4,1.3682553E4,2.6530035E4,1.1905982E4,8.573365E3,1.8666322E4,2.837747E4,1.5197925E4,2.2429404E4,1.150232E4,1.920921E4,2.2171594E4,2.9008045E4,1.2301788E4,3.926351E4,2.314127E4,3.347817E4,2.674947E4,4.3027586E4,6.3506082E4,4.2594023E4,2.7117512E4,1.7517153E3,3.4140816E4,5.5252586E4,1.9824053E4,3.388458E4,1.3968884E4,1.9729186E3,6.7902144E3,1.5892609E4,2.6631799E4,3.5560742E4,2.2129992E4,1.1598932E4,7.073522E4,3.7857926E4,3.8819344E4,5.3695926E4,3.8324555E4,2.7054236E4,-7.7846357E3,-2.8694438E3,1.5968715E3,5.6534253E3,1.6200596E4,2.3165793E4,4.0493523E4,2.4194467E4,2.3902922E4,3.8534996E4,7.786628E4,4.8976535E4,2.50518E4,1.6419932E4,2.813459E4,4.622515E4],"split_indices":[30,24,50,30,39,39,27,39,39,25,50,52,29,52,46,25,29,40,40,30,51,39,39,51,48,23,49,47,39,39,24,24,38,40,47,52,50,27,52,49,49,47,30,30,44,42,40,40,27,15,50,23,12,48,40,40,30,52,40,39,5,46,24,0,0,0,0,0,0,0,0,0,0,0,0,0,0,0,0,0,0,0,0,0,0,0,0,0,0,0,0,0,0,0,0,0,0,0,0,0,0,0,0,0,0,0,0,0,0,0,0,0,0,0,0,0,0,0,0,0,0,0,0,0,0,0,0],"split_type":[0,0,0,0,0,0,0,0,0,0,0,0,0,0,0,0,0,0,0,0,0,0,0,0,0,0,0,0,0,0,0,0,0,0,0,0,0,0,0,0,0,0,0,0,0,0,0,0,0,0,0,0,0,0,0,0,0,0,0,0,0,0,0,0,0,0,0,0,0,0,0,0,0,0,0,0,0,0,0,0,0,0,0,0,0,0,0,0,0,0,0,0,0,0,0,0,0,0,0,0,0,0,0,0,0,0,0,0,0,0,0,0,0,0,0,0,0,0,0,0,0,0,0,0,0,0,0],"sum_hessian":[9.9216E4,8.0007E4,1.9209E4,7.2419E4,7.588E3,9.721E3,9.488E3,1.5647E4,5.6772E4,6.735E3,8.53E2,4.233E3,5.488E3,7.333E3,2.155E3,7.672E3,7.975E3,2.2933E4,3.3839E4,5.236E3,1.499E3,4.37E2,4.16E2,1.397E3,2.836E3,6.62E2,4.826E3,2.47E2,7.086E3,3.14E2,1.841E3,7.381E3,2.91E2,7.949E3,2.6E1,4.639E3,1.8294E4,7.226E3,2.6613E4,1.343E3,3.893E3,5.16E2,9.83E2,2.54E2,1.83E2,3.53E2,6.3E1,3.97E2,1E3,3.56E2,2.48E3,5.21E2,1.41E2,2.494E3,2.332E3,2.2E1,2.25E2,5.636E3,1.45E3,2.89E2,2.5E1,9.44E2,8.97E2,3.524E3,3.857E3,2E2,9.1E1,8.79E2,7.07E3,1.2E1,1.4E1,3.902E3,7.37E2,1.1514E4,6.78E3,3.323E3,3.903E3,2.3192E4,3.421E3,5.26E2,8.17E2,2.83E3,1.063E3,3.7E1,4.79E2,4.9E2,4.93E2,9.5E1,1.59E2,1.07E2,7.6E1,3.37E2,1.6E1,2.4E1,3.9E1,3.33E2,6.4E1,9.3E2,7E1,1.87E2,1.69E2,1.851E3,6.29E2,1.79E2,3.42E2,1.9E1,1.22E2,2.102E3,3.92E2,1.027E3,1.305E3,1.1E1,1.1E1,9.7E1,1.28E2,4.692E3,9.44E2,5.3E1,1.397E3,3.9E1,2.5E2,1.3E1,1.2E1,4.22E2,5.22E2,8.47E2,5E1],"tree_param":{"num_deleted":"0","num_feature":"53","num_nodes":"127","size_leaf_vector":"0"}},{"base_weights":[3.9447957E4,3.1648059E4,5.2172855E4,2.872812E4,5.5953777E4,4.3191766E4,6.3801645E4,1.9491383E4,3.2352088E4,5.3374582E4,1.058413E5,2.9664824E4,4.9865773E4,5.5237637E4,7.987748E4,1.9189152E4,1.1511444E5,2.2672676E4,3.6188297E4,5.079039E4,9.210431E4,7.332544E4,1.2146413E5,2.8885688E4,8.71911E4,6.4812883E4,4.297995E4,4.3401812E4,6.432669E4,1.00856766E5,6.997057E4,2.692503E4,1.7231584E4,7.780125E4,1.3028474E5,4.9092095E3,2.4290896E4,3.3731008E4,6.2901598E4,5.91789E4,4.1495176E4,7.4037875E4,1.5909195E5,8.9230555E4,1.1792422E4,5.482765E4,1.30718984E5,4.8170715E4,2.6737182E4,9.474604E4,4.8599387E4,5.1589277E4,7.828556E4,4.0878668E4,9.9095945E4,6.229841E4,3.296684E4,1.3951297E5,6.1706836E4,2.8289466E5,9.95562E4,9.064864E4,5.9503426E4,1.5584795E4,3.372414E4,1.6767627E4,4.7992293E4,1.1101989E5,1.4795445E5,-7.0573984E3,1.0211163E4,3.9224758E4,2.2794611E4,4.881408E4,3.1254865E4,3.5259957E4,7.217201E4,1.7518608E5,5.7273492E4,2.8626979E4,5.2016586E4,4.6519664E4,9.05978E4,1.805389E5,9.717572E4,7.511665E4,1.6588447E5,4.4493414E4,-2.1539395E4,1.2899925E5,-7.325701E3,1.23690375E5,1.9521933E5,1.3236506E5,4.567862E4,3.228252E4,2.1387033E4,7.177688E4,9.996825E4,4.2561688E4,7.984187E4,9.9783836E4,6.021179E4,3.9572805E4,8.695502E4,7.411722E4,2.0722275E5,5.486076E4,9.354223E4,5.6218562E4,2.6336984E4,1.5674958E5,9.722076E4,8.2704086E4,5.2955496E4,1.12648914E5,8.452218E4,7.2901086E4,1.234278E5,4.5576152E4,7.653536E4],"categories":[],"categories_nodes":[],"categories_segments":[],"categories_sizes":[],"default_left":[1,1,1,1,1,1,1,1,1,1,1,1,1,1,1,1,1,1,1,1,1,1,1,1,1,1,1,1,1,1,1,1,1,0,1,1,1,1,1,1,1,1,1,1,1,1,1,1,1,1,0,1,1,1,1,1,1,1,1,0,1,1,1,0,0,0,0,0,0,0,0,0,0,0,0,0,0,0,0,0,0,0,0,0,0,0,0,0,0,0,0,0,0,0,0,0,0,0,0,0,0,0,0,0,0,0,0,0,0,0,0,0,0,0,0,0,0,0,0,0,0],"id":7,"left_children":[1,3,5,7,9,11,13,15,17,19,21,23,25,27,29,31,33,35,37,39,41,43,45,47,49,51,53,55,57,59,61,63,65,-1,67,69,71,73,75,77,79,81,83,85,87,89,91,93,95,97,-1,99,101,103,105,107,109,111,113,-1,115,117,119,-1,-1,-1,-1,-1,-1,-1,-1,-1,-1,-1,-1,-1,-1,-1,-1,-1,-1,-1,-1,-1,-1,-1,-1,-1,-1,-1,-1,-1,-1,-1,-1,-1,-1,-1,-1,-1,-1,-1,-1,-1,-1,-1,-1,-1,-1,-1,-1,-1,-1,-1,-1,-1,-1,-1,-1,-1,-1],"loss_changes":[9.846481E12,4.3646724E12,3.9359684E12,1.8378853E12,8.451816E11,1.9197959E12,2.2589766E12,4.4586028E11,1.4640218E12,6.2491145E11,1.5872976E11,3.1350535E11,1.4644245E12,1.1515042E12,1.1819842E12,2.3334381E11,2.107487E10,3.217697E11,1.8527541E12,4.5711517E11,4.664669E11,1.0368064E11,1.296483E11,2.866272E11,2.4360976E10,7.976392E11,1.147635E12,9.172995E11,1.1887182E12,4.1525916E11,8.362708E11,2.3980933E11,1.7523068E11,0E0,1.0002104E9,5.940873E10,2.2872431E11,9.6512193E11,6.078962E11,6.767646E11,3.7714448E11,1.3840928E11,9.85706E10,8.363167E10,2.5281362E10,1.28008724E11,7.107143E10,1.4189081E11,1.8479317E11,4.739629E9,0E0,5.7645046E11,8.6017416E11,5.636117E11,9.399425E11,3.816953E11,4.6192263E11,1.3874784E11,1.07393686E12,0E0,3.5171336E11,7.520754E11,6.09209E11,0E0,0E0,0E0,0E0,0E0,0E0,0E0,0E0,0E0,0E0,0E0,0E0,0E0,0E0,0E0,0E0,0E0,0E0,0E0,0E0,0E0,0E0,0E0,0E0,0E0,0E0,0E0,0E0,0E0,0E0,0E0,0E0,0E0,0E0,0E0,0E0,0E0,0E0,0E0,0E0,0E0,0E0,0E0,0E0,0E0,0E0,0E0,0E0,0E0,0E0,0E0,0E0,0E0,0E0,0E0,0E0,0E0,0E0],"parents":[2147483647,0,0,1,1,2,2,3,3,4,4,5,5,6,6,7,7,8,8,9,9,10,10,11,11,12,12,13,13,14,14,15,15,16,16,17,17,18,18,19,19,20,20,21,21,22,22,23,23,24,24,25,25,26,26,27,27,28,28,29,29,30,30,31,31,32,32,34,34,35,35,36,36,37,37,38,38,39,39,40,40,41,41,42,42,43,43,44,44,45,45,46,46,47,47,48,48,49,49,51,51,52,52,53,53,54,54,55,55,56,56,57,57,58,58,60,60,61,61,62,62],"right_children":[2,4,6,8,10,12,14,16,18,20,22,24,26,28,30,32,34,36,38,40,42,44,46,48,50,52,54,56,58,60,62,64,66,-1,68,70,72,74,76,78,80,82,84,86,88,90,92,94,96,98,-1,100,102,104,106,108,110,112,114,-1,116,118,120,-1,-1,-1,-1,-1,-1,-1,-1,-1,-1,-1,-1,-1,-1,-1,-1,-1,-1,-1,-1,-1,-1,-1,-1,-1,-1,-1,-1,-1,-1,-1,-1,-1,-1,-1,-1,-1,-1,-1,-1,-1,-1,-1,-1,-1,-1,-1,-1,-1,-1,-1,-1,-1,-1,-1,-1,-1,-1],"split_conditions":[1.3877794E-1,1.2801077E0,5.723178E-2,-8.898417E-1,1.5256755E0,-2.568268E-1,5E-1,3.685347E0,-8.799083E-1,2.5262709E0,-8.898417E-1,1.7889414E0,-2.1066567E-1,6.491154E-1,-7.6420105E-1,-8.969588E-1,-9.0120876E-1,-1.7106838E0,1.0332949E0,5E-1,-5.8845544E-1,1.0988379E0,-8.069664E-1,-1.0740228E0,5E-1,6.6682674E-2,1.5955687E0,-1.0408194E0,-4.881192E-1,-1.601722E0,1.12313196E-1,-5.9001744E-1,1.5955687E0,2.3340375E4,-3.2185906E-1,-2.1676104E0,-1.1848003E0,-9.5361483E-1,-9.525746E-1,-9.772185E-1,-5.3825486E-1,-5.8032346E-1,-4.048556E-1,2.152422E0,-6.786746E-1,-7.003987E-1,1.2522532E0,-1.409576E0,5E-1,-1.0523126E0,1.4579816E4,6.204678E-1,5.70302E-1,2.2483485E0,4.0469134E-1,1.1702217E-1,-9.663956E-1,-4.048556E-1,-7.518455E-1,8.48684E4,1.2081611E0,4.3070313E-1,2.86379E-1,4.6754385E3,1.0117242E4,5.030288E3,1.4397688E4,3.330597E4,4.4386336E4,-2.1172197E3,3.063349E3,1.1767428E4,6.838384E3,1.4644224E4,9.37646E3,1.0577987E4,2.1651604E4,5.2555824E4,1.7182049E4,8.588094E3,1.5604977E4,1.3955899E4,2.717934E4,5.4161676E4,2.9152717E4,2.2534996E4,4.9765344E4,1.3348024E4,-6.461819E3,3.8699777E4,-2.1977104E3,3.7107113E4,5.85658E4,3.970952E4,1.3703587E4,9.684756E3,6.4161104E3,2.1533066E4,2.9990477E4,1.2768507E4,2.395256E4,2.9935152E4,1.8063537E4,1.1871842E4,2.6086508E4,2.2235166E4,6.216683E4,1.6458229E4,2.806267E4,1.686557E4,7.9010957E3,4.7024875E4,2.9166229E4,2.4811227E4,1.5886649E4,3.3794676E4,2.5356654E4,2.1870326E4,3.702834E4,1.3672847E4,2.296061E4],"split_indices":[30,39,26,30,23,39,0,24,39,39,30,24,45,52,51,40,44,39,23,8,28,47,52,40,10,52,52,48,23,40,44,29,52,0,47,39,40,40,52,28,25,26,32,39,41,47,41,46,8,44,0,37,44,24,46,39,40,32,40,0,26,52,24,0,0,0,0,0,0,0,0,0,0,0,0,0,0,0,0,0,0,0,0,0,0,0,0,0,0,0,0,0,0,0,0,0,0,0,0,0,0,0,0,0,0,0,0,0,0,0,0,0,0,0,0,0,0,0,0,0,0],"split_type":[0,0,0,0,0,0,0,0,0,0,0,0,0,0,0,0,0,0,0,0,0,0,0,0,0,0,0,0,0,0,0,0,0,0,0,0,0,0,0,0,0,0,0,0,0,0,0,0,0,0,0,0,0,0,0,0,0,0,0,0,0,0,0,0,0,0,0,0,0,0,0,0,0,0,0,0,0,0,0,0,0,0,0,0,0,0,0,0,0,0,0,0,0,0,0,0,0,0,0,0,0,0,0,0,0,0,0,0,0,0,0,0,0,0,0,0,0,0,0,0,0],"sum_hessian":[9.9216E4,6.1513E4,3.7703E4,5.4917E4,6.596E3,2.1275E4,1.6428E4,1.5476E4,3.9441E4,6.273E3,3.23E2,7.03E3,1.4245E4,1.072E4,5.708E3,1.5428E4,4.8E1,1.1196E4,2.8245E4,5.882E3,3.91E2,1.06E2,2.17E2,6.937E3,9.3E1,4.491E3,9.754E3,4.658E3,6.062E3,1.829E3,3.879E3,3.114E3,1.2314E4,1.5E1,3.3E1,9.35E2,1.0261E4,2.5867E4,2.378E3,3.09E3,2.792E3,3.09E2,8.2E1,8.4E1,2.2E1,2.7E1,1.9E2,6.94E2,6.243E3,7.7E1,1.6E1,2.268E3,2.223E3,9.403E3,3.51E2,1.656E3,3.002E3,2.03E2,5.859E3,1.2E1,1.817E3,1.302E3,2.577E3,1.168E3,1.946E3,1.2132E4,1.82E2,1.8E1,1.5E1,2.87E2,6.48E2,9.33E2,9.328E3,3.646E3,2.2221E4,5.98E2,1.78E3,4.9E1,3.041E3,1.257E3,1.535E3,1.17E2,1.92E2,6E1,2.2E1,7.2E1,1.2E1,1.1E1,1.1E1,1.2E1,1.5E1,1.73E2,1.7E1,1.9E1,6.75E2,3.064E3,3.179E3,1.6E1,6.1E1,1.72E3,5.48E2,1.014E3,1.209E3,9.145E3,2.58E2,2.86E2,6.5E1,1.339E3,3.17E2,6.65E2,2.337E3,1.43E2,6E1,1.722E3,4.137E3,9.69E2,8.48E2,8.46E2,4.56E2,1.419E3,1.158E3],"tree_param":{"num_deleted":"0","num_feature":"53","num_nodes":"121","size_leaf_vector":"0"}},{"base_weights":[2.7622594E4,1.9179928E4,3.3477156E4,1.6477164E4,3.415395E4,2.7923457E4,4.4281734E4,1.4277031E4,2.332251E4,4.0487555E4,2.0326148E4,2.5282285E4,4.7346543E4,4.024146E4,6.3117977E4,2.0301165E3,1.5649437E4,1.8147795E4,3.2394252E4,4.3649684E4,1.33617705E4,1.5804741E4,4.657045E4,1.7983967E4,3.1049111E4,6.557878E4,3.6269902E4,3.477816E4,5.713383E4,5.8744086E4,1.2576003E5,-1.6098024E4,5.1876245E3,1.3487061E4,2.6463428E4,1.5697376E4,4.3733656E4,4.863137E4,2.1128064E4,4.1025273E4,6.818549E4,7.524071E4,1.0035376E4,3.549108E4,9.752852E3,5.438373E4,-1.749762E4,1.5442987E4,2.8797695E4,5.864566E3,3.278467E4,8.519981E4,5.69848E4,3.521756E4,1.6825019E5,4.8153754E4,2.8956455E4,5.4100492E4,1.0798313E5,5.4492094E4,9.75262E4,1.7373145E5,9.439422E4,-1.0756211E4,-4.2361734E4,1.2550461E4,-1.6450485E3,1.251144E4,3.0293094E4,2.092412E4,6.486837E4,-7.269953E3,1.7015777E4,7.799727E4,3.8543258E4,3.8688934E4,7.25586E4,1.8902855E4,1.3734095E5,5.4115105E4,3.31053E4,1.3160822E5,5.3251688E4,1.12976E5,3.339358E4,1.2693153E4,-3.5281652E4,4.7858016E4,2.3444387E4,7.970307E3,6.9898734E4,8.508141E4,4.6468832E4,-3.939868E4,9.641874E3,1.6832018E4,-3.5218992E3,2.4176998E4,8.776322E4,9.984766E3,-7.353756E4,4.194223E4,2.738324E4,7.203695E4,1.1161937E5,3.6156004E4,6.3642117E4,2.3663242E4,4.3055633E4,6.292181E4,3.8181312E4,2.73272E4,6.4893113E4,5.9908117E4,3.8354105E4,1.707662E4,1.2248027E5,7.629425E4,4.720494E4,9.018232E4,1.472632E5,1.3829248E5,2.1430588E5,1.345437E5,8.574433E4],"categories":[],"categories_nodes":[],"categories_segments":[],"categories_sizes":[],"default_left":[1,1,1,1,1,1,1,1,1,1,1,1,1,1,1,1,1,1,1,1,1,1,1,1,1,1,1,1,1,1,1,1,1,1,1,1,1,1,1,1,1,1,1,1,1,1,1,1,1,1,1,1,1,1,0,1,1,1,1,1,1,1,1,0,0,0,0,0,0,0,0,0,0,0,0,0,0,0,0,0,0,0,0,0,0,0,0,0,0,0,0,0,0,0,0,0,0,0,0,0,0,0,0,0,0,0,0,0,0,0,0,0,0,0,0,0,0,0,0,0,0,0,0,0,0],"id":8,"left_children":[1,3,5,7,9,11,13,15,17,19,21,23,25,27,29,31,33,35,37,39,41,43,45,47,49,51,53,55,57,59,61,63,65,67,69,71,73,75,77,79,81,83,85,87,89,91,93,95,97,99,101,103,105,107,-1,109,111,113,115,117,119,121,123,-1,-1,-1,-1,-1,-1,-1,-1,-1,-1,-1,-1,-1,-1,-1,-1,-1,-1,-1,-1,-1,-1,-1,-1,-1,-1,-1,-1,-1,-1,-1,-1,-1,-1,-1,-1,-1,-1,-1,-1,-1,-1,-1,-1,-1,-1,-1,-1,-1,-1,-1,-1,-1,-1,-1,-1,-1,-1,-1,-1,-1,-1],"loss_changes":[4.903678E12,1.643968E12,3.5147764E12,5.181507E11,5.4348428E11,1.9844615E12,1.5120508E12,4.377962E11,3.9256903E11,3.6499305E11,2.3122667E11,1.433481E12,9.33845E11,1.5102808E12,9.5744216E11,1.5034206E11,5.47504E11,3.338291E11,5.5538064E11,2.438432E11,9.123614E10,1.9833632E11,1.4409204E11,4.12935E11,8.316445E11,2.9193037E11,3.9658036E11,9.6293565E11,6.134998E11,5.3808516E11,3.33584E11,5.4367863E10,1.1253486E11,3.1983665E11,8.2936175E11,1.4744224E11,8.088735E10,2.9429727E11,4.626803E11,3.5627205E11,3.4373344E11,3.3329816E10,5.1304382E10,5.762482E10,1.3640028E11,5.958664E10,1.904762E10,3.2085875E11,7.780528E11,4.0208043E11,8.7985173E11,1.797566E11,1.6750792E11,2.5841448E11,0E0,5.511268E11,5.0389425E11,3.439906E11,2.9469652E11,4.680728E11,1.0975943E11,1.100491E11,4.11494E10,0E0,0E0,0E0,0E0,0E0,0E0,0E0,0E0,0E0,0E0,0E0,0E0,0E0,0E0,0E0,0E0,0E0,0E0,0E0,0E0,0E0,0E0,0E0,0E0,0E0,0E0,0E0,0E0,0E0,0E0,0E0,0E0,0E0,0E0,0E0,0E0,0E0,0E0,0E0,0E0,0E0,0E0,0E0,0E0,0E0,0E0,0E0,0E0,0E0,0E0,0E0,0E0,0E0,0E0,0E0,0E0,0E0,0E0,0E0,0E0,0E0,0E0],"parents":[2147483647,0,0,1,1,2,2,3,3,4,4,5,5,6,6,7,7,8,8,9,9,10,10,11,11,12,12,13,13,14,14,15,15,16,16,17,17,18,18,19,19,20,20,21,21,22,22,23,23,24,24,25,25,26,26,27,27,28,28,29,29,30,30,31,31,32,32,33,33,34,34,35,35,36,36,37,37,38,38,39,39,40,40,41,41,42,42,43,43,44,44,45,45,46,46,47,47,48,48,49,49,50,50,51,51,52,52,53,53,55,55,56,56,57,57,58,58,59,59,60,60,61,61,62,62],"right_children":[2,4,6,8,10,12,14,16,18,20,22,24,26,28,30,32,34,36,38,40,42,44,46,48,50,52,54,56,58,60,62,64,66,68,70,72,74,76,78,80,82,84,86,88,90,92,94,96,98,100,102,104,106,108,-1,110,112,114,116,118,120,122,124,-1,-1,-1,-1,-1,-1,-1,-1,-1,-1,-1,-1,-1,-1,-1,-1,-1,-1,-1,-1,-1,-1,-1,-1,-1,-1,-1,-1,-1,-1,-1,-1,-1,-1,-1,-1,-1,-1,-1,-1,-1,-1,-1,-1,-1,-1,-1,-1,-1,-1,-1,-1,-1,-1,-1,-1,-1,-1,-1,-1,-1,-1],"split_conditions":[-3.7553188E-1,1.0308752E0,5E-1,1.18639395E-1,5E-1,1.4499605E0,9.4033176E-1,-1.2437909E0,-9.067169E-2,1.785625E0,6.6682674E-2,-3.3846825E-1,-1.277296E-1,1.4047241E0,1.2302852E0,-8.106613E-1,5E-1,1.4499605E0,-8.3143604E-1,8.961362E-1,-8.76051E-1,5E-1,2.0423502E-1,5E-1,-1.6078115E0,1.6348086E-1,1.6683726E0,-7.483208E-1,1.5256755E0,1.5955687E0,-5.206898E-1,-4.2298186E-1,1.8438841E-1,1.5227644E0,1.3948676E-1,-1.6276063E0,-1.2484328E0,-8.898834E-1,1.5507159E0,5E-1,7.463786E-1,-1.2754861E0,1.8050478E0,1.293939E-1,5E-1,-8.7235427E-1,-7.916781E-1,1.2969992E0,-3.7014186E-1,-5.4759824E-1,5E-1,1.5256755E0,-5.8703834E-1,-2.602355E-1,5.047506E4,5E-1,1.9374522E0,5E-1,-8.069664E-1,-2.4508348E-1,1.6817074E0,-2.1676558E-1,6.5308774E-1,-3.2268635E3,-1.27085205E4,3.7651384E3,-4.9351456E2,3.7534324E3,9.087929E3,6.277236E3,1.9460512E4,-2.180986E3,5.1047334E3,2.3399184E4,1.1562978E4,1.1606681E4,2.1767582E4,5.670857E3,4.120229E4,1.6234532E4,9.931591E3,3.948247E4,1.5975507E4,3.38928E4,1.0018074E4,3.807946E3,-1.0584496E4,1.4357405E4,7.0333164E3,2.3910923E3,2.0969621E4,2.5524424E4,1.394065E4,-1.18196045E4,2.8925623E3,5.0496055E3,-1.0565698E3,7.2530996E3,2.6328967E4,2.9954297E3,-2.206127E4,1.258267E4,8.214973E3,2.1611086E4,3.3485812E4,1.0846802E4,1.9092637E4,7.098973E3,1.291669E4,1.8876543E4,1.1454395E4,8.19816E3,1.9467936E4,1.7972436E4,1.1506232E4,5.122986E3,3.6744082E4,2.2888275E4,1.4161483E4,2.7054697E4,4.417896E4,4.1487746E4,6.4291766E4,4.0363113E4,2.5723299E4],"split_indices":[30,39,0,29,20,52,52,52,39,45,52,27,45,39,28,23,9,52,51,29,43,7,46,9,52,46,52,43,23,52,47,39,28,52,52,39,46,43,48,19,27,47,47,47,10,47,27,43,52,39,21,23,31,28,0,12,28,20,52,45,30,46,30,0,0,0,0,0,0,0,0,0,0,0,0,0,0,0,0,0,0,0,0,0,0,0,0,0,0,0,0,0,0,0,0,0,0,0,0,0,0,0,0,0,0,0,0,0,0,0,0,0,0,0,0,0,0,0,0,0,0,0,0,0,0],"split_type":[0,0,0,0,0,0,0,0,0,0,0,0,0,0,0,0,0,0,0,0,0,0,0,0,0,0,0,0,0,0,0,0,0,0,0,0,0,0,0,0,0,0,0,0,0,0,0,0,0,0,0,0,0,0,0,0,0,0,0,0,0,0,0,0,0,0,0,0,0,0,0,0,0,0,0,0,0,0,0,0,0,0,0,0,0,0,0,0,0,0,0,0,0,0,0,0,0,0,0,0,0,0,0,0,0,0,0,0,0,0,0,0,0,0,0,0,0,0,0,0,0,0,0,0,0],"sum_hessian":[9.9216E4,4.0629E4,5.8587E4,3.4418E4,6.211E3,3.8698E4,1.9889E4,2.6048E4,8.37E3,4.259E3,1.952E3,3.4067E4,4.631E3,1.6378E4,3.511E3,2.625E3,2.3423E4,5.331E3,3.039E3,3.814E3,4.45E2,1.666E3,2.86E2,1.5038E4,1.9029E4,1.749E3,2.882E3,1.2377E4,4.001E3,3.283E3,2.28E2,3.89E2,2.236E3,1.9521E4,3.902E3,4.866E3,4.65E2,1.244E3,1.795E3,3.447E3,3.67E2,2.2E1,4.23E2,3.91E2,1.275E3,2.55E2,3.1E1,1.2178E4,2.86E3,1.227E3,1.7802E4,5.31E2,1.218E3,2.86E3,2.2E1,3.752E3,8.625E3,3.777E3,2.24E2,2.96E3,3.23E2,8.9E1,1.39E2,3.24E2,6.5E1,1.076E3,1.16E3,1.8451E4,1.07E3,3.411E3,4.91E2,2.64E2,4.602E3,6E1,4.05E2,8.8E2,3.64E2,1.762E3,3.3E1,1.298E3,2.149E3,6.9E1,2.98E2,1.1E1,1.1E1,4E2,2.3E1,1.92E2,1.99E2,1.239E3,3.6E1,5.1E1,2.04E2,1.7E1,1.4E1,1.1347E4,8.31E2,2.653E3,2.07E2,1.167E3,6E1,6.603E3,1.1199E4,3.56E2,1.75E2,2.96E2,9.22E2,1.157E3,1.703E3,1.511E3,2.241E3,8.252E3,3.73E2,2.758E3,1.019E3,3.1E1,1.93E2,7.4E2,2.22E3,2.83E2,4E1,4.9E1,4E1,2.3E1,1.16E2],"tree_param":{"num_deleted":"0","num_feature":"53","num_nodes":"125","size_leaf_vector":"0"}},{"base_weights":[1.9341857E4,1.6526906E4,3.0044365E4,1.4855692E4,3.3175832E4,2.2418545E4,3.8157375E4,1.3377269E4,2.8028002E4,3.1005527E4,7.944646E4,2.022339E4,5.9391504E4,6.0791816E4,3.5517402E4,2.5403716E3,1.4719241E4,1.5996177E4,3.9516176E4,5.044301E4,2.6273254E4,1.109173E5,6.50711E4,1.8497508E4,5.550502E4,5.511721E4,7.30013E4,-3.9336082E4,6.2373645E4,3.0784428E4,4.6660277E4,-9.797068E3,8.0486514E3,3.195612E4,1.3529723E4,2.3180975E4,5.881574E3,5.2812918E4,2.9192547E4,1.0867972E5,4.2876016E4,3.8269965E4,1.9961766E4,1.2897556E5,7.762651E4,6.999326E4,1.7336478E3,1.4264784E4,2.9758596E4,6.866167E4,-2.190395E3,4.7784875E4,6.4404105E4,6.4866242E4,8.026125E4,8.543046E4,5.701741E4,7.157027E3,3.429279E4,1.0852718E5,4.4052227E4,-1.5605144E4,6.4061636E3,6.43849E3,4.772435E4,2.6365705E4,7.37457E4,1.2929732E4,3.5363E4,1.2103087E4,3.5554742E4,1.5657474E4,-2.9578254E3,3.3477586E4,7.2518664E4,2.7647166E4,1.1241049E5,2.67978E5,9.64054E4,3.846897E4,6.606223E4,3.2564906E4,8.3381484E4,1.8969195E4,9.2388164E4,9.570787E4,1.4892898E5,6.231575E4,1.07119984E5,1.23053836E5,6.659295E4,1.3798923E4,9.7611164E4,7.275819E4,2.4362926E4,3.686897E4,8.262902E4,-4.3666613E4,6.5219492E4,3.3002137E4,6.819062E4,3.732714E4,9.2448125E4,4.1891617E4,7.878988E4,1.06831836E5,6.456176E4,5.0345516E4,9.6852555E4,1.00870336E5,5.4148566E4,-8.258479E3,1.815546E4,6.0949883E4,3.2310447E4,1.5335267E5,6.4879688E4,4.5950785E4,-4.178243E2],"categories":[],"categories_nodes":[],"categories_segments":[],"categories_sizes":[],"default_left":[1,1,1,1,1,1,1,1,1,1,1,1,1,1,1,1,1,1,1,1,1,1,1,1,1,1,1,0,1,1,1,1,1,1,1,1,1,1,1,1,1,1,1,1,1,1,0,1,1,1,1,1,1,1,1,1,1,1,1,1,1,0,0,0,0,0,0,0,0,0,0,0,0,0,0,0,0,0,0,0,0,0,0,0,0,0,0,0,0,0,0,0,0,0,0,0,0,0,0,0,0,0,0,0,0,0,0,0,0,0,0,0,0,0,0,0,0,0,0],"id":9,"left_children":[1,3,5,7,9,11,13,15,17,19,21,23,25,27,29,31,33,35,37,39,41,43,45,47,49,51,53,-1,55,57,59,61,63,65,67,69,71,73,75,77,79,81,83,85,87,89,-1,91,93,95,97,99,101,103,105,107,109,111,113,115,117,-1,-1,-1,-1,-1,-1,-1,-1,-1,-1,-1,-1,-1,-1,-1,-1,-1,-1,-1,-1,-1,-1,-1,-1,-1,-1,-1,-1,-1,-1,-1,-1,-1,-1,-1,-1,-1,-1,-1,-1,-1,-1,-1,-1,-1,-1,-1,-1,-1,-1,-1,-1,-1,-1,-1,-1,-1,-1],"loss_changes":[2.9887813E12,2.1854337E12,1.2776899E12,1.3900574E12,7.1800455E11,8.637288E11,5.9673726E11,9.334581E11,9.953047E11,6.288352E11,1.4045662E11,6.116459E11,3.2139248E10,1.6701299E11,4.7191687E11,4.807602E11,1.1707949E12,2.5568615E11,5.048039E11,5.8737086E11,4.1645402E11,5.352181E10,6.900928E10,4.5671986E11,3.5583453E11,2.9127737E10,4.985389E9,0E0,1.23925955E11,5.2162252E11,4.280219E11,2.0556556E11,3.1223225E11,8.600292E11,6.9961725E11,2.8177138E11,1.26421795E11,6.1174396E11,2.6494409E11,2.8396893E11,1.1962771E11,4.8664517E11,2.5836428E11,3.3170588E10,1.2287623E10,3.1879856E10,0E0,2.6974696E11,6.0641667E11,1.6752063E11,2.4681896E11,7.6275515E10,1.4938604E11,2.0166214E10,2.548564E10,7.408543E10,1.0177059E11,1.382147E11,2.883542E11,2.0425042E11,2.1654772E11,0E0,0E0,0E0,0E0,0E0,0E0,0E0,0E0,0E0,0E0,0E0,0E0,0E0,0E0,0E0,0E0,0E0,0E0,0E0,0E0,0E0,0E0,0E0,0E0,0E0,0E0,0E0,0E0,0E0,0E0,0E0,0E0,0E0,0E0,0E0,0E0,0E0,0E0,0E0,0E0,0E0,0E0,0E0,0E0,0E0,0E0,0E0,0E0,0E0,0E0,0E0,0E0,0E0,0E0,0E0,0E0,0E0,0E0],"parents":[2147483647,0,0,1,1,2,2,3,3,4,4,5,5,6,6,7,7,8,8,9,9,10,10,11,11,12,12,13,13,14,14,15,15,16,16,17,17,18,18,19,19,20,20,21,21,22,22,23,23,24,24,25,25,26,26,28,28,29,29,30,30,31,31,32,32,33,33,34,34,35,35,36,36,37,37,38,38,39,39,40,40,41,41,42,42,43,43,44,44,45,45,47,47,48,48,49,49,50,50,51,51,52,52,53,53,54,54,55,55,56,56,57,57,58,58,59,59,60,60],"right_children":[2,4,6,8,10,12,14,16,18,20,22,24,26,28,30,32,34,36,38,40,42,44,46,48,50,52,54,-1,56,58,60,62,64,66,68,70,72,74,76,78,80,82,84,86,88,90,-1,92,94,96,98,100,102,104,106,108,110,112,114,116,118,-1,-1,-1,-1,-1,-1,-1,-1,-1,-1,-1,-1,-1,-1,-1,-1,-1,-1,-1,-1,-1,-1,-1,-1,-1,-1,-1,-1,-1,-1,-1,-1,-1,-1,-1,-1,-1,-1,-1,-1,-1,-1,-1,-1,-1,-1,-1,-1,-1,-1,-1,-1,-1,-1,-1,-1,-1,-1],"split_conditions":[1.4435543E-1,1.1673976E0,-2.6496039E-3,9.778594E-1,1.5955687E0,3.0414486E0,-1.136162E0,-1.0023861E0,-5.8855414E-1,-9.59455E-1,-2.11195E-1,1.5507159E0,1.3399901E0,-1.389399E0,2.6060095E0,-5.588498E-1,-1.4370222E0,5E-1,-7.2160417E-1,-2.0459864E-1,-7.805259E-1,5E-1,4.931122E-1,-2.8360963E-2,5.3799224E-1,5E-1,5E-1,-1.1800825E4,-1.0408194E0,-1.4646094E-1,-1.6512212E-1,-1.142205E0,1.3771563E0,-3.7014186E-1,1.5955687E0,1.5405638E0,2.552321E-1,-1.0990763E-1,-1.1649952E-1,-1.5602977E0,1.0859399E0,3.1780034E-1,2.2076118E0,5E-1,3.224637E0,5E-1,5.2009436E2,1.5591666E0,-1.1054949E0,5E-1,-5.521521E-1,-7.6950955E-1,-9.1854566E-1,5E-1,5E-1,5E-1,-6.977603E-1,-4.048556E-1,2.1252623E-1,-2.6880753E-1,1.4188495E0,-4.6815435E3,1.9218491E3,1.9315471E3,1.4317306E4,7.909712E3,2.212371E4,3.87892E3,1.06089E4,3.6309263E3,1.0666423E4,4.697242E3,-8.8734766E2,1.0043276E4,2.17556E4,8.29415E3,3.372315E4,8.039341E4,2.8921621E4,1.1540691E4,1.9818668E4,9.769473E3,2.5014447E4,5.690759E3,2.7716451E4,2.8712361E4,4.4678695E4,1.8694727E4,3.2135996E4,3.6916152E4,1.9977887E4,4.1396772E3,2.928335E4,2.1827457E4,7.308878E3,1.1060691E4,2.4788709E4,-1.3099984E4,1.9565848E4,9.900642E3,2.0457186E4,1.1198143E4,2.773444E4,1.2567485E4,2.3636965E4,3.2049553E4,1.936853E4,1.5103655E4,2.9055768E4,3.0261102E4,1.624457E4,-2.4775437E3,5.4466387E3,1.8284965E4,9.693135E3,4.6005805E4,1.9463906E4,1.3785236E4,-1.253473E2],"split_indices":[24,30,25,26,52,24,40,26,52,40,29,48,41,52,24,33,51,12,40,25,43,8,45,38,42,0,2,0,48,43,26,25,52,52,52,29,43,41,50,40,52,45,37,2,30,1,0,52,40,2,52,41,43,0,8,2,52,32,25,45,38,0,0,0,0,0,0,0,0,0,0,0,0,0,0,0,0,0,0,0,0,0,0,0,0,0,0,0,0,0,0,0,0,0,0,0,0,0,0,0,0,0,0,0,0,0,0,0,0,0,0,0,0,0,0,0,0,0,0],"split_type":[0,0,0,0,0,0,0,0,0,0,0,0,0,0,0,0,0,0,0,0,0,0,0,0,0,0,0,0,0,0,0,0,0,0,0,0,0,0,0,0,0,0,0,0,0,0,0,0,0,0,0,0,0,0,0,0,0,0,0,0,0,0,0,0,0,0,0,0,0,0,0,0,0,0,0,0,0,0,0,0,0,0,0,0,0,0,0,0,0,0,0,0,0,0,0,0,0,0,0,0,0,0,0,0,0,0,0,0,0,0,0,0,0,0,0,0,0,0,0],"sum_hessian":[9.9216E4,7.8556E4,2.066E4,7.1391E4,7.165E3,1.0651E4,1.0009E4,6.4188E4,7.203E3,6.845E3,3.2E2,1.0055E4,5.96E2,1.044E3,8.965E3,7.073E3,5.7115E4,3.519E3,3.684E3,1.339E3,5.506E3,9.9E1,2.21E2,9.587E3,4.68E2,4.56E2,1.4E2,1.6E1,1.028E3,6.294E3,2.671E3,2.183E3,4.89E3,3.686E3,5.3429E4,2.057E3,1.462E3,1.609E3,2.075E3,1.53E2,1.186E3,1.897E3,3.609E3,6.3E1,3.6E1,2.05E2,1.6E1,6.969E3,2.618E3,3.81E2,8.7E1,2.57E2,1.99E2,6.9E1,7.1E1,1.92E2,8.36E2,8.14E2,5.48E3,1.07E2,2.564E3,1.607E3,5.76E2,4.7E3,1.9E2,3.252E3,4.34E2,5.2001E4,1.428E3,1.086E3,9.71E2,6.94E2,7.68E2,8.13E2,7.96E2,2.038E3,3.7E1,1E1,1.43E2,9.98E2,1.88E2,1.685E3,2.12E2,3.561E3,4.8E1,2.5E1,3.8E1,2.5E1,1.1E1,1.1E1,1.94E2,6.931E3,3.8E1,2.91E2,2.327E3,1.17E2,2.64E2,5.4E1,3.3E1,1.5E2,1.07E2,1.02E2,9.7E1,2.7E1,4.2E1,2.5E1,4.6E1,4.8E1,1.44E2,5E1,7.86E2,3.39E2,4.75E2,3.78E2,5.102E3,5.2E1,5.5E1,2.459E3,1.05E2],"tree_param":{"num_deleted":"0","num_feature":"53","num_nodes":"119","size_leaf_vector":"0"}},{"base_weights":[1.3545656E4,7.506326E3,1.6964004E4,-1.1066452E4,8.302079E3,2.0683979E4,9.314591E3,-7.322842E3,-3.1221889E4,1.7788547E4,6.9779556E3,3.3635473E4,1.7387404E4,1.6470488E4,4.03345E3,-1.4025987E4,-4.015253E3,-1.4852111E4,-3.7183758E4,6.770576E3,2.3571943E4,1.6630358E3,9.207759E3,8.296725E3,4.056869E4,1.9420758E4,2.348319E3,6.948305E3,2.599027E4,1.3102794E3,1.7522191E4,-1.32377705E4,-4.2872926E4,-3.170795E3,-2.467666E4,-9.707004E3,-3.4716383E4,-2.4965148E4,-4.3445082E4,8.411524E3,-3.9652574E4,-8.628642E1,2.6188416E4,1.6084665E4,-2.076312E3,1.484179E4,6.9216465E3,-1.7317027E4,1.8739674E4,6.528959E4,3.270676E4,2.2163719E4,6.214725E3,1.0839673E3,6.4541207E4,5.8051694E3,5.1250957E4,2.8195645E4,-5.497534E3,-8.228125E3,3.9499487E3,1.982323E4,-1.668255E4,-1.497926E4,-6.096957E3,-2.2469592E3,-1.7442443E4,-1.1869184E4,-3.1753732E4,-1.186945E3,-1.2049217E4,-3.2748068E4,-1.2555029E4,-4.596595E4,-2.3362732E4,1.1224987E4,-1.4109525E3,-2.2979072E4,-6.907574E4,3.052645E4,-2.300742E3,-5.2646567E3,2.7896805E4,-3.148252E3,2.0502764E4,-3.3491023E3,4.0505363E4,9.877511E4,1.4252985E4,8.514581E3,-1.1137617E3,1.0209573E4,-4.6703082E4,2.7336803E4,-5.657198E3,7.167573E4,9.755739E3,1.8508564E4,4.0177453E4,3.479769E4,1.922383E4,-2.7094502E3,1.2264368E4,1.8841805E4,-1.7651982E3,5.2518895E4,1.1647795E5,4.419149E3,3.1123766E4,9.446632E4,3.7265734E4,1.9982021E4,3.7476293E4,-4.2258305E4,4.676673E3,-5.547165E3,-3.2531598E4,1.4825553E4,1.4972225E3,1.4228999E4,3.3357895E4,-5.1858266E4,-8.557273E3],"categories":[],"categories_nodes":[],"categories_segments":[],"categories_sizes":[],"default_left":[1,1,1,1,1,1,1,1,1,1,1,1,1,1,1,1,1,1,1,1,1,1,1,1,1,1,1,1,1,1,1,1,0,1,1,1,0,1,1,1,1,1,1,1,1,1,1,1,1,1,1,1,1,1,1,1,1,1,1,1,1,1,1,0,0,0,0,0,0,0,0,0,0,0,0,0,0,0,0,0,0,0,0,0,0,0,0,0,0,0,0,0,0,0,0,0,0,0,0,0,0,0,0,0,0,0,0,0,0,0,0,0,0,0,0,0,0,0,0,0,0,0,0],"id":10,"left_children":[1,3,5,7,9,11,13,15,17,19,21,23,25,27,29,31,33,35,37,39,41,43,45,47,49,51,53,55,57,59,61,63,-1,65,67,69,-1,71,73,75,77,79,81,83,85,87,89,91,93,95,97,99,101,103,105,107,109,111,113,115,117,119,121,-1,-1,-1,-1,-1,-1,-1,-1,-1,-1,-1,-1,-1,-1,-1,-1,-1,-1,-1,-1,-1,-1,-1,-1,-1,-1,-1,-1,-1,-1,-1,-1,-1,-1,-1,-1,-1,-1,-1,-1,-1,-1,-1,-1,-1,-1,-1,-1,-1,-1,-1,-1,-1,-1,-1,-1,-1,-1,-1,-1],"loss_changes":[2.048194E12,5.3006945E11,1.8026993E12,1.11041495E11,4.3188198E11,1.8195457E12,7.8339296E11,2.7534737E10,2.2151332E10,2.6826546E11,3.5763087E11,1.5189871E12,1.0390256E12,7.9783186E11,4.3814712E11,8.969355E9,1.4491568E10,6.1817037E9,1.2204327E10,1.10713586E11,1.7095315E11,4.810365E11,2.7374374E11,4.9735916E11,1.3182268E12,1.0841416E12,3.18227E11,2.2271964E11,3.057616E11,2.4992994E11,1.5790906E11,4.9213604E9,0E0,1.0541728E10,2.7130122E9,9.995607E8,0E0,5.3964145E9,4.9105306E9,3.8745793E10,2.3330898E10,1.8726033E10,1.3371336E11,1.5610747E11,3.839965E11,3.0231665E11,1.935877E11,4.3600734E11,2.770948E11,5.803276E11,5.4606168E11,9.20095E11,2.779872E11,2.0076595E11,4.6446576E10,1.5051035E11,6.4614728E10,3.1309064E11,1.0808292E11,1.4007363E11,2.0737111E11,1.4185955E11,3.590395E10,0E0,0E0,0E0,0E0,0E0,0E0,0E0,0E0,0E0,0E0,0E0,0E0,0E0,0E0,0E0,0E0,0E0,0E0,0E0,0E0,0E0,0E0,0E0,0E0,0E0,0E0,0E0,0E0,0E0,0E0,0E0,0E0,0E0,0E0,0E0,0E0,0E0,0E0,0E0,0E0,0E0,0E0,0E0,0E0,0E0,0E0,0E0,0E0,0E0,0E0,0E0,0E0,0E0,0E0,0E0,0E0,0E0,0E0,0E0,0E0],"parents":[2147483647,0,0,1,1,2,2,3,3,4,4,5,5,6,6,7,7,8,8,9,9,10,10,11,11,12,12,13,13,14,14,15,15,16,16,17,17,18,18,19,19,20,20,21,21,22,22,23,23,24,24,25,25,26,26,27,27,28,28,29,29,30,30,31,31,33,33,34,34,35,35,37,37,38,38,39,39,40,40,41,41,42,42,43,43,44,44,45,45,46,46,47,47,48,48,49,49,50,50,51,51,52,52,53,53,54,54,55,55,56,56,57,57,58,58,59,59,60,60,61,61,62,62],"right_children":[2,4,6,8,10,12,14,16,18,20,22,24,26,28,30,32,34,36,38,40,42,44,46,48,50,52,54,56,58,60,62,64,-1,66,68,70,-1,72,74,76,78,80,82,84,86,88,90,92,94,96,98,100,102,104,106,108,110,112,114,116,118,120,122,-1,-1,-1,-1,-1,-1,-1,-1,-1,-1,-1,-1,-1,-1,-1,-1,-1,-1,-1,-1,-1,-1,-1,-1,-1,-1,-1,-1,-1,-1,-1,-1,-1,-1,-1,-1,-1,-1,-1,-1,-1,-1,-1,-1,-1,-1,-1,-1,-1,-1,-1,-1,-1,-1,-1,-1,-1,-1,-1,-1],"split_conditions":[-2.568268E-1,-2.0014553E0,5.553988E-1,3.9645427E-1,-1.1199815E0,5E-1,-3.399179E-1,-2.1676104E0,-1.0444672E0,-5.4430723E-1,5E-1,5E-1,5E-1,-4.9586087E-1,1.7151664E0,1.3519297E0,6.4629465E-1,2.0451322E0,-2.1523635E-1,9.243646E-1,-1.7534196E0,-1.1825781E0,5E-1,5E-1,4.6196494E-1,1.6500235E0,2.2770383E0,3.273969E0,2.930888E-1,-1.517296E-1,5E-1,-2.0696388E-1,-1.2861878E4,1.6479912E0,-4.048556E-1,-2.66605E-1,-1.0414915E4,-1.409695E-1,-5.9901786E-1,-2.1624658E-1,5E-1,-1.2478738E0,-1.2269742E0,1.15417704E-1,2.4249542E0,-1.6976452E0,-4.2298186E-1,-4.5647454E-1,3.7407184E-1,1.86236E0,4.9982992E-1,5E-1,-4.9214852E-1,3.038551E-2,2.7755036E0,1.4863625E0,-1.6498387E0,5E-1,5.4714017E-2,1.6481478E0,-7.8870785E-1,2.8317726E-1,-4.940416E-2,-4.4937783E3,-1.8290872E3,-6.7408777E2,-5.2327334E3,-3.5607551E3,-9.52612E3,-3.560835E2,-3.6147651E3,-9.824421E3,-3.766509E3,-1.3789785E4,-7.00882E3,3.3674963E3,-4.2328577E2,-6.893722E3,-2.0722723E4,9.157936E3,-6.902226E2,-1.5793971E3,8.369042E3,-9.4447565E2,6.1508296E3,-1.0047307E3,1.2151609E4,2.9632533E4,4.275896E3,2.5543745E3,-3.3412854E2,3.062872E3,-1.4010925E4,8.201041E3,-1.6971595E3,2.1502719E4,2.926722E3,5.5525693E3,1.2053236E4,1.0439308E4,5.7671494E3,-8.128351E2,3.6793105E3,5.6525415E3,-5.295595E2,1.5755669E4,3.4943387E4,1.3257448E3,9.33713E3,2.8339896E4,1.1179721E4,5.9946064E3,1.1242889E4,-1.2677492E4,1.403002E3,-1.6641495E3,-9.7594795E3,4.447666E3,4.4916678E2,4.2686997E3,1.0007369E4,-1.555748E4,-2.5671821E3],"split_indices":[39,39,50,29,40,21,40,39,40,29,6,7,20,44,40,32,26,29,44,26,52,50,21,2,29,45,39,39,47,52,18,26,0,23,32,44,0,42,47,26,2,46,45,29,26,47,39,47,42,46,31,19,42,27,39,52,44,15,39,45,47,39,46,0,0,0,0,0,0,0,0,0,0,0,0,0,0,0,0,0,0,0,0,0,0,0,0,0,0,0,0,0,0,0,0,0,0,0,0,0,0,0,0,0,0,0,0,0,0,0,0,0,0,0,0,0,0,0,0,0,0,0,0],"split_type":[0,0,0,0,0,0,0,0,0,0,0,0,0,0,0,0,0,0,0,0,0,0,0,0,0,0,0,0,0,0,0,0,0,0,0,0,0,0,0,0,0,0,0,0,0,0,0,0,0,0,0,0,0,0,0,0,0,0,0,0,0,0,0,0,0,0,0,0,0,0,0,0,0,0,0,0,0,0,0,0,0,0,0,0,0,0,0,0,0,0,0,0,0,0,0,0,0,0,0,0,0,0,0,0,0,0,0,0,0,0,0,0,0,0,0,0,0,0,0,0,0,0,0],"sum_hessian":[9.9216E4,3.5861E4,6.3355E4,1.473E3,3.4388E4,4.2625E4,2.073E4,1.243E3,2.3E2,4.211E3,3.0177E4,8.647E3,3.3978E4,8.802E3,1.1928E4,4.1E2,8.33E2,6.2E1,1.68E2,1.45E3,2.761E3,8.919E3,2.1258E4,1.858E3,6.789E3,2.9931E4,4.047E3,4.401E3,4.401E3,9.925E3,2.003E3,4E2,1E1,8.01E2,3.2E1,5E1,1.2E1,5.8E1,1.1E2,1.401E3,4.9E1,2.75E2,2.486E3,1.836E3,7.083E3,6.135E3,1.5123E4,5.38E2,1.32E3,1.637E3,5.152E3,2.4783E4,5.148E3,3.967E3,8E1,4.291E3,1.1E2,4.113E3,2.88E2,2.151E3,7.774E3,1.877E3,1.26E2,3.21E2,7.9E1,7.53E2,4.8E1,1.2E1,2E1,1.1E1,3.9E1,3.5E1,2.3E1,9.7E1,1.3E1,1.089E3,3.12E2,3.2E1,1.7E1,1.8E1,2.57E2,1.28E2,2.358E3,3.43E2,1.493E3,6.878E3,2.05E2,4.2E1,6.093E3,1.2621E4,2.502E3,2.78E2,2.6E2,9.76E2,3.44E2,1.468E3,1.69E2,1.777E3,3.375E3,4.677E3,2.0106E4,2.08E3,3.068E3,5.48E2,3.419E3,6.6E1,1.4E1,4.069E3,2.22E2,2.6E1,8.4E1,2.183E3,1.93E3,6.2E1,2.26E2,1.938E3,2.13E2,1.43E3,6.344E3,1.329E3,5.48E2,2.3E1,1.03E2],"tree_param":{"num_deleted":"0","num_feature":"53","num_nodes":"123","size_leaf_vector":"0"}},{"base_weights":[9.482689E3,4.4426245E3,1.2977794E4,6.312077E2,7.348993E3,1.1500143E4,2.5555963E4,3.9675812E2,6.836057E4,5.526745E3,1.8690947E4,9.940282E3,2.3058871E4,2.3011695E4,5.372883E4,5.117138E3,-9.3481445E2,9.012243E4,4.366292E4,9.234289E3,1.9353259E3,1.6770219E4,4.4623688E4,2.5894158E4,8.850055E3,1.856892E4,3.4952293E4,4.627621E4,2.046645E4,4.234613E4,9.649423E4,4.1114634E3,5.6719855E4,4.552329E2,-8.0033647E3,1.2764821E5,6.305858E4,2.9453514E4,6.728245E4,8.357708E3,4.805957E4,1.5683333E3,3.1509066E4,1.1988188E4,2.8548527E4,3.4720082E4,1.15557445E5,1.1342436E5,2.4054943E4,1.9822338E4,7.899942E3,3.753636E4,1.6265836E4,4.080956E3,4.1134914E4,2.124027E4,5.9738457E4,1.9379793E4,7.7127195E4,8.228169E4,3.5762504E4,7.127431E4,1.2921311E5,3.466798E3,4.6471973E4,1.1760858E5,1.0694413E4,1.1910713E2,4.0677707E4,-9.847262E2,-1.2253244E4,5.3622476E3,1.4114672E4,3.0572426E4,1.302511E5,1.132996E3,2.5016145E4,2.0011174E4,5.744296E4,3.525366E4,8.955546E3,1.7904568E4,4.590267E4,3.9261345E3,4.3493098E4,1.3888962E5,8.272225E4,1.3776997E5,1.400447E4,1.2773006E4,3.1412084E4,1.5088646E4,5.4120113E4,1.0296266E4,3.53097E3,5.370413E4,2.5067598E4,1.9634693E4,6.0691914E3,-1.6383237E4,1.4334228E4,7.276823E4,3.7480984E4,4.8525425E3,3.354258E4,1.28702055E5,5.302529E4,1.4089982E4,3.0113389E4,1.4053008E4,1.4049616E5,7.9715073E3,1.0430219E5,2.6465395E4,7.779659E4,8.728987E4,2.0603168E4,1.6552353E5,8.4074664E4],"categories":[],"categories_nodes":[],"categories_segments":[],"categories_sizes":[],"default_left":[1,1,1,1,1,1,1,1,1,1,1,1,1,1,1,1,1,1,1,1,1,1,1,1,1,1,1,1,1,1,1,1,1,1,1,0,0,0,0,1,1,1,1,1,1,1,1,1,1,1,1,1,1,1,1,1,1,1,1,1,1,1,1,0,0,0,0,0,0,0,0,0,0,0,0,0,0,0,0,0,0,0,0,0,0,0,0,0,0,0,0,0,0,0,0,0,0,0,0,0,0,0,0,0,0,0,0,0,0,0,0,0,0,0,0,0,0,0,0],"id":11,"left_children":[1,3,5,7,9,11,13,15,17,19,21,23,25,27,29,31,33,35,37,39,41,43,45,47,49,51,53,55,57,59,61,63,65,67,69,-1,-1,-1,-1,71,73,75,77,79,81,83,85,87,89,91,93,95,97,99,101,103,105,107,109,111,113,115,117,-1,-1,-1,-1,-1,-1,-1,-1,-1,-1,-1,-1,-1,-1,-1,-1,-1,-1,-1,-1,-1,-1,-1,-1,-1,-1,-1,-1,-1,-1,-1,-1,-1,-1,-1,-1,-1,-1,-1,-1,-1,-1,-1,-1,-1,-1,-1,-1,-1,-1,-1,-1,-1,-1,-1,-1],"loss_changes":[1.7477172E12,4.5006592E11,1.0887281E12,2.7910665E11,4.7635877E11,9.451565E11,4.4065227E11,1.1011747E11,3.0075748E10,2.6445172E11,1.5844167E11,8.033644E11,3.3246282E11,3.339274E11,2.4547308E11,1.9988216E11,1.3426682E11,2.6998129E10,8.676155E9,3.3233463E11,1.0947046E11,1.6715245E11,1.5172865E11,4.739085E11,4.5069684E11,1.9734515E11,3.2581642E11,1.8679241E11,3.1265836E11,1.04242086E11,8.2124866E10,1.0316121E11,2.0553912E11,1.5438263E11,6.6974155E10,0E0,0E0,0E0,0E0,1.6476838E11,3.0738314E11,1.017149E11,3.612645E10,1.489936E11,1.578896E11,5.2196557E10,1.3090587E10,1.4551679E11,2.400024E11,5.588889E11,4.166349E11,9.784204E10,1.3861788E11,6.0081725E10,1.6269233E11,3.933271E10,1.6307205E11,2.835406E11,3.8097093E11,9.213031E10,1.3453427E11,4.8862626E10,6.593721E10,0E0,0E0,0E0,0E0,0E0,0E0,0E0,0E0,0E0,0E0,0E0,0E0,0E0,0E0,0E0,0E0,0E0,0E0,0E0,0E0,0E0,0E0,0E0,0E0,0E0,0E0,0E0,0E0,0E0,0E0,0E0,0E0,0E0,0E0,0E0,0E0,0E0,0E0,0E0,0E0,0E0,0E0,0E0,0E0,0E0,0E0,0E0,0E0,0E0,0E0,0E0,0E0,0E0,0E0,0E0,0E0],"parents":[2147483647,0,0,1,1,2,2,3,3,4,4,5,5,6,6,7,7,8,8,9,9,10,10,11,11,12,12,13,13,14,14,15,15,16,16,17,17,18,18,19,19,20,20,21,21,22,22,23,23,24,24,25,25,26,26,27,27,28,28,29,29,30,30,31,31,32,32,33,33,34,34,39,39,40,40,41,41,42,42,43,43,44,44,45,45,46,46,47,47,48,48,49,49,50,50,51,51,52,52,53,53,54,54,55,55,56,56,57,57,58,58,59,59,60,60,61,61,62,62],"right_children":[2,4,6,8,10,12,14,16,18,20,22,24,26,28,30,32,34,36,38,40,42,44,46,48,50,52,54,56,58,60,62,64,66,68,70,-1,-1,-1,-1,72,74,76,78,80,82,84,86,88,90,92,94,96,98,100,102,104,106,108,110,112,114,116,118,-1,-1,-1,-1,-1,-1,-1,-1,-1,-1,-1,-1,-1,-1,-1,-1,-1,-1,-1,-1,-1,-1,-1,-1,-1,-1,-1,-1,-1,-1,-1,-1,-1,-1,-1,-1,-1,-1,-1,-1,-1,-1,-1,-1,-1,-1,-1,-1,-1,-1,-1,-1,-1,-1,-1,-1],"split_conditions":[-3.7553188E-1,-8.898417E-1,1.0724139E0,4.0498786E0,1.0724139E0,1.4499605E0,1.1673976E0,-9.55096E-1,-6.365453E-1,-1.8945798E-1,8.961362E-1,-1.2417951E0,-1.3221046E-1,-1.0765855E0,1.8616507E0,8.8937604E-1,7.2143877E-1,5.697564E-1,3.2055232E-1,1.5507159E0,1.5955687E0,6.204678E-1,1.2107856E0,-1.5327964E0,-1.4920969E0,-8.5302806E-1,-9.504527E-1,-7.620752E-1,1.5866983E0,-9.470871E-1,8.7597495E-1,2.152422E0,-1.3529971E0,1.5256755E0,-5.4759824E-1,3.8294465E4,1.8917574E4,8.836055E3,2.0184736E4,1.5460905E-1,-1.9451863E-1,2.8080468E0,-1.5297985E-1,-1.0216639E0,3.592509E-2,-7.3416233E-1,-4.8168534E-1,-2.5914517E-1,-5.8855414E-1,1.4020524E0,5E-1,-3.408636E-1,8.0291903E-1,-9.7482336E-1,5E-1,-7.540309E-1,-6.2772286E-1,5E-1,-7.8925505E-2,-9.1617256E-1,1.4140397E0,1.5184554E-1,1.4140397E0,1.0400394E3,1.3941593E4,3.5282574E4,3.208324E3,3.573214E1,1.22033125E4,-2.9541788E2,-3.6759734E3,1.6086743E3,4.234402E3,9.171729E3,3.9075332E4,3.398988E2,7.5048438E3,6.0033525E3,1.7232889E4,1.0576099E4,2.6866638E3,5.3713706E3,1.3770802E4,1.1778405E3,1.304793E4,4.166689E4,2.4816676E4,4.1330992E4,4.2013413E3,3.8319019E3,9.423626E3,4.526594E3,1.6236034E4,3.08888E3,1.059291E3,1.6111239E4,7.52028E3,5.890408E3,1.8207574E3,-4.914971E3,4.3002686E3,2.1830469E4,1.1244296E4,1.4557628E3,1.0062773E4,3.8610617E4,1.5907587E4,4.226995E3,9.034017E3,4.2159023E3,4.2148848E4,2.3914524E3,3.1290658E4,7.9396187E3,2.3338979E4,2.618696E4,6.1809507E3,4.9657062E4,2.52224E4],"split_indices":[30,30,39,24,39,52,30,45,45,46,29,40,39,40,39,43,27,46,42,48,52,37,46,46,51,43,49,23,31,47,47,39,52,23,39,0,0,0,0,23,39,24,39,40,49,52,40,49,52,42,8,40,42,46,10,44,25,4,52,52,37,49,37,0,0,0,0,0,0,0,0,0,0,0,0,0,0,0,0,0,0,0,0,0,0,0,0,0,0,0,0,0,0,0,0,0,0,0,0,0,0,0,0,0,0,0,0,0,0,0,0,0,0,0,0,0,0,0,0],"split_type":[0,0,0,0,0,0,0,0,0,0,0,0,0,0,0,0,0,0,0,0,0,0,0,0,0,0,0,0,0,0,0,0,0,0,0,0,0,0,0,0,0,0,0,0,0,0,0,0,0,0,0,0,0,0,0,0,0,0,0,0,0,0,0,0,0,0,0,0,0,0,0,0,0,0,0,0,0,0,0,0,0,0,0,0,0,0,0,0,0,0,0,0,0,0,0,0,0,0,0,0,0,0,0,0,0,0,0,0,0,0,0,0,0,0,0,0,0,0,0],"sum_hessian":[9.9216E4,4.0629E4,5.8587E4,1.7578E4,2.3051E4,5.2429E4,6.158E3,1.7518E4,6E1,1.9861E4,3.19E3,4.6196E4,6.233E3,5.649E3,5.09E2,3.854E3,1.3664E4,3.1E1,2.9E1,9.772E3,1.0089E4,2.971E3,2.19E2,2.954E3,4.3242E4,4.526E3,1.707E3,5.56E2,5.093E3,4.03E2,1.06E2,3.781E3,7.3E1,1.1419E4,2.245E3,1.2E1,1.9E1,1.9E1,1E1,9.557E3,2.15E2,9.966E3,1.23E2,2.114E3,8.57E2,1.93E2,2.6E1,6E1,2.894E3,3.445E3,3.9797E4,4.89E2,4.037E3,2.85E2,1.422E3,1.95E2,3.61E2,4.998E3,9.5E1,5.6E1,3.47E2,6.1E1,4.5E1,3.725E3,5.6E1,3.1E1,4.2E1,1.1325E4,9.4E1,8.47E2,1.398E3,6.287E3,3.27E3,1.78E2,3.7E1,9.785E3,1.81E2,8.6E1,3.7E1,2.43E2,1.871E3,5.32E2,3.25E2,4.3E1,1.5E2,1.4E1,1.2E1,4.8E1,1.2E1,1.143E3,1.751E3,3.028E3,4.17E2,2.57E4,1.4097E4,2.12E2,2.77E2,3.034E3,1.003E3,9.5E1,1.9E2,1.46E2,1.276E3,8.4E1,1.11E2,3.1E1,3.3E2,3.349E3,1.649E3,4.8E1,4.7E1,1.3E1,4.3E1,2.85E2,6.2E1,4.6E1,1.5E1,2.4E1,2.1E1],"tree_param":{"num_deleted":"0","num_feature":"53","num_nodes":"119","size_leaf_vector":"0"}},{"base_weights":[6.6429644E3,4.0857944E3,1.0814882E4,1.3118995E3,7.0511445E3,1.8665576E3,1.2959344E4,2.277857E3,-4.7825083E3,5.817629E3,2.0353777E4,-1.3017129E4,3.2807056E3,1.832076E4,9.237008E3,5.0536826E3,-4.2005643E2,1.4464723E4,-5.9837275E3,8.594471E3,-2.057309E1,1.8159129E4,1.0363501E5,-6.61478E3,-2.8768453E4,8.0401164E4,3.0289758E3,-9.442174E3,1.9534965E4,5.3327E3,1.4839355E4,1.0396208E4,1.929505E3,1.4696681E3,-5.900484E3,4.0917383E3,2.6803443E4,-4.217948E3,-1.5479264E4,6.626681E3,1.8472373E4,-8.465975E2,4.1613633E4,2.7778186E4,9.897498E3,7.148069E4,1.3377186E5,-1.7782883E4,-3.9872903E3,-5.1769504E4,-2.508083E4,9.896969E4,5.9035656E4,4.9724756E3,-4.544334E3,3.8197508E4,-1.8107408E4,2.2083271E4,7.3313643E3,4.670402E4,4.500223E3,1.4097548E4,8.5345336E4,9.537741E3,6.5351793E4,4.017788E2,1.6890652E4,1.7558797E2,1.1207848E4,-1.9764631E3,-1.8549416E4,1.861082E4,-1.8542751E3,4.7702562E4,1.4635503E4,-5.2851865E3,1.5594129E4,-2.7700143E4,-1.1071992E4,-9.256482E3,7.6624556E3,1.46238125E4,4.764738E4,1.2577966E4,-2.9824119E3,1.5243748E4,8.262375E4,2.5376254E4,1.13888805E5,3.8680403E3,2.642867E4,1.1094107E5,1.5409003E5,-4.126778E3,-2.7168094E4,1.646293E3,-7.4477104E3,-3.1585287E4,-1.7298553E4,4.112538E3,3.0559105E4,-3.1890379E4,-2.9720884E3,2.1586438E4,6.3490594E4,6.6450446E2,-3.5521973E4,3.846294E4,1.922338E4,6.435067E3,4.217536E4,3.1676893E4,1.1670592E5,2.1890967E3,1.8099361E4,2.0584215E4,9.286636E3,1.3838373E5,4.7389875E4],"categories":[],"categories_nodes":[],"categories_segments":[],"categories_sizes":[],"default_left":[1,1,1,1,1,1,1,1,1,1,1,1,1,1,1,1,1,1,1,1,1,1,1,1,1,1,1,1,1,1,1,1,1,1,1,1,1,1,1,1,1,1,1,1,1,0,1,1,1,0,1,0,0,1,1,1,1,1,1,1,1,1,1,0,0,0,0,0,0,0,0,0,0,0,0,0,0,0,0,0,0,0,0,0,0,0,0,0,0,0,0,0,0,0,0,0,0,0,0,0,0,0,0,0,0,0,0,0,0,0,0,0,0,0,0,0,0,0,0],"id":12,"left_children":[1,3,5,7,9,11,13,15,17,19,21,23,25,27,29,31,33,35,37,39,41,43,45,47,49,51,53,55,57,59,61,63,65,67,69,71,73,75,77,79,81,83,85,87,89,-1,91,93,95,-1,97,-1,-1,99,101,103,105,107,109,111,113,115,117,-1,-1,-1,-1,-1,-1,-1,-1,-1,-1,-1,-1,-1,-1,-1,-1,-1,-1,-1,-1,-1,-1,-1,-1,-1,-1,-1,-1,-1,-1,-1,-1,-1,-1,-1,-1,-1,-1,-1,-1,-1,-1,-1,-1,-1,-1,-1,-1,-1,-1,-1,-1,-1,-1,-1,-1],"loss_changes":[1.05844284E12,5.0597757E11,7.234907E11,1.8711485E11,4.877716E11,1.5345602E11,6.0687385E11,2.0546568E11,1.0059474E11,4.4110132E11,4.5985976E11,6.3672795E10,1.2908223E11,4.2023204E11,3.9263037E11,2.2569186E11,1.4410262E11,3.2644674E10,6.8593943E10,3.583224E11,3.0164648E11,1.9520592E11,5.6542036E10,1.3175503E10,1.4657176E10,4.8570204E9,9.769717E10,2.1618377E11,3.7122946E11,3.6426393E11,3.8482608E11,2.3499329E11,1.9504266E11,1.3038532E11,1.7705229E11,1.2078864E10,2.920878E10,7.305403E10,3.4359116E10,2.530115E11,3.4342778E11,2.4662308E11,1.837172E11,2.3303409E11,1.3186294E11,0E0,4.264362E9,1.089995E10,7.1364424E9,0E0,7.676887E9,0E0,0E0,1.1612681E11,5.822021E10,3.2997458E10,1.4471887E11,4.622317E11,6.426977E10,2.1710376E11,3.2597705E11,2.2757913E11,1.5008865E11,0E0,0E0,0E0,0E0,0E0,0E0,0E0,0E0,0E0,0E0,0E0,0E0,0E0,0E0,0E0,0E0,0E0,0E0,0E0,0E0,0E0,0E0,0E0,0E0,0E0,0E0,0E0,0E0,0E0,0E0,0E0,0E0,0E0,0E0,0E0,0E0,0E0,0E0,0E0,0E0,0E0,0E0,0E0,0E0,0E0,0E0,0E0,0E0,0E0,0E0,0E0,0E0,0E0,0E0,0E0,0E0],"parents":[2147483647,0,0,1,1,2,2,3,3,4,4,5,5,6,6,7,7,8,8,9,9,10,10,11,11,12,12,13,13,14,14,15,15,16,16,17,17,18,18,19,19,20,20,21,21,22,22,23,23,24,24,25,25,26,26,27,27,28,28,29,29,30,30,31,31,32,32,33,33,34,34,35,35,36,36,37,37,38,38,39,39,40,40,41,41,42,42,43,43,44,44,46,46,47,47,48,48,50,50,53,53,54,54,55,55,56,56,57,57,58,58,59,59,60,60,61,61,62,62],"right_children":[2,4,6,8,10,12,14,16,18,20,22,24,26,28,30,32,34,36,38,40,42,44,46,48,50,52,54,56,58,60,62,64,66,68,70,72,74,76,78,80,82,84,86,88,90,-1,92,94,96,-1,98,-1,-1,100,102,104,106,108,110,112,114,116,118,-1,-1,-1,-1,-1,-1,-1,-1,-1,-1,-1,-1,-1,-1,-1,-1,-1,-1,-1,-1,-1,-1,-1,-1,-1,-1,-1,-1,-1,-1,-1,-1,-1,-1,-1,-1,-1,-1,-1,-1,-1,-1,-1,-1,-1,-1,-1,-1,-1,-1,-1,-1,-1,-1,-1,-1],"split_conditions":[1.3877794E-1,-4.9132913E-2,-9.629859E-1,6.360266E-1,9.4033176E-1,-1.7106838E0,-3.4483433E-1,5.589676E-2,-1.2166715E0,1.33756E-1,1.5507159E0,1.5230915E-1,-1.3997192E0,-1.3165951E0,1.0131359E0,-2.4407075E-1,-5.060594E-1,4.9982992E-1,6.765889E-1,5.950928E-1,1.5507159E0,-3.832771E-1,-7.536707E-1,-2.1676104E0,-2.2922268E0,1.1673976E0,7.5762206E-1,-8.981934E-1,6.9766337E-1,-2.1019807E0,1.5507159E0,9.001074E-1,1.3948898E0,-6.306758E-1,5.95587E-1,1.4040706E0,-9.312887E-1,1.8327346E-1,-7.8370506E-1,-9.8206973E-1,1.4076955E0,-1.0517348E0,-8.069664E-1,1.2302852E0,6.672737E-2,2.1444207E4,5E-1,-6.770022E-1,4.5465356E-1,-1.5530852E4,-4.9052936E-1,2.9690908E4,1.7710697E4,2.4949799E0,-1.387373E0,5E-1,-3.5209703E-1,-9.4903445E-1,2.6924262E0,9.4779766E-1,1.1970303E0,-3.52045E-1,-7.6201856E-1,2.8613225E3,1.960554E4,1.20533646E2,5.067196E3,5.267639E1,3.3623545E3,-5.9293896E2,-5.564825E3,5.583246E3,-5.562826E2,1.431077E4,4.390651E3,-1.585556E3,4.678239E3,-8.310043E3,-3.321598E3,-2.7769448E3,2.2987368E3,4.387144E3,1.4294214E4,3.77339E3,-8.947236E2,4.5731245E3,2.4787127E4,7.6128765E3,3.4166645E4,1.1604121E3,7.928601E3,3.3282324E4,4.622701E4,-1.2380334E3,-8.150428E3,4.938879E2,-2.2343132E3,-9.475587E3,-5.189566E3,1.2337615E3,9.167732E3,-9.567114E3,-8.916265E2,6.4759316E3,1.904718E4,1.9935135E2,-1.0656592E4,1.1538883E4,5.7670146E3,1.9305201E3,1.2652608E4,9.503068E3,3.5011777E4,6.56729E2,5.4298086E3,6.1752646E3,2.7859907E3,4.151512E4,1.4216963E4],"split_indices":[30,39,39,50,52,39,40,46,40,40,48,27,42,52,52,44,39,31,44,41,48,47,44,39,39,30,26,46,45,48,48,43,43,39,27,43,47,28,42,26,42,51,52,28,29,0,0,25,40,0,43,0,0,42,43,13,47,46,39,39,39,47,43,0,0,0,0,0,0,0,0,0,0,0,0,0,0,0,0,0,0,0,0,0,0,0,0,0,0,0,0,0,0,0,0,0,0,0,0,0,0,0,0,0,0,0,0,0,0,0,0,0,0,0,0,0,0,0,0],"split_type":[0,0,0,0,0,0,0,0,0,0,0,0,0,0,0,0,0,0,0,0,0,0,0,0,0,0,0,0,0,0,0,0,0,0,0,0,0,0,0,0,0,0,0,0,0,0,0,0,0,0,0,0,0,0,0,0,0,0,0,0,0,0,0,0,0,0,0,0,0,0,0,0,0,0,0,0,0,0,0,0,0,0,0,0,0,0,0,0,0,0,0,0,0,0,0,0,0,0,0,0,0,0,0,0,0,0,0,0,0,0,0,0,0,0,0,0,0,0,0],"sum_hessian":[9.9216E4,6.1513E4,3.7703E4,3.1783E4,2.973E4,7.289E3,3.0414E4,2.7435E4,4.348E3,2.7208E4,2.522E3,6.32E2,6.657E3,1.2462E4,1.7952E4,1.3522E4,1.3913E4,2.55E2,4.093E3,1.8438E4,8.77E3,2.458E3,6.4E1,4.5E2,1.82E2,2.1E1,6.636E3,5.22E2,1.194E4,1.058E4,7.372E3,4.989E3,8.533E3,1.0346E4,3.567E3,1.39E2,1.16E2,3.452E3,6.41E2,1.5376E4,3.062E3,8.6E3,1.7E2,1.135E3,1.323E3,3.2E1,3.2E1,8.5E1,3.65E2,2.4E1,1.58E2,1E1,1.1E1,5.281E3,1.355E3,8E1,4.42E2,9.877E3,2.063E3,2.08E2,1.0372E4,7.296E3,7.6E1,4.913E3,7.6E1,7.743E3,7.9E2,9.133E3,1.213E3,2.723E3,8.44E2,4E1,9.9E1,4.2E1,7.4E1,3.276E3,1.76E2,1.69E2,4.72E2,9.41E2,1.4435E4,2.706E3,3.56E2,1.18E3,7.42E3,1.04E2,6.6E1,1.105E3,3E1,9.7E2,3.53E2,1.7E1,1.5E1,3.5E1,5E1,1.39E2,2.26E2,8.5E1,7.3E1,5.11E3,1.71E2,7.3E1,1.282E3,4.9E1,3.1E1,2.13E2,2.29E2,1.467E3,8.41E3,2.012E3,5.1E1,1.72E2,3.6E1,8.866E3,1.506E3,3.106E3,4.19E3,3.1E1,4.5E1],"tree_param":{"num_deleted":"0","num_feature":"53","num_nodes":"119","size_leaf_vector":"0"}},{"base_weights":[4.6527095E3,-7.6183716E2,5.8185483E3,-9.305109E2,4.7977832E4,-3.2313458E2,7.067265E3,9.165685E2,-4.102176E3,3.807159E4,8.76146E4,2.5741883E4,-1.4437059E3,1.4423831E4,5.3633247E3,-8.6356964E2,8.97833E3,-4.8044136E3,1.0366942E4,5.8761188E4,2.614804E4,2.1720838E4,1.0108798E5,6.670853E3,-4.8127104E3,2.500475E4,8.225801E3,3.425754E3,1.0753409E4,-5.679067E2,-2.5948549E4,3.2406654E4,3.532356E3,-6.3703193E3,2.374553E3,-1.4668961E4,1.8508701E4,-3.2877437E3,3.9251316E4,6.3246027E4,1.5560401E4,6.5912836E4,1.4231642E5,2.342238E4,7.560056E2,-1.4206971E3,-1.1521548E4,3.9448297E4,6.1779155E3,1.5869342E4,-1.9222406E1,2.190272E3,1.7302785E4,8.608398E3,1.9593586E4,-7.3489246E2,3.3580008E4,-1.1950036E4,-3.7037977E4,1.6255307E4,6.2162516E4,6.376061E2,2.4566646E4,-6.8443066E2,-8.917414E3,-1.836481E3,1.8283363E4,-2.597846E4,1.3269814E4,5.2107316E4,5.575658E3,6.498922E4,1.5607363E4,8.638997E4,3.0153504E4,1.9839545E4,-1.5393682E4,1.3848395E4,3.8025145E4,-1.7153304E3,2.293608E4,2.1787964E3,-1.4492016E4,-4.7611797E3,-3.8032875E4,5.724962E4,2.2411793E4,-4.291937E3,1.2481893E4,1.1327127E4,2.8568602E4,-1.8202732E4,3.2665227E3,2.8177546E3,-1.744024E4,3.4455348E4,1.0467616E4,1.4426989E5,8.473159E3,7.125509E3,2.4583105E4],"categories":[],"categories_nodes":[],"categories_segments":[],"categories_sizes":[],"default_left":[1,1,1,1,1,1,1,1,1,1,0,1,1,1,1,1,1,1,1,0,1,1,1,1,1,1,1,1,1,1,1,1,1,1,1,1,1,0,1,1,1,0,0,1,1,1,1,1,1,1,1,1,1,1,1,0,0,0,0,0,0,0,0,0,0,0,0,0,0,0,0,0,0,0,0,0,0,0,0,0,0,0,0,0,0,0,0,0,0,0,0,0,0,0,0,0,0,0,0,0,0],"id":13,"left_children":[1,3,5,7,9,11,13,15,17,19,-1,21,23,25,27,29,31,33,35,-1,37,39,41,43,45,47,49,51,53,55,57,59,61,63,65,67,69,-1,71,73,75,-1,-1,77,79,81,83,85,87,89,91,93,95,97,99,-1,-1,-1,-1,-1,-1,-1,-1,-1,-1,-1,-1,-1,-1,-1,-1,-1,-1,-1,-1,-1,-1,-1,-1,-1,-1,-1,-1,-1,-1,-1,-1,-1,-1,-1,-1,-1,-1,-1,-1,-1,-1,-1,-1,-1,-1],"loss_changes":[6.2630776E11,1.445376E11,6.261071E11,1.0263252E11,2.1676114E10,4.029299E11,8.5039094E11,1.5889559E11,6.554371E10,1.1258667E10,0E0,1.7087021E11,3.6160963E11,8.365872E11,5.752813E11,6.725377E10,2.5543867E11,6.9141774E10,6.1045096E10,0E0,1.2673831E10,1.3766666E11,3.5550036E10,3.8448932E11,2.126842E11,1.2813279E12,5.0711072E11,6.9470945E11,2.760868E11,5.1129426E10,1.6110838E10,1.8083853E11,9.896985E10,7.311162E10,7.382479E10,2.3486675E10,9.785317E10,0E0,1.3119726E10,5.1664617E10,6.266545E10,0E0,0E0,1.4123205E11,1.5727036E11,2.921387E11,5.624052E11,8.078924E11,1.3511642E11,2.4065147E11,2.3135586E11,4.5837025E11,3.8814063E11,2.1427677E11,1.7678624E11,0E0,0E0,0E0,0E0,0E0,0E0,0E0,0E0,0E0,0E0,0E0,0E0,0E0,0E0,0E0,0E0,0E0,0E0,0E0,0E0,0E0,0E0,0E0,0E0,0E0,0E0,0E0,0E0,0E0,0E0,0E0,0E0,0E0,0E0,0E0,0E0,0E0,0E0,0E0,0E0,0E0,0E0,0E0,0E0,0E0,0E0],"parents":[2147483647,0,0,1,1,2,2,3,3,4,4,5,5,6,6,7,7,8,8,9,9,11,11,12,12,13,13,14,14,15,15,16,16,17,17,18,18,20,20,21,21,22,22,23,23,24,24,25,25,26,26,27,27,28,28,29,29,30,30,31,31,32,32,33,33,34,34,35,35,36,36,38,38,39,39,40,40,43,43,44,44,45,45,46,46,47,47,48,48,49,49,50,50,51,51,52,52,53,53,54,54],"right_children":[2,4,6,8,10,12,14,16,18,20,-1,22,24,26,28,30,32,34,36,-1,38,40,42,44,46,48,50,52,54,56,58,60,62,64,66,68,70,-1,72,74,76,-1,-1,78,80,82,84,86,88,90,92,94,96,98,100,-1,-1,-1,-1,-1,-1,-1,-1,-1,-1,-1,-1,-1,-1,-1,-1,-1,-1,-1,-1,-1,-1,-1,-1,-1,-1,-1,-1,-1,-1,-1,-1,-1,-1,-1,-1,-1,-1,-1,-1,-1,-1,-1,-1,-1,-1],"split_conditions":[-8.898417E-1,4.0498786E0,-1.0253787E0,1.7129329E-1,2.0901139E0,-2.0255055E0,-9.285325E-1,5E-1,2.7482944E0,-3.3990434E-1,2.628438E4,2.0650377E0,-9.847464E-1,-4.2945135E-1,1.4435543E-1,2.3076692E0,-3.2965803E-1,5E-1,-1.4199123E0,1.7628357E4,-6.99023E-2,-5.858847E-1,9.68567E-1,-4.2916512E-1,8.6303794E-1,5E-1,-1.5276271E-1,1.06494E0,6.7816186E-1,2.6014318E0,-2.568268E-1,-2.1528801E-1,-3.7014186E-1,-5.4759824E-1,5.3834057E-1,6.4728326E-1,5E-1,-9.863231E2,4.7010177E-1,8.085077E-1,1.3537088E-1,1.9773852E4,4.269493E4,-6.306758E-1,-1.0194356E0,5E-1,-5.4759824E-1,1.2440696E-1,-4.56445E-1,3.9942253E-1,-1.0645237E0,8.76537E-1,2.1229085E-1,3.0321077E-1,-2.7759618E-1,-2.2046774E2,1.0074003E4,-3.585011E3,-1.1111394E4,4.8765923E3,1.8648756E4,1.9128183E2,7.369994E3,-2.0532921E2,-2.6752244E3,-5.5094434E2,5.4850093E3,-7.7935386E3,3.9809446E3,1.5632195E4,1.6726975E3,1.9496766E4,4.682209E3,2.5916992E4,9.046052E3,5.951864E3,-4.6181045E3,4.1545186E3,1.1407544E4,-5.145992E2,6.880824E3,6.536389E2,-4.347605E3,-1.428354E3,-1.1409863E4,1.7174887E4,6.723538E3,-1.2875812E3,3.7445679E3,3.3981382E3,8.570581E3,-5.46082E3,9.7995685E2,8.453264E2,-5.2320723E3,1.03366045E4,3.140285E3,4.328097E4,2.5419478E3,2.1376528E3,7.374932E3],"split_indices":[30,24,52,27,39,51,43,9,28,39,0,46,45,44,24,45,46,4,39,0,39,46,39,46,27,8,46,23,25,33,39,39,52,39,41,42,7,0,39,44,41,0,0,39,45,8,39,26,41,41,45,23,52,24,39,0,0,0,0,0,0,0,0,0,0,0,0,0,0,0,0,0,0,0,0,0,0,0,0,0,0,0,0,0,0,0,0,0,0,0,0,0,0,0,0,0,0,0,0,0,0],"split_type":[0,0,0,0,0,0,0,0,0,0,0,0,0,0,0,0,0,0,0,0,0,0,0,0,0,0,0,0,0,0,0,0,0,0,0,0,0,0,0,0,0,0,0,0,0,0,0,0,0,0,0,0,0,0,0,0,0,0,0,0,0,0,0,0,0,0,0,0,0,0,0,0,0,0,0,0,0,0,0,0,0,0,0,0,0,0,0,0,0,0,0,0,0,0,0,0,0,0,0,0,0],"sum_hessian":[9.9216E4,1.7578E4,8.1638E4,1.7518E4,6E1,1.3794E4,6.7844E4,1.1071E4,6.447E3,4.9E1,1.1E1,5.68E2,1.3226E4,1.2758E4,5.5086E4,9.069E3,2.002E3,6.149E3,2.98E2,1.7E1,3.2E1,5.4E2,2.8E1,3.88E3,9.346E3,4.712E3,8.046E3,4.0521E4,1.4565E4,8.964E3,1.05E2,3.77E2,1.625E3,5.048E3,1.101E3,7.3E1,2.25E2,1E1,2.2E1,6.9E1,4.71E2,1.6E1,1.2E1,1.012E3,2.868E3,6.208E3,3.138E3,2.666E3,2.046E3,4.175E3,3.871E3,3.7209E4,3.312E3,1.1722E4,2.843E3,8.921E3,4.3E1,4.7E1,5.8E1,2.45E2,1.32E2,1.429E3,1.96E2,1.562E3,3.486E3,8.71E2,2.3E2,5.2E1,2.1E1,6.2E1,1.63E2,1E1,1.2E1,4E1,2.9E1,4.14E2,5.7E1,6.12E2,4E2,2.581E3,2.87E2,4.868E3,1.34E3,2.501E3,6.37E2,1.303E3,1.363E3,7.69E2,1.277E3,3.076E3,1.099E3,5.92E2,3.279E3,3.6057E4,1.152E3,9.43E2,2.369E3,1.1E1,1.1711E4,8.13E2,2.03E3],"tree_param":{"num_deleted":"0","num_feature":"53","num_nodes":"101","size_leaf_vector":"0"}},{"base_weights":[3.2588997E3,2.906609E3,1.9513354E4,1.2269256E4,2.2682341E3,3.3899402E4,9.864676E3,2.5867014E4,8.692366E3,9.0457404E2,6.076567E3,5.579881E4,2.1004756E4,2.0279855E3,2.7978836E4,1.317597E5,2.447214E4,6.675015E3,2.5293217E4,6.842485E2,2.0491354E4,1.1564836E4,1.1616923E3,2.4913203E4,6.59983E4,3.3013824E4,6.007985E3,9.451964E3,-1.3537781E4,3.4531754E4,9.773382E3,5.7631668E4,2.1648586E4,5.3998545E3,2.5278512E4,